tree
version=v4
num_class=1
num_tree_per_iteration=1
label_index=0
max_feature_idx=39
objective=regression
feature_names=Component5_fraction Component4_Property9 Component5_Property8 Component4_fraction Component3_Property6 Component3_Property9 Component3_fraction Component2_fraction Component5_Property9 Component1_fraction Component1_Property6 Component4_Property8 Component4_Property6 Property9_mean Component1_Property9 Property9_max Property6_min Component2_Property9 Component1_Property8 Component2_Property6 Property9_std Component1_Property1 Component2_Property7 Component1_Property3 Component2_Property10 Property6_std Component2_Property4 Component4_Property5 Component3_Property1 Property3_max Component1_Property10 Component2_Property8 Property5_std Component2_Property5 Property8_min Property10_std Property1_min Component4_Property7 Property6_mean Property7_std
feature_infos=[-1.4432149549842339:2.194551767414576] [-3.3616581809703208:2.9510622392090893] [-3.1233416482436249:1.7593989751171502] [-2.3536976069500075:1.1236943830563355] [-3.4280549749676439:3.1232189578542928] [-3.2703553075502727:2.885983552251977] [-1.0863220989713205:1.9316416822309519] [-1.1050008307166337:1.9605628739148144] [-3.3912205262737705:1.6873575737243884] [-1.1148884748189714:1.9298573107739021] [-2.9205000524078404:3.1836601658004189] [-2.993034857712348:2.9779181958666019] [-3.0311354121342284:3.0834813662147851] [-3.7460832672071551:2.9407837283881686] [-3.2875020715288867:2.860497660818905] [-3.3585688068237718:3.5360539334440131] [-3.6909168992388981:3.2721313008223056] [-1.4229776261693556:3.2585970667568298] [-2.9831086286865651:2.9592846825428496] [-2.5129542024528781:3.0384687186590318] [-2.49622601226603:3.2301410677942566] [-2.9443259388623559:2.9817423438570092] [-2.1338563896450644:3.1133057856593047] [-3.0054498912568559:2.9809117947060946] [-1.8060251750535961:3.0365319449786181] [-2.4675458255732496:3.702493962776352] [-3.0362610107314225:3.0767043898214803] [-3.044882271994954:3.2055055722001247] [-3.0092845207792114:2.8694751749189109] [-3.2158364504687471:2.959329245116928] [-3.079879551332029:3.046570451098813] [-1.7843218154068194:3.0420502416033965] [-2.464954729913277:3.1228969319024298] [-2.5079698593676123:2.9460068094965961] [-2.9395894401100979:3.1693038282190078] [-2.5685999525849321:3.510551285120342] [-3.544744617698067:2.8445794852718391] [-2.7805051831265279:3.1575226164475696] [-3.1698543155863037:3.2538860770576261] [-2.541155810876063:3.9136965946876594]
tree_sizes=2762 2781 2770 2787 2773 2783 2783 2787 2785 2800 2792 2793 2793 2792 2796 2798 2832 2806 2818 2814 2820 2811 2815 2808 2824 2813 2816 2832 2842 2842 2858 2847 2858 2868 2865 2851 2854 2873 2869 2878 2876 2870 2885 2869 2878 2881 2890 2886 2891 2894 2894 2893 2889 2897 2879 2873 2891 2897 2896 2898 2905 2898 2894 2885 2921 2897 2896 2927 2915 2924 2910 2910 2931 2926 2923 2938 2932 2933 2941 2937 2929 2938 2915 2930 2946 2936 2940 2933 2917 2954 2942 2962 2926 2929 2938 2947 2945 2947 2942 2933 2942 2929 2932 2926 2946 2934 2944 2939 2950 2928 2945 2940 2957 2945 2944 2951 2945 2935 2940 2948 2943 2943 2960 2924 2940 2940 2952 2955 2936 2928 2940 2946 2943 2950 2924 2942 2940 2962 2941 2944 2937 2937 2953 2946 2941 2962 2950 2960 2968 2949 2978 2964 2944 2967 2969 2969 2947 2961 2963 2968 2978 2975 2959 2969 2985 2976 2977 2973 2997 2965 2977 2977 2981 2991 2961 2980 2967 2972 2974 2980 2992 2978 2974 2966 2972 2989 2986 3010 2994 2964 2981 2976 2983 3000 2981 2985 2989 2981 2995 2980 2991 3009 2989 3007 3006 3002 2983 2991 2993 2972 3002 2974 2977 2999 2998 2975 2985 2992 2981 2992 3002 2987 2998 2986 3002 2994 2986 2982 3009 2987 3002 3002 2995 3004 2993 2989 3003 2994 3005 2994 3017 3002 2988 2987 3010 2986 2997 2992 3010 2990 3015 2997 2997 3005 3002 2987 3003 2996 3013 2998 3018 3017 2999 3022 3009 3042 2992 3014 3006 3028 3016 3017 3004 3038 3021 3025 3019 3028 3029 3026 3015 3023 3029 3031 3023 3030 3016 3015 3018 3033 3024 3031 3026 3019 3032 3029 3034 3027 3019 3034 3030 3030 3032 3008 3021 3035 3040 3023 3038 3019 3022 3030 3027 3032 3021 3014 3034 3027 3027 3038 3025 3033 3023 3039 3037 3025 3025 3028 3030 3041 3034 3037 3028 3039 3016 3027 3031 3024 3035 3034 3042 3033 3026 3019 3027 3035 3028 3033 3028 3030 3036 3019 3038 3024 3008 3028 3014 3027 3038 3012 3017 3031 3028 3031 3020 3028 3032 3015 3031 3028 3031 3053 3029 3027 3005 3021 3023 3045 3017 3029 3023 3027 3018 3043 3033 3027 3034 3033 3014 3023 3024 3018 3032 3037 3039 3020 3028 3036 3013 3035 3021 3016 3021 3029 3035 3029 3041 3019 3028 3035 3029 3034 3030 3027 3032 3025 3021 3021 3023 3037 3040 3030 3027 3031 3033 3037 3016 3035 3035 3032 3023 3040 3045 3030 3028 3036 3032 3037 3020 3020 3035 3027 3031 3032 3046 3030 3031 3032 3032 3035 3045 3014 3025 3037 3028 3029 3024 3031 3031 3023 3030 3025 3032 3031 3023 3033 3030 3028 3019 3025 3034 3022 3033 3032 3031 3018 3022 3039 3037 3026 3025 3019 3030 3024 3017 3037 3041 3029 3023 3031 3035 3024 3040 3036 3026 3035 3040 3019 3034 3032 3032 3021 3028 3020 3028 3017 3032 3028 3037 3022 3020 3024 3045 3030 3032 3026 3028 3030 3023 3025 3023 3047 3024 3036 3033 3044 3034 3050 3039 3045 3025 3020 3027 3020 3023 3015 3029 3021 3020 3035 3034 3031 3027 3013 3044 3027 3032 3032 3043 3034 3030 3028 3032 3041 3043 3033 3031 3029 3030 3029 3031 3028 3028 3043 3024 3032 3027 3030 3020 3028 3044 3038 3035 3028 3029 3035 3029 3022 3048 3038 3034 3023 3017 3035 3027 3021 3039 3041 3031 3027 3032 3033 3038 3047 3035 3033 3028 3041 3040 3037 3041 3027 3029 3020 3024 3042 3028 3024 3046 3033 3040 3037 3032 3030 3028 3031 3027 3040 3041 3031 3025 3027 3032 3044 3036 3041 3024 3025 3033 3030 3056 3033 3033 3027 3031 3032 3035 3027 3039 3021 3025 3040 3041 3030 3031 3035 3040 3033 3024 3038 3022 3043 3023 3046 3017 3022 3052 3031 3025 3026 3016 3039 3020 3028 3017 3049 3031 3030 3023 3033 3027 3040 3042 3012 3040 3031 3026 3034 3036 3031 3035 3028 3027 3032 3049 3037 3024 3040 3040 3030 3046 3040 3026 3033 3039 3034 3018 3048 3006 3015 3029 3025 3039 3036 3024 3057 3040 3023 3037 3043 3035 3055 3026 3013 3010 3028 3039 3041 3031 3017 3028 3033 3038 3026 3038 3049 3034 3025 3047 3042 3021 3042 3035 3041 3020 3046 3052 3036 3028 3031 3034 3028 3021 3050 3039 3036 3051 3030 3026 3023 3026 3037 3042 3036 3027 3024 3021 3026 3040 3034 3032 3037 3039 3053 3039 3038 3051 3036 3041 3038 3026 3049 3038 3028 3017 3035 3044 3048 3024 3031 3039 3041 3034 3040 3033 3041 3043 3037 3041 3028 3040 3042 3030 3041 3025 3035 3023 3028 3041 3031 3024 3042 3034 3045 3039 3026 3040 3034 3027 3022 3030 3041 3029 3031 3043 3037 3049 3034 3037 3050 3034 3032 3031 3038 3043 3016 3012 3035 3034 3036 3036 3028 3038 3026 3048 3035 3028 3013 3030 3041 3033 3036 3031 3038 3034 3044 3042 3042 3030 3054 3035 3043 3038 3040 3034 3019 3022 3031 3042 3042 3030 3039 3035 3037 3037 3032 3039 3040 3047 3031 3033 3034 3043 3029 3044 3036 3042 3018 3038 3034 3032 3032 3044 3037 3043 3041 3039 3047 3032 3039 3044 3043 3036 3046 3032 3033 3040 3037 3033 3044 3047 3024 3038 3044 3031 3036 3041 3037 3046 3036 3040 3040 3036 3037 3040 3032 3040 3047 3027 3036 3053 3045 3046 3044 3030 3038 3035 3039 3036 3028 3054 3029 3048 3040 3057 3041 3055 3030 3062 3037 3043 3046 3039 3041 3039 3045 3035 3037 3040 3056 3049 3044 3026 3044 3048 3041 3050 3046 3022 3055 3036 3038 3036 3044 3029 3036 3042 3044 3045 3045 3051 3041 3034 3049 3042 3029 3057 3029 3050 3044 3035 3036 3030 3042 3045 3036 3034 3047 3039 3036 3045 3052 3054 3042 3057 3056 3040 3042 3053 3043

Tree=0
num_leaves=31
num_cat=0
split_feature=0 1 2 1 1 0 0 0 0 1 1 0 12 7 7 3 0 3 3 0 4 7 7 4 2 4 6 15 6 1
split_gain=694.711 209.265 98.3502 69.3283 58.2729 48.1675 44.2552 39.3345 32.8027 22.5199 18.6166 17.5726 13.833 13.5995 13.5933 12.2577 12.0368 11.8419 10.6197 14.149 10.2849 9.31424 9.0693 8.90013 8.85735 8.70628 8.4307 7.0383 6.75687 6.73375
threshold=0.12478794260145983 -0.42729276477620259 0.570451633328802 0.58024462125336085 0.46174185356635483 1.1283097970563041 1.2537500288631598 -0.50241321643281756 -0.62785344823967304 -0.71355229562625166 -1.6251616618953311 -0.62785344823967304 -0.79943573621038844 0.45843665864540512 0.88761557729380802 0.094670222748336072 1.6300707242837265 0.52047332356543941 -0.26016569459924982 1.2537500288631598 0.071471778097514052 1.1941719477569528 1.9299072368685002 0.031126849461220251 -0.60829426822859689 -0.39912806607686185 -0.93542390991120661 0.0080735268012897526 1.2375100125544296 0.1837499576712173
decision_type=2 2 2 2 2 2 2 2 2 2 2 2 2 2 2 2 2 2 2 2 2 2 2 2 2 2 2 2 2 2
left_child=1 7 4 8 6 12 9 10 14 24 -1 23 -4 -12 -3 -10 -7 -13 19 27 -8 -9 25 -5 -2 -11 -25 -6 -27 -14
right_child=2 3 5 11 18 16 20 21 15 22 13 17 29 -15 -16 -17 -18 -19 -20 -21 -22 -23 -24 26 -26 28 -28 -29 -30 -31
leaf_value=-0.19919195730098002 -0.073595697796943152 -0.062714178389595795 0.029362202746629082 -0.029966614682416876 0.00037642374642850264 0.14984389982826818 0.045585810990553005 -0.061070390102393325 -0.04292652065733165 -0.001489207612046566 -0.11150377671209573 0.016654954110011323 0.076372264894783382 -0.17174002716563208 -0.11928032523678227 0.0078380740590484298 0.23337750917360753 0.081787252268424315 0.11166170145884322 0.10705884477159339 0.10571304570279608 -0.13030978973682797 -0.045740409417529014 -0.032419854793718866 -0.014334646589008924 0.028870211592369528 0.035754142330508332 0.060488084508062458 0.086293820275232538 0.11913065621986471
leaf_weight=48 43 176 39 89 28 69 66 102 108 74 128 71 79 53 56 85 23 46 78 53 50 24 20 26 61 85 60 64 27 69
leaf_count=48 43 176 39 89 28 69 66 102 108 74 128 71 79 53 56 85 23 46 78 53 50 24 20 26 61 85 60 64 27 69
internal_value=-0.00150729 -0.056343 0.0618374 -0.0252541 0.0404926 0.111489 0.0188126 -0.119134 -0.0510288 -0.000903667 -0.143825 0.0122603 0.0823452 -0.129142 -0.0763681 -0.0205691 0.170727 0.0422625 0.0819081 0.0659027 0.0715027 -0.0742588 0.018247 -0.00779827 -0.0388368 0.0251274 0.0151434 0.0421932 0.0427134 0.0963069
internal_weight=2000 1072 928 717 649 279 426 355 425 310 229 292 187 181 232 193 92 117 223 145 116 126 206 175 104 186 86 92 112 148
internal_count=2000 1072 928 717 649 279 426 355 425 310 229 292 187 181 232 193 92 117 223 145 116 126 206 175 104 186 86 92 112 148
is_linear=0
shrinkage=1


Tree=1
num_leaves=31
num_cat=0
split_feature=0 1 0 2 1 1 0 2 1 0 1 1 3 6 7 8 2 0 0 3 38 5 13 7 7 4 3 3 0 6
split_gain=565.97 162.085 81.6439 65.371 50.3991 44.9794 30.9438 21.4415 19.7306 19.5881 19.2766 13.7696 13.2918 13.2319 12.9918 12.4137 11.1273 11.077 10.6728 10.0233 9.03203 8.71147 8.51651 8.20295 7.04602 6.79842 6.70693 6.6115 6.47843 5.85513
threshold=1.0000000180025095e-35 -0.17087880975628669 0.75198910163573751 0.14608915808064141 0.45699236114545311 0.73146611450658761 -0.87873391185338412 0.48400096675626225 -1.3046002413387574 1.6300707242837265 1.0728432117226807 -0.43685038532691484 -0.26016569459924982 0.21140232694565672 0.45843665864540512 -0.65734380307399265 1.2021997973745246 -0.87873391185338412 -0.62785344823967304 0.73337487397399126 -1.0881061975845059 0.66629677811619381 0.27521505286851106 0.090569014089631319 0.64237048092329208 0.031126849461220251 -0.26016569459924982 0.52047332356543941 1.6300707242837265 1.0000000180025095e-35
decision_type=2 2 2 2 2 2 2 2 2 2 2 2 2 2 2 2 2 2 2 2 2 2 2 2 2 2 2 2 2 2
left_child=1 6 4 10 7 13 8 11 -1 16 15 29 -6 17 -8 -4 22 -3 25 -19 -17 -15 -5 -10 -13 -7 -9 -20 -22 -2
right_child=2 5 3 9 12 18 14 26 23 -11 -12 24 -14 21 -16 20 -18 19 27 -21 28 -23 -24 -25 -26 -27 -28 -29 -30 -31
leaf_value=-0.17967731796078765 -0.070028324495508984 -0.079511428093620107 -0.0036113936376447478 0.073837537241785822 0.038555435917395006 -0.023899977778395018 -0.058717817283302012 0.0060218950112660733 -0.092449978789251847 0.18582476313049731 0.10516894129104913 0.016100207242639143 0.093697235898839104 -0.033618166551263221 -0.11370350503993612 -0.0038200134273480486 0.14583548487357376 -0.056972435339317701 0.017818669023524438 0.004235804059383709 0.046507457266825272 0.025867670071976524 0.12386590634231215 -0.14306883931159972 -0.039561737356707455 0.018821920713762177 0.054697308910713685 0.074261665489110687 0.094632519114958624 -0.016371799864326464
leaf_weight=59 53 113 60 92 85 75 140 48 89 37 48 94 90 83 62 27 53 77 49 41 106 35 54 50 30 74 69 36 38 33
leaf_count=59 53 113 60 92 85 75 140 48 89 37 48 94 90 83 62 27 53 77 49 41 106 35 54 50 30 74 69 36 38 33
internal_value=3.47651e-10 -0.0541085 0.0522996 0.0802732 0.0236014 -0.0204736 -0.103131 0.000421902 -0.131225 0.119011 0.0475058 -0.0186914 0.0669141 -0.0432176 -0.0755946 0.0355238 0.106588 -0.0571342 0.0134481 -0.0357052 0.0492555 -0.0159741 0.0923412 -0.110658 0.00263361 -0.00268239 0.0347279 0.0417239 0.0592071 -0.0494392
internal_weight=2000 983 1017 515 502 583 400 327 198 236 279 210 175 349 202 231 199 231 234 118 171 118 146 139 124 149 117 85 144 86
internal_count=2000 983 1017 515 502 583 400 327 198 236 279 210 175 349 202 231 199 231 234 118 171 118 146 139 124 149 117 85 144 86
is_linear=0
shrinkage=0.1


Tree=2
num_leaves=31
num_cat=0
split_feature=0 1 2 1 1 0 0 0 0 7 1 0 4 6 12 6 5 8 3 1 2 6 3 3 1 6 8 0 7 2
split_gain=459.578 140.244 68.3698 52.8265 39.9019 32.0832 30.2999 28.5565 20.0574 16.9849 14.1559 13.1257 13.1074 10.4985 9.90015 9.64558 8.74414 8.63511 8.42518 8.099 7.4726 7.29802 7.18068 6.69524 6.50346 6.06492 5.84997 5.99708 5.33929 5.14002
threshold=0.12478794260145983 0.38885766740359601 0.61949701905452403 -0.78649511749791257 0.46174185356635483 1.1283097970563041 0.877429333442593 -0.62785344823967304 -1.0041741436602396 1.010238125479066 -0.43685038532691484 -0.62785344823967304 0.071471778097514052 -0.090394051174570333 -0.5067287601344781 0.633917256313975 0.86994037106229538 0.55139685071095279 1.0000000180025095e-35 1.2992356837857775 -0.91564535210978903 0.75463580756206572 0.80434205744350851 -0.68596879541635303 -1.3046002413387574 1.0000000180025095e-35 -0.6901982967824426 1.6300707242837265 1.3167944959422109 1.7043373554090717
decision_type=2 2 2 2 2 2 2 2 2 2 2 2 2 2 2 2 2 2 2 2 2 2 2 2 2 2 2 2 2 2
left_child=1 3 4 8 6 14 10 13 24 11 25 16 26 -5 -4 -10 -3 -7 -9 20 23 -14 -13 -6 -1 -2 -8 -28 -12 -16
right_child=2 9 5 7 19 17 12 18 15 -11 28 22 21 -15 29 -17 -18 -19 -20 -21 -22 -23 -24 -25 -26 -27 27 -29 -30 -31
leaf_value=-0.17097536463003893 -0.059646474922245202 -0.013593726478917087 0.033252384027582592 -0.093331354950935072 -0.020650420417743072 0.1201219916343689 -0.016016715524658078 -0.043925098057686338 -0.10123893480375411 -0.041076878218582885 0.022990629102388235 0.021824436556986151 0.049326911219001068 -0.052485194859152609 0.075802583392094641 -0.035736117844373499 0.041950674535972732 0.18524076566100123 -0.0043646834697809566 0.095795324901501611 0.068624421180250639 0.1059783874331294 0.071971320360898969 0.060194028988480565 -0.11695483051813567 -0.0088334729758704593 0.018895113974764583 0.079666954092681416 -0.027723784644443257 0.12905110486529089
leaf_weight=52 55 149 52 142 21 56 31 118 100 68 103 85 59 113 103 29 35 32 99 73 113 37 43 20 39 41 62 22 26 22
leaf_count=52 55 149 52 142 21 56 31 118 100 68 103 85 59 113 103 29 35 32 99 73 113 37 43 20 39 41 62 22 26 22
internal_value=-3.04717e-11 -0.0446007 0.0515215 -0.0714037 0.0343612 0.0944545 0.0166597 -0.0525406 -0.111874 0.00420901 -0.00886894 0.014079 0.0438822 -0.0752309 0.0699204 -0.0865135 -0.00302822 0.143802 -0.0258768 0.0683605 0.0553557 0.0711613 0.0386707 0.0187859 -0.147824 -0.0379451 0.02111 0.0348115 0.0127691 0.0851743
internal_weight=2000 1072 928 692 663 265 436 472 220 380 225 312 211 255 177 129 184 88 217 227 154 96 128 41 91 96 115 84 129 125
internal_count=2000 1072 928 692 663 265 436 472 220 380 225 312 211 255 177 129 184 88 217 227 154 96 128 41 91 96 115 84 129 125
is_linear=0
shrinkage=0.1


Tree=3
num_leaves=31
num_cat=0
split_feature=0 1 2 0 1 13 12 0 0 0 2 7 17 1 7 1 7 13 3 0 0 4 8 1 1 6 3 3 2 5
split_gain=374.092 111.286 59.8771 47.2682 37.2448 27.3177 19.8524 17.3247 16.3001 14.8381 13.3598 12.4671 11.9804 10.9516 10.7511 10.4192 9.82339 9.51737 9.51399 8.75546 7.20507 6.76222 6.06806 5.92212 5.64685 5.59734 5.26977 4.76478 4.73699 4.72057
threshold=1.0000000180025095e-35 -0.42729276477620259 -0.047563822713720894 1.1283097970563041 0.94337556647136778 -0.13521206954967216 -0.90008414824978178 -1.0041741436602396 -0.37697298462596213 1.2537500288631598 1.1775681147656065 1.3781057700348398 -0.98339153184091954 -1.3046002413387574 0.45843665864540512 0.48824519398918081 1.3781057700348398 0.089777590892239315 -0.18919851112973252 -0.75329368004652864 0.37566840621517095 0.12497384854889422 -0.48357830008328495 -0.41409973027369334 -0.17087880975628669 0.33212087819374769 -0.75693597888587016 1.0000000180025095e-35 0.42457975720589852 0.83062163831642821
decision_type=2 2 2 2 2 2 2 2 2 2 2 2 2 2 2 2 2 2 2 2 2 2 2 2 2 2 2 2 2 2
left_child=1 7 5 6 8 9 23 13 11 18 22 17 -7 -1 29 20 21 -3 -2 -6 -8 -14 -5 -4 -20 -15 -17 -21 -10 -9
right_child=2 4 3 10 19 12 15 14 28 -11 -12 -13 16 25 -16 26 -18 -19 24 27 -22 -23 -24 -25 -26 -27 -28 -29 -30 -31
leaf_value=-0.15387782832750907 -0.051665709258633709 -0.057606284106954911 -0.02784648970833847 0.054619646914027355 0.0010297203740409981 0.08497350894446884 0.017637512915713999 -0.063691503798939508 -0.019650730015219831 0.031999691590374593 0.16519069993818128 -0.091814510232093291 0.020008840897574653 -0.1143435070749189 -0.10542956033691031 0.053186439455021176 -0.01751102997364885 -0.021467552545249083 -0.027201160632073881 0.011033094719052316 0.058629021191939946 0.055348382736271129 0.10888665546288437 0.026486391702944298 0.043138828447886877 -0.062702752876793971 0.099215693192349547 0.065482632319132483 0.020224336947181398 -0.014353026810567826
leaf_weight=52 84 136 35 27 113 42 65 101 76 51 37 51 121 61 61 38 41 157 25 25 126 98 87 47 21 32 72 45 49 24
leaf_count=52 84 136 35 27 113 42 65 101 76 51 37 51 121 61 61 38 41 157 25 25 126 98 87 47 21 32 72 45 49 24
internal_value=-1.01616e-10 -0.0439904 0.0425197 0.0655964 -0.0200168 0.0170064 0.0469153 -0.0912133 -0.0349464 -0.013713 0.11298 -0.0461843 0.0354177 -0.117125 -0.0710135 0.0587984 0.0274125 -0.0382418 -0.0316464 0.0182454 0.044679 0.0358229 0.0960339 0.00329553 0.00491057 -0.0965746 0.0833147 0.0460364 -0.0040197 -0.0542185
internal_weight=2000 983 1017 534 652 483 383 331 469 181 151 344 302 145 186 301 260 293 130 183 191 219 114 82 46 93 110 70 125 125
internal_count=2000 983 1017 534 652 483 383 331 469 181 151 344 302 145 186 301 260 293 130 183 191 219 114 82 46 93 110 70 125 125
is_linear=0
shrinkage=0.1


Tree=4
num_leaves=31
num_cat=0
split_feature=0 1 2 0 13 0 1 7 2 1 5 7 0 1 0 8 2 7 7 1 13 3 2 13 5 1 9 6 0 0
split_gain=304.315 95.2588 46.9382 34.6737 29.0418 26.9613 25.3788 14.1452 11.3042 10.7283 10.5681 10.4882 10.0089 9.64708 8.52205 7.77972 7.25639 7.01753 6.64513 6.40227 6.17071 6.17047 5.85288 5.8017 5.72083 5.63116 4.92922 4.79309 4.70609 4.18932
threshold=0.12478794260145983 0.36452384821007389 0.41681968728662883 -0.37697298462596213 -0.17788704202526476 1.1283097970563041 -0.91209280596181996 1.010238125479066 -0.53745093329144289 1.2992356837857775 1.3565747468640228 1.0715493995716947 0.75198910163573751 0.1837499576712173 -0.75329368004652864 0.40353209603023826 1.0523170985967185 1.3167944959422109 0.45843665864540512 1.0908443743549971 0.55845722753388916 0.23660458968737058 -0.77670522383612084 -1.614902860659811 0.87883558376533089 -0.64401034487079001 0.92509120152825419 0.51319870506588416 0.877429333442593 0.877429333442593
decision_type=2 2 2 2 2 2 2 2 2 2 2 2 2 2 2 2 2 2 2 2 2 2 2 2 2 2 2 2 2 2
left_child=1 3 4 6 8 13 17 10 25 12 14 20 21 28 -3 -7 18 23 26 -16 -8 24 -14 -1 -6 -2 -5 -25 -4 -10
right_child=2 7 5 16 9 15 11 -9 29 -11 -12 -13 22 -15 19 -17 -18 -19 -20 -21 -22 -23 -24 27 -26 -27 -28 -29 -30 -31
leaf_value=-0.14657394940202886 -0.054564356712831399 -0.010782489664199278 0.023909610274513583 -0.0099206169247222347 -0.016454241490707948 0.092477488738130526 -0.059088024342238782 -0.036085156853000323 6.8850779155297064e-05 0.080215734267427077 0.066698105269460947 -0.10071552774310114 0.024043835157395475 0.077702727913856517 0.0089631360088613769 0.14761969819664955 0.013931971727135152 -0.16258719251269388 -0.065109990868717424 0.054830558655990493 -0.023164139626427525 0.044154716758651937 0.063301505586941406 -0.10473862614320673 0.038308481841037675 -0.0068651250845075326 -0.054012949551854816 -0.057914575218455867 0.067515251266233853 0.037127774049128807
leaf_weight=22 45 146 99 92 65 71 209 75 67 62 32 50 56 87 94 40 38 21 50 45 62 47 118 69 27 55 35 32 33 56
leaf_count=22 45 146 99 92 65 71 209 75 67 62 32 50 56 87 94 40 38 21 50 45 62 47 118 69 27 55 35 32 33 56
internal_value=-1.03539e-10 -0.0362931 0.0419247 -0.0589261 0.0252178 0.0721996 -0.0742807 0.00296842 -0.00335968 0.042212 0.0122082 -0.0586335 0.034684 0.0518502 0.00609006 0.112349 -0.0257174 -0.109161 -0.0342297 0.0238123 -0.0508693 0.0146768 0.0506669 -0.100039 -0.000382573 -0.0283298 -0.022072 -0.0899033 0.034811 0.0169412
internal_weight=2000 1072 928 680 598 330 465 392 223 375 317 321 313 219 285 111 215 144 177 139 271 139 174 123 92 100 127 101 132 123
internal_count=2000 1072 928 680 598 330 465 392 223 375 317 321 313 219 285 111 215 144 177 139 271 139 174 123 92 100 127 101 132 123
is_linear=0
shrinkage=0.1


Tree=5
num_leaves=31
num_cat=0
split_feature=0 1 0 1 2 1 2 3 1 0 15 7 1 2 0 9 4 7 6 8 1 9 2 2 3 5 12 5 1 7
split_gain=248.527 74.6754 48.5722 31.4399 30.6513 21.0156 13.5089 12.547 11.9366 11.3958 10.9924 8.57091 7.72029 7.15578 6.65094 6.51944 6.8752 6.50882 6.26589 6.17093 5.95993 5.57096 5.27065 4.90734 4.85478 4.61621 4.58714 4.3764 4.34846 4.05847
threshold=-0.12609252101225107 -0.17087880975628669 0.75198910163573751 0.17407506570270778 0.14608915808064141 0.96237353615498811 -0.07127999145575574 0.23660458968737058 -0.91209280596181996 1.6300707242837265 0.098736761018151056 0.27450283636751821 0.89365248532412767 1.2021997973745246 -1.3804948390808061 1.1077759486638266 -0.83238564883415134 0.64237048092329208 -0.15075332679861583 -0.67394684686244866 1.1423265267692437 0.13345729727410682 1.3208242369831378 -0.84480201717263503 -0.18919851112973252 1.1693967604107782 0.33992651546811498 0.47277858686397617 1.6677024785136927 0.76499302910854994
decision_type=2 2 2 2 2 2 2 2 2 2 2 2 2 2 2 2 2 2 2 2 2 2 2 2 2 2 2 2 2 2
left_child=1 8 3 6 10 11 17 13 14 12 19 15 22 25 -1 16 -3 21 -10 -4 -9 -2 -6 -21 27 -5 -12 -8 29 -7
right_child=2 5 4 7 9 28 24 20 18 -11 26 -13 -14 -15 -16 -17 -18 -19 -20 23 -22 -23 -24 -25 -26 -27 -28 -29 -30 -31
leaf_value=-0.11862308079320374 -0.00043266823641577008 -0.048486621189560444 -0.019560108731966466 0.0047409001310006714 0.052672735830128659 0.014260207927017883 -0.029001039622380632 0.051893563752157104 -0.074993434542314705 0.13176903715608895 0.03679299621161685 -0.051400129988184599 0.11324374419119623 0.068737829614568632 -0.077960549302182158 -0.0469583461782144 -0.00056927595091527659 -0.072219321178272372 -0.038370260896204697 -0.0047810889508885651 0.10888239812850953 -0.047146911985344361 0.0964639380148479 0.039592277579423456 0.021812999100802699 0.053646254393717521 0.07576316080310129 0.022596508771181106 0.047930791104833288 -0.02885754755180743
leaf_weight=66 59 37 40 120 128 114 48 69 96 37 67 117 36 27 103 62 157 32 91 36 25 45 35 81 112 23 55 25 30 27
leaf_count=66 59 37 40 120 128 114 48 69 96 37 67 117 36 27 103 62 157 32 91 36 25 45 35 81 112 23 55 25 30 27
internal_value=5.11234e-11 -0.0389714 0.0318857 0.0121695 0.0542818 -0.0156694 -0.00885432 0.0377326 -0.074579 0.0808075 0.0318443 -0.0289775 0.0713323 0.0215217 -0.0938406 -0.0187297 -0.00970815 -0.0327806 -0.0571715 0.0143468 0.0670502 -0.0206456 0.0620758 0.0259389 0.0087347 0.0126068 0.0543615 -0.0113306 0.0133593 0.00600362
internal_weight=2000 900 1100 585 515 544 321 264 356 236 279 373 199 170 169 256 194 136 187 157 94 104 163 117 185 143 122 73 171 141
internal_count=2000 900 1100 585 515 544 321 264 356 236 279 373 199 170 169 256 194 136 187 157 94 104 163 117 185 143 122 73 171 141
is_linear=0
shrinkage=0.1


Tree=6
num_leaves=31
num_cat=0
split_feature=0 1 2 1 13 0 0 0 2 0 5 1 7 2 3 0 1 7 0 2 3 1 3 0 8 3 11 1 38 10
split_gain=201.649 65.185 33.6036 23.1901 22.0014 14.9701 13.192 10.5768 10.0861 9.49775 9.06469 8.6183 7.54483 7.38967 7.35082 7.22514 5.87284 5.83109 5.64874 5.36385 5.34393 5.27302 5.17635 5.15181 5.04848 4.75179 4.66465 4.67544 4.37649 4.15305
threshold=0.12478794260145983 -0.44746344863782295 0.61949701905452403 0.47909802340077262 -0.13521206954967216 1.3791902606700153 -1.0041741436602396 -0.62785344823967304 -0.499522501663551 1.2537500288631598 1.3565747468640228 0.94337556647136778 0.45843665864540512 1.7043373554090717 -0.26016569459924982 -0.50241321643281756 -1.3046002413387574 1.0000000180025095e-35 1.5046304924768708 -0.69731709280808662 -0.047264144190698042 0.92244261839405151 0.52047332356543941 1.2537500288631598 0.57780545683094497 -0.33113287806876707 -1.1679757384293554 1.3959846034708592 0.48174193034349999 -0.81866286894561868
decision_type=2 2 2 2 2 2 2 2 2 2 2 2 2 2 2 2 2 2 2 2 2 2 2 2 2 2 2 2 2 2
left_child=1 6 4 7 8 13 16 17 23 11 15 19 -8 21 -13 26 -1 -3 25 29 -9 -4 -17 -2 -7 -10 -5 -28 -21 -6
right_child=2 3 5 10 9 24 12 20 18 -11 -12 14 -14 -15 -16 22 -18 -19 -20 28 -22 -23 -24 -25 -26 -27 27 -29 -30 -31
leaf_value=-0.11587166703091219 -0.036864360966542851 -0.029467212371368953 0.035243824809151413 -0.053582192195410085 -0.043001280203461646 0.085990916411666313 -0.035657855176010771 -0.02777438853831532 -0.011343066811512934 0.063879211081398865 0.059809242272428398 0.029988661471754316 -0.07606330429336855 0.090574016897007836 0.089251284466849434 0.0052377269565038491 -0.073300774438783176 -0.062816612185224108 0.055207920918862036 0.014933346849852015 0.0074242339680317742 0.084201233346874904 0.049300782258311915 0.011239731715496389 0.14746943468397314 0.027402080370423694 -0.013397703538868117 0.025814917666885335 0.052019089752306735 0.0099622221483865337
leaf_weight=52 79 117 143 22 20 34 136 91 67 99 29 50 70 40 36 73 86 95 30 82 82 26 42 31 22 60 138 39 52 57
leaf_count=52 79 117 143 22 20 34 136 91 67 99 29 50 70 40 36 73 86 95 30 82 82 26 42 31 22 60 138 39 52 57
internal_value=1.41497e-10 -0.0295434 0.0341277 -0.0125926 0.0220971 0.0642267 -0.065416 -0.0294388 -8.79246e-05 0.0370552 0.00631646 0.0281139 -0.0493879 0.0519237 0.0547963 0.00137604 -0.089342 -0.0444115 0.0161807 0.0172386 -0.0110906 0.0427757 0.0213303 -0.0233078 0.110143 0.00696173 -0.0101553 -0.00475763 0.0293248 -0.00379453
internal_weight=2000 1072 928 728 663 265 344 385 267 396 343 297 206 209 86 314 138 212 157 211 173 169 115 110 56 127 199 177 134 77
internal_count=2000 1072 928 728 663 265 344 385 267 396 343 297 206 209 86 314 138 212 157 211 173 169 115 110 56 127 199 177 134 77
is_linear=0
shrinkage=0.1


Tree=7
num_leaves=31
num_cat=0
split_feature=0 1 0 1 2 1 2 3 2 1 1 7 5 8 2 15 6 5 6 12 3 9 5 2 0 5 6 0 15 6
split_gain=165.943 51.0544 33.3371 27.9652 20.4624 13.9437 11.2368 10.6641 10.3872 9.47549 9.01735 6.80729 6.78465 6.21426 6.14867 6.04326 6.03093 8.96398 5.91274 5.60092 5.41612 4.96632 4.89816 4.35856 4.01772 3.93652 3.82074 3.64392 3.60565 3.57812
threshold=-0.12609252101225107 0.17407506570270778 0.877429333442593 -0.014497374119850848 1.0805672407747329 -0.91209280596181996 -0.62159101724756838 -0.68596879541635303 -0.48491787569188999 1.0908443743549971 1.0908443743549971 1.5620395923127266 1.0118379396601951 -1.0635128531176912 -0.22970748632444443 0.27202342488944281 -0.6336275317909793 0.24353759991605572 -0.15075332679861583 -0.27542495606879458 -0.18919851112973252 -0.23191219699703788 -0.085490640173902788 1.0660062107014963 -0.87873391185338412 0.055602574083828508 1.0000000180025095e-35 1.3791902606700153 0.343583848610515 0.51319870506588416
decision_type=2 2 2 2 2 2 2 2 2 2 2 2 2 2 2 2 2 2 2 2 2 2 2 2 2 2 2 2 2 2
left_child=1 5 3 6 8 16 -2 14 15 11 -9 21 20 -10 26 -4 -1 -18 24 -15 23 25 -20 -8 -7 -3 -5 -6 -21 -19
right_child=2 9 4 7 27 18 12 10 13 -11 -12 -13 -14 19 -16 -17 17 29 22 28 -22 -23 -24 -25 -26 -27 -28 -29 -30 -31
leaf_value=-0.10493662649730467 -0.043320497135365649 -0.014515257072967611 -0.00078996142579449552 -0.045245828413005389 0.079485299603806611 -0.067795624411419828 -0.035652198045658813 0.031858270269285352 0.011600431662929409 0.015754520685963887 0.076726620723256631 -0.05992360847303644 0.043555099621880804 0.03649776949510946 0.025547492982291465 0.042893510326170003 -0.087163090403529195 -0.055335522400071994 -0.045621836765236422 0.057545762188449694 0.009688370262534874 -0.024097350385802036 -0.0090927284759297778 0.015289401923390953 -0.036948189760349991 0.022655426007534923 0.011180655605026655 0.1280836542447408 0.092296148772584283 0.0001628577132664976
leaf_weight=53 77 56 81 28 36 95 71 186 34 135 59 32 32 77 67 52 69 26 71 79 103 132 76 22 76 58 21 27 48 21
leaf_count=53 77 56 81 28 36 95 71 186 34 135 59 32 32 77 67 52 69 26 71 79 103 132 76 22 76 58 21 27 48 21
internal_value=3.48256e-11 -0.0318449 0.0260549 0.0120017 0.0476205 -0.0537783 -0.0102916 0.0308368 0.0386726 -0.00598156 0.0426633 -0.0165369 0.000862834 0.051181 0.00585856 0.0162893 -0.0769893 -0.0642203 -0.0414429 0.0577777 -0.00610733 -0.010893 -0.026736 -0.0236015 -0.0540857 0.00439614 -0.021063 0.100313 0.0706798 -0.0305384
internal_weight=2000 900 1100 666 434 487 305 361 371 413 245 278 228 238 116 133 169 116 318 204 196 246 147 93 171 114 49 63 127 47
internal_count=2000 900 1100 666 434 487 305 361 371 413 245 278 228 238 116 133 169 116 318 204 196 246 147 93 171 114 49 63 127 47
is_linear=0
shrinkage=0.1


Tree=8
num_leaves=31
num_cat=0
split_feature=0 1 1 0 2 2 2 13 7 6 3 5 7 0 4 15 12 2 38 6 1 2 3 1 0 1 1 7 1 13
split_gain=135.851 36.7407 32.6908 27.5048 11.1457 10.5191 10.3393 9.62184 8.98933 8.33417 8.74534 8.69941 7.72148 6.90958 6.23256 5.20188 5.00638 4.26185 3.9063 3.76005 3.74553 3.62388 4.18427 3.45313 3.30696 3.28863 3.25732 3.12461 3.02217 3.00104
threshold=-0.25153275281910659 0.17407506570270778 0.44608611929004166 0.877429333442593 -0.39105590638746518 0.23755335297181077 0.09791569032337831 -1.7304822000352551 0.090569014089631319 0.51319870506588416 -0.047264144190698042 0.84860132356724804 1.4394170441274685 1.2537500288631598 0.87891629031781604 1.0144563096296619 -0.87917650710150308 1.0805672407747329 -0.47460582193467343 1.4185878394265654 -0.30527185455520034 0.95405194355158185 -0.47306724500780123 -1.2065613360578753 0.37566840621517095 -0.62208058974216984 1.1327102705096328 0.51974793273803421 -1.009310811318104 0.46878017547790957
decision_type=2 2 2 2 2 2 2 2 2 2 2 2 2 2 2 2 2 2 2 2 2 2 2 2 2 2 2 2 2 2
left_child=1 7 3 5 27 9 18 -1 25 10 28 -11 14 15 26 21 -7 29 -5 -20 -12 22 -6 -10 -18 -9 -3 -4 -2 -8
right_child=2 12 4 6 13 16 17 8 23 11 20 -13 -14 -15 -16 -17 24 -19 19 -21 -22 -23 -24 -25 -26 -27 -28 -29 -30 -31
leaf_value=-0.10138636214392527 -0.076238280355132054 -0.017405701070787254 0.033246728581795046 -0.006714600421129909 0.0088523382887892108 -0.012288286920727021 0.032230645999312406 -0.047939163545277302 -0.096506113608678182 -0.009306173559537367 -0.029116825499620875 0.066541287526488302 -0.046744195485244631 0.090913017620058628 0.02395422242321622 0.082683711655830092 0.0085869933854594953 0.080608612662408416 0.016934722367456401 0.063811466267163108 0.012533773757517339 0.066478336141223004 0.048020467851588977 -0.058574556895400746 0.03787666727405261 -0.025098145050359955 0.0071501855248609541 0.0024007673434754636 -0.038003469603371962 0.07165635130368174
leaf_weight=35 28 181 109 51 46 62 75 114 30 62 38 20 46 51 68 38 89 41 77 22 50 42 67 120 68 141 77 47 79 26
leaf_count=35 28 181 109 51 46 62 75 114 30 62 38 20 46 51 68 38 89 41 77 22 50 42 67 120 68 141 77 47 79 26
internal_value=1.41549e-10 -0.0315243 0.0215469 0.00972821 0.0448299 -0.0046066 0.0340777 -0.0510831 -0.0467359 -0.0175554 -0.0288036 0.00919321 -0.00839036 0.0581771 -0.00297847 0.0495267 0.0117716 0.0534177 0.0157692 0.0273518 -0.00545171 0.0413979 0.0320759 -0.0661609 0.021273 -0.0353094 -0.010077 0.0239534 -0.0480088 0.0423798
internal_weight=2000 812 1188 788 400 496 292 440 405 277 195 82 372 244 326 193 219 142 150 99 88 155 113 150 157 255 258 156 107 101
internal_count=2000 812 1188 788 400 496 292 440 405 277 195 82 372 244 326 193 219 142 150 99 88 155 113 150 157 255 258 156 107 101
is_linear=0
shrinkage=0.1


Tree=9
num_leaves=31
num_cat=0
split_feature=0 1 2 1 13 0 0 2 7 4 1 4 7 0 6 5 4 6 2 1 3 0 1 12 12 8 10 6 7 7
split_gain=112.588 40.306 19.476 14.2267 13.1174 11.3638 9.8364 8.05204 6.68579 6.2022 6.67993 5.92947 5.80926 5.16847 5.12015 6.35888 4.87281 5.93398 4.78898 3.73244 3.55383 5.62311 3.55263 3.51797 3.40974 3.78677 3.06625 3.01122 2.82339 2.56177
threshold=0.37566840621517095 -0.42729276477620259 1.1217217688859173 0.6748826554180406 -0.072000932333730991 -0.62785344823967304 -0.37697298462596213 -0.499522501663551 1.1328606736643239 0.22460780627722718 1.5737680728558103 1.6356976174576314 0.51974793273803421 1.2537500288631598 -0.69398680741502472 0.14535905545435604 -0.23436352666638852 1.0000000180025095e-35 -0.91564535210978903 -1.7586751710607447 -0.26016569459924982 -0.87873391185338412 -0.64401034487079001 -0.57834264061247265 -0.69406400324713635 -1.0817566682923014 0.31662023894023655 -0.69398680741502472 -0.27729863046614223 -0.27729863046614223
decision_type=2 2 2 2 2 2 2 2 2 2 2 2 2 2 2 2 2 2 2 2 2 2 2 2 2 2 2 2 2 2
left_child=1 5 4 6 7 8 14 22 19 20 27 18 26 -4 -3 -16 -8 -18 28 -1 -5 -22 -2 -20 -9 -26 -7 -11 -6 -17
right_child=2 3 13 9 11 12 16 24 -10 10 -12 -13 -14 -15 15 29 17 -19 23 -21 21 -23 -24 -25 25 -27 -28 -29 -30 -31
leaf_value=-0.0858242554217577 -0.040453837830028608 -0.046083353501835872 0.056113933608025669 -0.025608708716886627 0.029651359351686182 -0.029013978205073405 -0.017601514534781811 0.00032654094093231834 -0.10559842072684189 -0.010724167744147368 0.074215326264500614 0.083426368348300473 -0.054113046610254359 0.10515412254066303 -0.033806074877755471 0.01788188774198135 -0.0067216157647584322 0.036600692773629963 0.017780065273962403 -0.047051256886010785 -0.012158247152016171 0.027676497219020831 -0.00052179863809474877 0.045768074637007473 -0.00095497779689277668 0.03811142291873694 0.00065819785567158362 0.027365817004585104 -0.0089106092128801995 -0.017295185057918314
leaf_weight=30 37 102 83 44 39 85 92 64 29 29 25 25 59 29 115 47 71 57 58 144 74 68 56 199 33 100 59 73 37 37
leaf_count=30 37 102 83 44 39 85 92 64 29 29 25 25 59 29 115 47 71 57 58 144 74 68 56 199 33 100 59 73 37 37
internal_value=5.90489e-11 -0.0185749 0.0303064 -0.0059957 0.0236512 -0.044415 -0.016119 0.00784315 -0.0611451 0.0108549 0.0278904 0.0364566 -0.0276848 0.0688118 -0.027866 -0.0185285 -4.69753e-05 0.0125703 0.0329303 -0.0537363 -0.000776837 0.00691755 -0.0164087 0.0394517 0.019292 0.0284183 -0.0168566 0.0165363 0.0108778 0.00238722
internal_weight=2000 1240 760 834 648 406 521 290 203 313 127 358 203 112 301 199 220 128 333 174 186 142 93 257 197 133 144 102 76 84
internal_count=2000 1240 760 834 648 406 521 290 203 313 127 358 203 112 301 199 220 128 333 174 186 142 93 257 197 133 144 102 76 84
is_linear=0
shrinkage=0.1


Tree=10
num_leaves=31
num_cat=0
split_feature=0 1 2 1 13 0 0 2 6 4 5 1 0 13 7 3 0 0 5 2 3 0 0 13 7 6 3 3 13 12
split_gain=91.1963 32.6703 15.7756 11.9844 10.882 9.64971 8.23121 7.37476 6.28292 5.35293 5.33768 4.98263 5.25521 4.66028 4.65601 4.3107 4.2536 4.21346 4.02735 4.62612 4.00134 6.08325 3.64763 3.61357 3.39003 3.33514 2.96391 2.72923 2.63306 2.54302
threshold=0.37566840621517095 -0.46282600436963278 1.1217217688859173 0.6748826554180406 0.089777590892239315 -1.0041741436602396 -0.37697298462596213 -0.499522501663551 0.6942765319380203 0.86084569305311776 0.47997046096430523 1.0728432117226807 1.3791902606700153 1.1637700824315613 1.0000000180025095e-35 0.6624076905044739 1.2537500288631598 1.3791902606700153 1.0405108061391299 0.09791569032337831 0.094670222748336072 -0.87873391185338412 1.1283097970563041 0.089777590892239315 0.82630430320117898 0.09068377569756586 -0.33113287806876707 -0.26016569459924982 -0.92756243646973469 -0.63543925530976797
decision_type=2 2 2 2 2 2 2 2 2 2 2 2 2 2 2 2 2 2 2 2 2 2 2 2 2 2 2 2 2 2
left_child=1 5 4 6 7 24 14 16 15 20 -10 12 -6 -11 23 -7 -2 -4 19 27 -5 -22 26 -3 28 -20 -9 -8 -1 -28
right_child=2 3 17 9 11 8 18 22 10 13 -12 -13 -14 -15 -16 -17 -18 -19 25 -21 21 -23 -24 -25 -26 -27 29 -29 -30 -31
leaf_value=-0.077752810551060578 -0.028210311933584947 -0.028965358822735855 0.051801461328498347 -0.016641656140721328 0.018234020327665124 -0.050379573007261286 -0.042025618654925656 -0.0071470434267428664 -0.023259002705280848 0.017243560323282621 0.03986286751571156 0.055782132402614315 0.051670976374452948 0.073548596157204535 -0.039416309051370294 -0.019985673431590013 0.013216704035249466 0.099071035530262946 -0.0019080977141857148 0.0085712220037142597 -0.0059092164939639957 0.032229216541408708 0.035124280160183416 -0.00062782373382813412 -0.098334115879102194 0.05451482724059712 -0.0046893804566618368 -0.0068936579346579197 -0.04499059182337739 0.035751363964906586
leaf_weight=36 68 90 88 74 177 114 41 63 37 49 21 81 64 21 134 79 39 24 20 96 93 76 85 90 22 22 23 48 77 48
leaf_count=36 68 90 88 74 177 114 41 63 37 49 21 81 64 21 134 79 39 24 20 96 93 76 85 90 22 22 23 48 77 48
internal_value=5.52438e-11 -0.0167174 0.0272758 -0.00580478 0.0212861 -0.040861 -0.0148154 0.00840693 -0.0292653 0.00976944 -0.000404532 0.0343252 0.0271135 0.0341351 -0.0253031 -0.0379385 -0.0131107 0.0619307 -0.000308125 -0.00665464 0.00275054 0.0112418 0.0189201 -0.0147966 -0.0624202 0.0276468 0.00864139 -0.023078 -0.0554281 0.0226508
internal_weight=2000 1240 760 854 648 386 541 326 251 313 58 322 241 70 314 193 107 112 227 185 243 169 219 180 135 42 134 89 113 71
internal_count=2000 1240 760 854 648 386 541 326 251 313 58 322 241 70 314 193 107 112 227 185 243 169 219 180 135 42 134 89 113 71
is_linear=0
shrinkage=0.1


Tree=11
num_leaves=31
num_cat=0
split_feature=0 1 1 0 2 3 6 13 4 2 7 3 0 15 7 2 1 0 10 8 1 6 9 5 2 2 2 4 0 1
split_gain=75.1257 20.2128 20.1306 15.3707 7.57229 7.19997 7.63833 6.43724 6.39999 6.33322 6.02798 5.47313 6.83813 5.03806 4.11613 3.99026 3.78796 3.73886 3.71294 3.6564 3.58259 3.35721 2.95537 3.67083 2.8006 2.78432 2.67973 2.50715 2.45122 2.41204
threshold=-0.25153275281910659 0.48824519398918081 0.17407506570270778 0.877429333442593 1.6511939552316006 -0.18919851112973252 0.6942765319380203 -1.7304822000352551 -0.072547060525686727 -0.45209016417947395 1.6233508664053558 0.094670222748336072 -1.1296143754670951 0.53974913101754873 -0.39992117865140026 0.14608915808064141 1.2605361159117427 1.5046304924768708 -0.47985118192543119 0.52401159495634875 -0.95753548035935776 0.03032450007352035 1.0000000180025095e-35 0.17090913449498957 -0.92889850523033857 0.96673834999263508 0.33049980840935717 1.0972374941291088 0.62654886982888203 -1.2665456662626247
decision_type=2 2 2 2 2 2 2 2 2 2 2 2 2 2 2 2 2 2 2 2 2 2 2 2 2 2 2 2 2 2
left_child=2 3 7 5 13 6 15 -1 -8 21 18 14 16 24 -4 -2 -13 25 22 -19 -7 -5 23 -9 -3 -11 -22 -15 -26 -20
right_child=1 4 11 9 -6 20 8 10 -10 17 -12 12 -14 27 -16 -17 -18 19 29 -21 26 -23 -24 -25 28 -27 -28 -29 -30 -31
leaf_value=-0.079065354253564563 -0.040233687359388128 -0.0016428937794776952 0.0049673196182332263 -0.013432563346353933 0.087323774913182634 -0.012537421694686336 -0.017642081323329631 -0.058381944924592977 0.038580423096427702 0.016669713229872287 -0.067636086403702708 -0.019809198909529691 0.019753601863959816 0.040356168125730917 -0.046938290003687148 -0.0096544431279568625 0.01262862094299635 0.037643238068336533 -0.040730571081159544 0.087967907976020471 0.0049694212282331979 0.025102073085145095 -0.064038096026827904 -0.006498047796388468 0.015452969536120291 0.046856334567366341 0.028552463419258683 0.076631998886232788 0.039259983269476349 -0.017918445970296109
leaf_weight=35 99 41 22 52 26 62 41 25 40 100 48 144 108 111 50 75 48 42 61 22 113 40 48 30 86 44 84 23 87 193
leaf_count=35 99 41 22 52 26 62 41 25 40 100 48 144 108 111 50 75 48 42 61 22 113 40 48 30 86 44 84 23 87 193
internal_value=-1.35115e-11 0.0160232 -0.0234428 0.00718164 0.0352666 -0.00331653 -0.0152444 -0.0379204 0.0101221 0.0251685 -0.0343646 -0.0063188 -0.000376539 0.0313773 -0.0310782 -0.027053 -0.0116997 0.0348315 -0.0298912 0.0549423 0.00842715 0.00332163 -0.045906 -0.0300816 0.0218561 0.0258934 0.0150251 0.0465826 0.0274253 -0.0233969
internal_weight=2000 1188 812 814 374 514 255 440 81 300 405 372 300 348 72 174 192 208 357 64 259 92 103 55 214 144 197 134 173 254
internal_count=2000 1188 812 814 374 514 255 440 81 300 405 372 300 348 72 174 192 208 357 64 259 92 103 55 214 144 197 134 173 254
is_linear=0
shrinkage=0.1


Tree=12
num_leaves=31
num_cat=0
split_feature=0 1 2 5 2 6 1 1 5 1 6 13 0 0 2 0 3 11 12 14 14 5 8 7 6 5 3 0 14 0
split_gain=61.5225 22.4085 11.7496 8.94432 7.85568 7.62023 7.13922 6.7048 6.32185 5.44282 5.07707 5.01957 4.86061 3.99318 3.88964 3.82393 5.64041 3.65115 3.5942 3.55463 3.43326 2.91403 2.74113 2.70494 2.57644 3.68793 2.60374 2.58854 2.4045 2.26521
threshold=0.37566840621517095 -0.42729276477620259 -0.45209016417947395 1.3565747468640228 1.6511939552316006 0.6942765319380203 0.7134649518742745 0.8460402896972895 0.26170654501161933 -1.1811720741041505 -0.45254970491884294 0.050284747990404957 1.3791902606700153 -0.37697298462596213 0.09791569032337831 -0.75329368004652864 0.52047332356543941 -0.86917929603984401 -1.3574127506427192 0.45036000544097615 1.4005491660551264 1.1515117050823316 0.37653750012947768 1.4394170441274685 -0.15075332679861583 -0.070539112439013743 0.23660458968737058 -1.1296143754670951 -0.10522730836492009 1.2537500288631598
decision_type=2 2 2 2 2 2 2 2 2 2 2 2 2 2 2 2 2 2 2 2 2 2 2 2 2 2 2 2 2 2
left_child=1 5 11 6 7 9 13 12 -7 19 -5 29 18 20 -15 17 -17 -8 -4 -1 24 -20 -14 -11 26 -26 -3 -28 -13 -2
right_child=2 3 4 10 -6 8 15 -9 -10 23 -12 28 22 14 -16 16 -18 -19 21 -21 -22 -23 -24 -25 25 -27 27 -29 -30 -31
leaf_value=-0.069717577356216198 -0.0230736648909977 -0.06406271049322991 -0.014779214128046423 -0.0064650915321652546 0.068166549737546961 -0.032213680349978742 -0.047197396755218508 0.051355576798475036 0.021788425962213517 -0.024823882094730278 0.04753983509441724 0.036080625663850119 0.025039509937374128 -0.018530203144728526 0.009308569748827723 0.00026415304845555667 0.039311557905901164 -0.00031304763230894294 0.014716786917061851 -0.035263605218152611 0.011376421125950636 0.049022660271397664 0.058663890942592514 -0.058952705451735747 -0.032963114691927808 0.001809831116287435 -0.039442824636510498 -0.0064369620515831883 0.0077076471555897952 0.0076727156194561375
leaf_weight=77 68 26 37 27 51 46 20 90 41 166 49 44 54 97 104 94 61 98 214 49 27 28 44 27 61 61 74 35 93 37
leaf_count=77 68 26 37 27 51 46 20 90 41 166 49 44 54 97 104 94 61 98 214 49 27 28 44 27 61 61 74 35 93 37
internal_value=-3.47988e-11 -0.0137309 0.022403 -0.00435146 0.0309016 -0.0329979 -0.00763062 0.026832 -0.00676441 -0.0401525 0.0283539 0.00421174 0.0209776 -0.0149118 -0.00412606 0.00530479 0.0156312 -0.00825955 0.014248 -0.0563188 -0.0225454 0.0186861 0.0401362 -0.0295984 -0.0261091 -0.0155766 -0.0356274 -0.0288446 0.0168201 -0.0122392
internal_weight=2000 1240 760 834 518 406 758 467 87 319 76 242 377 485 201 273 155 118 279 126 284 242 98 193 257 122 135 109 137 105
internal_count=2000 1240 760 834 518 406 758 467 87 319 76 242 377 485 201 273 155 118 279 126 284 242 98 193 257 122 135 109 137 105
is_linear=0
shrinkage=0.1


Tree=13
num_leaves=31
num_cat=0
split_feature=0 1 1 0 3 6 5 2 1 8 2 6 5 0 7 2 14 9 10 5 3 0 12 8 4 10 1 1 13 1
split_gain=50.66 14.1309 13.7391 10.1987 6.08245 5.89436 6.43424 5.43921 4.69069 4.62758 4.567 4.4295 6.37751 4.17343 4.05441 3.82069 3.13202 3.1243 4.11709 3.37424 3.04232 2.73152 2.72537 2.68496 2.52417 2.44201 2.37963 2.37308 2.13088 1.99222
threshold=-0.25153275281910659 -0.13464194165605256 0.48824519398918081 0.877429333442593 0.16563740621785333 0.27176160256970222 0.6098500294208653 -0.037275190685925441 1.2377854608585246 -1.704429409337459 0.09791569032337831 -0.39219042929479753 -0.15400270397175597 0.75198910163573751 1.8072846886832421 0.17303142330597363 1.0444450603988937 -0.41459694413261033 -0.19714714343495912 0.70457458171596432 0.23660458968737058 1.6300707242837265 -0.84222346693245198 0.80415377614932371 0.31534295024680986 -0.55267606710995498 -1.4850809533331104 -1.6489091239998499 0.77857415110032868 -1.5152783434166355
decision_type=2 2 2 2 2 2 2 2 2 2 2 2 2 2 2 2 2 2 2 2 2 2 2 2 2 2 2 2 2 2
left_child=1 11 3 4 5 15 -7 20 14 -5 21 16 26 -9 17 25 29 19 -19 -3 23 -11 -12 -4 -10 -2 -13 -6 -15 -1
right_child=2 8 7 9 27 6 -8 13 24 10 22 12 -14 28 -16 -17 -18 18 -20 -21 -22 -23 -24 -25 -26 -27 -28 -29 -30 -31
leaf_value=-0.081234730650549355 -0.054631477712016353 -0.0061141113759340532 -6.8156056581659526e-05 -0.024749859802735349 -0.02045637145638466 -0.010256175076719956 0.038463514611670163 0.027809829768957572 -0.0011740755970374897 0.0031566759549258722 0.016489758070146795 -0.076571008563041693 -0.010009995803825167 0.045240701727417051 -0.044852027020210197 -0.0061740402253979655 -0.012031248672865332 -0.031450024140156956 -0.0038779818555917099 0.031834462455784279 0.037750158030188309 0.033865382903022691 0.047039712875426472 0.029416097975943401 0.033562222441126194 -0.023371951792338124 -0.036902056077134704 0.015141542246205212 0.078418627113569533 -0.0484672764937083
leaf_weight=23 38 107 94 21 21 80 41 100 52 105 43 20 114 49 36 88 20 104 113 30 53 40 91 46 35 73 62 173 32 96
leaf_count=23 38 107 94 21 21 80 41 100 52 105 43 20 114 49 36 88 20 104 113 30 53 40 91 46 35 73 62 173 32 96
internal_value=8.0069e-11 -0.0192507 0.0131579 0.00586848 -0.00268298 -0.011153 0.00625215 0.0290232 -0.00819547 0.02052 0.0239274 -0.0349921 -0.0253086 0.0414761 -0.0128791 -0.021736 -0.0486466 -0.00962766 -0.0170922 0.0021958 0.0173445 0.011628 0.0372364 0.00961953 0.0128003 -0.0340734 -0.0465774 0.0112882 0.058348 -0.0548005
internal_weight=2000 812 1188 814 514 320 121 374 477 300 279 335 196 181 390 199 139 354 217 137 193 145 134 140 87 111 82 194 81 119
internal_count=2000 812 1188 814 514 320 121 374 477 300 279 335 196 181 390 199 139 354 217 137 193 145 134 140 87 111 82 194 81 119
is_linear=0
shrinkage=0.1


Tree=14
num_leaves=31
num_cat=0
split_feature=0 1 2 13 6 5 13 0 7 0 3 5 4 6 1 12 8 12 14 0 3 3 0 1 8 13 2 0 3 2
split_gain=41.9147 15.3357 9.46696 8.43004 7.54202 7.51783 5.88952 4.91744 4.54078 4.37339 4.58862 3.83494 3.53141 5.43155 3.25443 3.06628 2.71032 2.90999 2.69148 2.48471 3.75385 2.45867 3.13777 2.17122 2.06567 2.01684 2.00974 1.82728 2.94926 1.79906
threshold=0.25022817440831546 0.35004082811176068 0.61949701905452403 -0.83375572231271622 0.51319870506588416 0.78941030712310811 -0.089872732269635144 1.6300707242837265 0.70368175501592101 -0.75329368004652864 -0.18919851112973252 1.3565747468640228 -0.041483103294224936 0.6942765319380203 -1.3046002413387574 0.36972511364954813 -0.81716274928239441 -0.69406400324713635 0.7092125498730496 -1.0041741436602396 0.80434205744350851 0.23660458968737058 1.2537500288631598 0.94337556647136778 -0.23507956705183697 0.74605831907430153 -0.88726442223650415 1.3791902606700153 -0.89887034582490455 1.3208242369831378
decision_type=2 2 2 2 2 2 2 2 2 2 2 2 2 2 2 2 2 2 2 2 2 2 2 2 2 2 2 2 2 2
left_child=1 3 6 14 9 -6 16 15 11 18 -11 19 21 23 -1 29 -2 -18 -5 -3 -21 22 -8 26 -10 -17 -14 28 -19 -4
right_child=2 8 7 4 5 -7 12 -9 24 10 -12 -13 13 -15 -16 25 17 27 -20 20 -22 -23 -24 -25 -26 -27 -28 -29 -30 -31
leaf_value=-0.059363269000979407 -0.015904935214476772 -0.0059066452791974432 0.012024923146742842 -0.041748138335457104 -0.011934681665456005 0.036239180475473406 -0.0089926610528870462 0.078556110955436131 -0.036755424912553285 -0.031434483943482881 -0.00071728272737483644 0.041303656680975111 -0.018647312824614345 0.056334337290376429 -0.030810150745736856 0.03460650898621611 -0.013567716117842861 -0.018455423774818579 -0.015732841237085099 0.0010964949482253619 0.031821884113014676 0.036041993977358709 0.022922212906026595 0.037804457498714333 -0.0061537401724449346 0.070066685642561188 0.017080222820309368 0.034195977611028973 0.020522976859726691 0.034758373083812848
leaf_weight=56 85 124 92 122 92 50 86 22 32 77 132 32 20 50 139 53 53 30 59 105 64 26 48 38 71 23 74 34 55 56
leaf_count=56 85 124 92 122 92 50 86 22 32 77 132 32 20 50 139 53 53 30 59 105 64 26 48 38 71 23 74 34 55 56
internal_value=5.521e-11 -0.0123824 0.0169251 -0.0212237 -0.0147043 0.00502795 0.0101419 0.0334418 0.00263537 -0.0218888 -0.0120341 0.00843392 0.0187376 0.0282653 -0.03901 0.0290109 -0.00129667 0.00592253 -0.033268 0.00484406 0.0127321 0.00789993 0.00243953 0.017633 -0.0156611 0.0453379 0.00947862 0.0146031 0.00676589 0.0206268
internal_weight=2000 1155 845 727 532 142 599 246 428 390 209 325 342 182 195 224 257 172 181 293 169 160 134 132 103 76 94 119 85 148
internal_count=2000 1155 845 727 532 142 599 246 428 390 209 325 342 182 195 224 257 172 181 293 169 160 134 132 103 76 94 119 85 148
is_linear=0
shrinkage=0.1


Tree=15
num_leaves=31
num_cat=0
split_feature=0 1 1 0 3 2 6 5 2 15 7 6 4 6 0 12 2 11 12 14 4 3 8 4 5 9 5 10 8 0
split_gain=34.7277 14.8202 7.02602 7.03442 9.63009 6.95388 5.6754 6.45954 5.46583 5.05662 3.94332 3.61634 3.91306 3.27482 3.26214 3.12281 2.9513 2.4538 2.42373 2.21926 2.13348 2.0817 2.01409 1.90602 1.89635 1.73785 2.26893 2.04062 1.64246 1.65174
threshold=0.50110863802202654 -0.64401034487079001 1.6677024785136927 -0.75329368004652864 0.59144050703495676 0.61949701905452403 -0.69398680741502472 0.26170654501161933 -1.4974326165629088 0.27202342488944281 -0.52254372683665806 0.15104305132161133 -0.7372283949599131 1.0564321856822929 1.6300707242837265 -0.076350871248295496 -0.87095955622635446 0.13723728062641674 0.16620555031247378 0.5101210338572002 0.44675058654933203 -0.54403442847731853 0.2978976715502763 0.29197673988641182 0.47277858686397617 0.25524712869782185 0.17090913449498957 -0.046962738021896995 -0.36505210042640518 1.3791902606700153
decision_type=2 2 2 2 2 2 2 2 2 2 2 2 2 2 2 2 2 2 2 2 2 2 2 2 2 2 2 2 2 2
left_child=1 6 3 10 8 9 19 -8 -5 16 25 21 -13 -9 18 -11 22 -12 -7 -1 -18 -10 -2 -4 -14 26 -3 -27 -17 -30
right_child=5 2 23 4 -6 14 7 13 11 15 17 12 24 -15 -16 28 20 -19 -20 -21 -22 -23 -24 -25 -26 27 -28 -29 29 -31
leaf_value=-0.058938924263303098 -0.028116006590425971 -0.011403991106365408 0.016867897394471445 -0.045961981102385946 0.019488343866334308 0.020235573227826258 -0.034350553028285505 -0.01078731416071403 -0.02686829892362454 0.0062220397841421865 -0.034164607643615452 -0.025673932292395171 0.0054678003089065896 0.031221793722361325 0.070700498619540184 0.014402818821562344 0.0035477629433097765 -0.012954623821191492 0.044624116406915021 -0.02709672689212091 0.026085967900663882 -0.0053067266183939796 0.0077333804592490205 0.057930015064775943 0.031761880497409342 -0.029434351711755707 0.023459987379610539 0.0012141908022264641 0.030574708142012241 0.058117639070207429
leaf_weight=65 42 35 26 34 199 104 125 72 67 63 120 27 64 25 22 34 168 100 67 33 56 135 25 20 48 42 40 45 64 33
leaf_count=65 42 35 26 34 199 104 125 72 67 63 120 27 64 25 22 34 168 100 67 33 56 135 25 20 48 42 40 45 64 33
internal_value=2.45927e-13 -0.00943674 -0.00345329 -0.00529012 0.00170767 0.0184003 -0.0281724 -0.0193241 -0.00772794 0.0120116 -0.0158051 -0.00391575 0.00849866 3.97755e-05 0.0344545 0.0245173 0.00367457 -0.0245237 0.0297913 -0.0482166 0.00918231 -0.0124583 -0.0147394 0.034721 0.0167367 -0.00396509 0.00719013 -0.0135817 0.0333157 0.039945
internal_weight=2000 1322 1002 956 574 678 320 222 375 485 382 341 139 97 193 194 291 220 171 98 224 202 67 46 112 162 75 87 131 97
internal_count=2000 1322 1002 956 574 678 320 222 375 485 382 341 139 97 193 194 291 220 171 98 224 202 67 46 112 162 75 87 131 97
is_linear=0
shrinkage=0.1


Tree=16
num_leaves=31
num_cat=0
split_feature=0 2 1 38 6 4 0 3 7 1 3 1 5 13 6 5 15 14 1 8 0 8 0 1 10 9 33 6 4 0
split_gain=29.2853 9.2337 8.63133 8.35468 4.95517 5.30143 4.50299 5.22499 3.71299 3.68344 3.57771 3.54826 3.2346 3.14052 2.68451 2.57909 2.39308 2.36628 2.40333 2.25274 2.12193 1.98252 2.36607 1.95376 1.56686 1.50311 1.48632 1.45777 1.45448 1.34159
threshold=-0.37697298462596213 1.3709159242710087 -0.041528435922771494 0.036190730440015313 -0.51290898054288836 0.13103377693675397 1.2537500288631598 -0.33113287806876707 -0.52254372683665806 -0.12226980707814458 -0.26016569459924982 1.5201163992122666 0.51493621728102534 -0.64776058015967897 -0.81470535866311555 0.92454183627135655 1.4042826394988319 1.2035839787656941 -1.4592226057081901 -0.21824212735107454 1.1283097970563041 -0.73867918464473215 0.50110863802202654 -0.76726260497869758 0.0094833161081140007 -0.23191219699703788 0.28597606314576368 -0.33183115367075205 -0.97438451132806669 0.50110863802202654
decision_type=2 2 2 2 2 2 2 2 2 2 2 2 2 2 2 2 2 2 2 2 2 2 2 2 2 2 2 2 2 2
left_child=2 3 8 6 21 -6 7 12 24 -9 -4 14 23 -7 -12 28 -15 18 -10 -8 -3 -5 -23 -2 25 -1 -24 -14 -16 -25
right_child=1 20 10 4 5 13 19 9 17 -11 11 -13 27 16 15 -17 -18 -19 -20 -21 -22 22 26 29 -26 -27 -28 -29 -30 -31
leaf_value=-0.0030936984683979643 -0.044668342330707961 0.028698682703935871 -0.037990368492319251 -0.016405587953589176 0.0074694153969176117 0.0064261880923515632 -0.0029320259865406634 -0.010512966708298408 -0.064360584325955386 0.014434157751270667 -0.019253492540772167 0.024602977731605857 -0.020227314017551103 0.033881563068918728 -0.024050562868289879 0.023908344122606354 0.068569646767624046 -0.011375060514546932 -0.034909465116329662 0.025925889893627947 0.060703662424175832 -0.0055179486667888394 0.028443530502183168 -0.029853913592316011 -0.0035064554176642559 -0.034366027711361068 0.0037423688430516496 0.010391563266360511 -0.00083359166227809679 -0.0082446715869483045
leaf_weight=22 39 89 32 41 137 37 42 102 35 141 111 41 23 147 33 37 23 32 133 76 27 74 58 56 64 51 42 48 148 59
leaf_count=22 39 89 32 41 137 37 42 102 35 141 111 41 23 147 33 37 23 32 133 76 27 74 58 56 64 51 42 48 148 59
internal_value=6.52435e-12 0.00926349 -0.0158068 0.00653981 0.0152857 0.022729 -0.00180314 -0.00620483 -0.0276105 0.00396253 -0.00591179 -0.00313742 -0.0171856 0.0328283 -0.00659443 -0.000148768 0.0385747 -0.0362979 -0.0410451 0.0156544 0.0361481 0.0033765 0.00803779 -0.0253268 -0.014928 -0.0249415 0.018069 0.000472772 -0.00506652 -0.0187674
internal_weight=2000 1261 739 1145 559 344 586 468 337 243 402 370 225 207 329 218 170 200 168 118 116 215 174 154 137 73 100 71 181 115
internal_count=2000 1261 739 1145 559 344 586 468 337 243 402 370 225 207 329 218 170 200 168 118 116 215 174 154 137 73 100 71 181 115
is_linear=0
shrinkage=0.1


Tree=17
num_leaves=31
num_cat=0
split_feature=0 1 6 5 8 2 4 0 6 0 3 6 14 12 1 3 1 1 7 3 16 8 15 1 38 0 4 4 2 2
split_gain=23.7309 10.7297 6.13999 7.2615 5.42929 4.50561 3.89084 3.55444 3.32866 3.3206 4.39177 3.16443 3.07255 2.91159 2.70717 2.5808 2.60627 2.55556 2.39747 2.26944 2.25984 2.1596 1.95833 1.9364 1.8742 1.83867 1.7659 1.76191 1.58715 1.50253
threshold=0.50110863802202654 0.35004082811176068 -0.69398680741502472 0.57526279279363524 0.49342292840020746 -0.080653109616672894 -0.084175571756446896 1.5046304924768708 -0.99578318553525191 -0.87873391185338412 0.23660458968737058 0.15104305132161133 1.2035839787656941 -0.84222346693245198 -0.80355810878783018 -0.54403442847731853 0.14129770442758488 1.5737680728558103 -0.27729863046614223 -0.26016569459924982 -0.2882744437420805 -1.6576283588467053 1.083024695317222 0.91341271922344414 -0.43463873261357616 -0.87873391185338412 -0.27825706201629724 0.46744169338716235 -0.41573118489480765 -0.38272908978869685
decision_type=2 2 2 2 2 2 2 2 2 2 2 2 2 2 2 2 2 2 2 2 2 2 2 2 2 2 2 2 2 2
left_child=1 2 12 9 5 15 19 23 -8 -4 24 -5 14 -7 -1 18 -17 -10 26 20 -3 -15 -23 27 -11 -21 -2 -6 -9 -27
right_child=4 6 3 11 7 13 8 28 17 10 -12 -13 -14 21 -16 16 -18 -19 -20 25 -22 22 -24 -25 -26 29 -28 -29 -30 -31
leaf_value=-0.04811268966051116 -0.019464917072937602 -0.047263227183033121 -0.029032940947874342 -0.0087262695204348324 0.0093298604061721642 -0.0027872832396367035 -0.0078157067356142609 0.0294997214561417 0.014332438883844369 -0.03573130483359651 0.0051736217602809664 0.019832436007097144 0.00025670652809951989 -0.003943130947076357 -0.024415825280302672 -0.0058988720316577843 0.03845983801696163 0.047519588801595902 -0.022330919023905254 -0.0098606457506470822 -0.0078583582374808763 0.022755527572997002 0.053479571919888259 0.042438610599321483 -0.012612207453028532 -0.0028603220033610981 0.01605066968172434 0.034675692927998464 0.065105490434554311 0.023006914976112389
leaf_weight=69 21 22 133 63 106 56 61 21 165 54 114 101 35 26 160 27 26 27 74 85 43 153 24 34 100 43 42 37 31 47
leaf_count=69 21 22 133 63 106 56 61 21 165 54 114 101 35 26 160 27 26 27 74 85 43 153 24 34 100 43 42 37 31 47
internal_value=-4.99567e-12 -0.00780083 -0.0147483 -0.00886545 0.0152105 0.00881973 0.00388154 0.0277408 0.0125341 -0.0161155 -0.00970492 0.00886171 -0.0273383 0.0173996 -0.0315559 -0.00287598 0.015862 0.0189994 -0.010125 -0.00523968 -0.0211954 0.0229684 0.0269215 0.020988 -0.0207189 0.000686722 0.00421214 0.0158879 0.0507262 0.0106481
internal_weight=2000 1322 829 565 678 449 493 229 253 401 268 164 264 259 229 190 53 192 137 240 65 203 177 177 154 175 63 143 52 90
internal_count=2000 1322 829 565 678 449 493 229 253 401 268 164 264 259 229 190 53 192 137 240 65 203 177 177 154 175 63 143 52 90
is_linear=0
shrinkage=0.1


Tree=18
num_leaves=31
num_cat=0
split_feature=0 2 13 38 7 1 4 0 3 7 7 1 2 5 0 9 12 10 1 8 1 8 11 4 9 0 5 13 5 3
split_gain=20.4456 7.61657 6.28651 5.93751 4.72384 3.87701 3.5201 3.31726 3.77148 3.21912 2.69042 2.67646 2.66171 2.50249 2.31725 2.10079 2.08265 2.02547 2.19507 1.86996 1.78401 1.45766 1.39875 1.37337 1.33518 1.25794 1.18778 1.12572 1.08072 1.06502
threshold=-0.37697298462596213 0.93068454199692685 0.089777590892239315 0.13078055558843682 0.3358141104601472 1.3621517994355303 0.44675058654933203 1.2537500288631598 -0.33113287806876707 1.0715493995716947 -0.27729863046614223 -0.072370818804201778 -1.1765668041706283 0.55505930436706052 1.2537500288631598 0.13345729727410682 -0.74379779415134628 -0.69886728643948148 -1.5152783434166355 -0.21824212735107454 1.3408084013959101 -0.67394684686244866 -1.0076307699697042 0.94721332106748657 0.49882679154525184 0.877429333442593 -0.094906317449989328 -1.2218451047610503 -0.094906317449989328 -0.75693597888587016
decision_type=2 2 2 2 2 2 2 2 2 2 2 2 2 2 2 2 2 2 2 2 2 2 2 2 2 2 2 2 2 2
left_child=2 3 5 7 6 9 20 8 13 17 23 -10 -6 27 16 26 -3 24 -19 -9 -5 -14 -12 -4 28 -23 -8 -2 -1 -18
right_child=1 14 10 4 12 -7 15 19 11 -11 22 -13 21 -15 -16 -17 29 18 -20 -21 -22 25 -24 -25 -26 -27 -28 -29 -30 -31
leaf_value=-0.036823942724229966 -0.044060565826847503 0.00072138624578339816 0.0023147176533389177 0.0058896234290554163 -0.033097079598034422 0.019342628934166647 0.023874392872676255 -0.0047076928577470508 -0.010529291365295649 -0.043927335593087431 -0.034295674251473472 0.011268017210634633 -0.015757268266752361 0.00092084161577778959 0.046045098391671979 0.016180106325043461 0.013415523987474308 -0.03682134590851955 -0.010907920036294342 0.021196718825031945 0.036948062648021043 0.00058011280953794257 -0.0078685323011520644 0.026834989152848723 -0.051070633005084735 0.024883852892226596 0.049025755664823874 -0.020002603745235811 -0.0077973917693547586 0.030861085814252062
leaf_weight=29 23 46 124 155 24 22 28 44 100 66 23 129 30 57 39 59 53 39 202 76 21 57 155 28 28 34 57 126 23 103
leaf_count=29 23 46 124 155 24 22 28 44 100 66 23 129 30 57 39 59 53 39 202 76 21 57 155 28 28 34 57 126 23 103
internal_value=1.99751e-11 0.00774015 -0.0132075 0.00396242 0.0122977 -0.0214922 0.0190824 -0.00302122 -0.00708181 -0.0238136 -0.00293945 0.00174954 -0.00267538 -0.0168992 0.0237289 0.0306776 0.0194203 -0.019678 -0.0151014 0.0116984 0.00959546 0.00335867 -0.0112833 0.00683161 -0.0334652 0.00966063 0.0407406 -0.0237162 -0.0239853 0.0249341
internal_weight=2000 1261 739 1020 465 409 320 555 435 387 330 229 145 206 241 144 202 321 241 120 176 121 178 152 80 91 85 149 52 156
internal_count=2000 1261 739 1020 465 409 320 555 435 387 330 229 145 206 241 144 202 321 241 120 176 121 178 152 80 91 85 149 52 156
is_linear=0
shrinkage=0.1


Tree=19
num_leaves=31
num_cat=0
split_feature=0 2 1 4 13 8 13 12 6 5 0 3 0 16 1 4 7 9 10 15 6 2 1 5 2 6 1 1 11 17
split_gain=16.8633 6.30673 6.19051 4.8156 3.52189 3.29393 2.95457 3.04327 2.53076 2.81419 2.43637 3.47717 2.34604 1.96276 1.95976 1.92506 1.71968 2.00075 1.67851 1.62517 1.62341 1.53364 1.51567 1.4989 1.42726 1.34608 1.28014 1.17951 1.12919 1.0982
threshold=-0.12609252101225107 -0.35953607182773389 0.47909802340077262 -0.6629260297718248 0.2662164682631431 -0.51842515904634912 -0.85044689776158389 0.11688852301919102 -0.69398680741502472 -0.26632842182817679 1.2537500288631598 -0.96983752929442169 1.5046304924768708 0.33185921732529622 1.0000000180025095e-35 -1.3549589328755813 1.6846621404979849 0.13345729727410682 0.13347512805796971 1.0144563096296619 0.51319870506588416 -0.92889850523033857 0.89365248532412767 0.92454183627135655 0.14608915808064141 -0.27147187804670658 -0.84184722669955769 -1.5152783434166355 0.74042793389317241 0.94562378170465144
decision_type=2 2 2 2 2 2 2 2 2 2 2 2 2 2 2 2 2 2 2 2 2 2 2 2 2 2 2 2 2 2
left_child=2 5 4 22 8 21 -5 12 27 24 11 13 25 -7 -13 -4 17 23 -19 29 -11 -2 -3 -17 26 -8 -10 -1 -29 -9
right_child=1 3 15 6 -6 10 7 19 9 20 -12 14 -14 -15 -16 16 -18 18 -20 -21 -22 -23 -24 -25 -26 -27 -28 28 -30 -31
leaf_value=-0.051517778702080255 -0.028957053298990315 -0.0042392265487379462 -0.027521083016125932 0.0031035202309326031 -0.0039719821323892209 -0.036988287275390962 0.0028161081802946602 0.030914500527745803 -0.052386173909461056 -0.01405000223286069 0.020573551189710403 -0.0064997694312992019 0.044893388816600911 -0.0007157911627123563 0.015737391947630769 0.0084943154618271049 -0.021691227308474482 -0.013708357752036694 0.011790080683394558 0.048246988670693505 0.0077300942469654341 -0.0052086005597007708 0.021118906512856486 0.032793987632700895 -0.015113976312069489 0.018995428505183903 -0.025064124609839096 -0.033004442611813879 -0.0096572168826780935 0.0098190040402715249
leaf_weight=25 52 149 21 97 174 35 99 121 27 88 67 68 23 26 95 110 24 67 42 45 56 57 28 33 70 107 47 89 27 31
leaf_count=25 52 149 21 97 174 35 99 121 27 88 67 68 23 26 95 110 24 67 42 45 56 57 28 33 70 107 47 89 27 31
internal_value=3.98584e-11 0.0083058 -0.0101515 0.0140296 -0.015972 -0.0017109 0.0188548 0.0224413 -0.0208392 -0.015465 0.00384294 -0.00116131 0.014602 -0.0215279 0.00646054 0.00166588 0.00388663 0.00632262 -0.00388327 0.0315541 -0.00557996 -0.0165381 -0.00022777 0.0141019 -0.0253501 0.0112199 -0.035033 -0.0318162 -0.0275702 0.0266121
internal_weight=2000 1100 900 700 603 400 523 426 429 288 291 224 229 61 163 297 276 252 109 197 144 109 177 143 144 206 74 141 116 152
internal_count=2000 1100 900 700 603 400 523 426 429 288 291 224 229 61 163 297 276 252 109 197 144 109 177 143 144 206 74 141 116 152
is_linear=0
shrinkage=0.1


Tree=20
num_leaves=31
num_cat=0
split_feature=0 1 7 4 9 8 2 7 15 4 0 10 10 3 0 7 4 4 2 7 2 12 9 6 5 7 0 6 14 11
split_gain=14.1816 6.87053 4.26986 4.49829 4.81 3.61387 2.73128 2.74705 2.72448 2.63037 2.45849 2.37064 2.26106 1.94158 2.21602 1.9019 1.76034 1.74928 1.74081 1.50503 1.48282 1.41492 1.40108 1.34259 1.50889 1.20075 1.32243 1.19267 1.06487 1.02668
threshold=0.50110863802202654 -0.91209280596181996 1.5620395923127266 -0.21077894050823173 -0.11012236557332293 0.49342292840020746 0.8716120996339477 -0.27729863046614223 0.90751804678730619 0.031126849461220251 1.7555109560905822 0.32244081526539453 -0.06104041099437154 0.80434205744350851 -1.2550546072739506 -0.39992117865140026 -1.3699176750221913 1.3138662855077545 -0.46128889874669882 -0.093364808188255474 -0.88726442223650415 0.72362687993023 1.7167251057824011 1.0000000180025095e-35 0.39712196392698457 -0.21598735637351338 -0.87873391185338412 -0.39219042929479753 0.15054765501575859 0.52366989856272916
decision_type=2 2 2 2 2 2 2 2 2 2 2 2 2 2 2 2 2 2 2 2 2 2 2 2 2 2 2 2 2 2
left_child=1 11 3 13 8 6 7 9 25 -2 17 23 15 16 -15 -6 -3 21 27 -13 -9 -7 -11 28 -25 -5 -27 -18 -1 -4
right_child=5 2 29 4 12 10 -8 20 -10 22 -12 19 -14 14 -16 -17 18 -19 -20 -21 -22 -23 -24 24 -26 26 -28 -29 -30 -31
leaf_value=-0.047066902291650579 -0.00097838383061384939 -0.033161413588649817 -0.025192104041715093 0.017455924137075449 -0.0035743911293684505 0.0093586376719534976 0.021600131174721024 -0.023237618574729335 0.033367175408868029 0.031003231370370046 0.050322064950510309 0.0032369648058879746 0.0051665232705559137 -0.011110874444278249 0.010354804262457478 -0.027999510189061456 -0.041807358841533249 0.04353624635259621 -0.0028838066428371742 -0.023482171794072401 -0.0012883132368275156 0.029448820512334353 0.00079019126947969202 -0.030636052447497043 0.0011658845469355583 -0.012720884690919011 0.0098903754082174944 -0.013229000110368361 -0.024974738465971313 -0.0051282197895592884
leaf_weight=48 83 42 94 102 80 130 95 39 61 66 27 49 132 102 91 53 23 24 112 37 146 48 20 37 25 38 81 40 40 35
leaf_count=48 83 42 94 102 80 130 95 39 61 66 27 49 132 102 91 53 23 24 112 37 146 48 20 37 25 38 81 40 40 35
internal_value=3.83778e-11 -0.0060304 -0.00266978 -0.000367641 0.00556798 0.0117584 0.00654446 0.0025041 0.0146583 0.0117208 0.0219814 -0.021495 -0.00410545 -0.00828663 -0.000989751 -0.0133077 -0.0147765 0.0181932 -0.0103641 -0.00825848 -0.00591546 0.0147762 0.0239769 -0.0290839 -0.0178127 0.00949426 0.00266997 -0.0236624 -0.037025 -0.0197484
internal_weight=2000 1322 1086 957 547 678 449 354 282 169 229 236 265 410 193 133 217 202 175 86 185 178 86 150 62 221 119 63 88 129
internal_count=2000 1322 1086 957 547 678 449 354 282 169 229 236 265 410 193 133 217 202 175 86 185 178 86 150 62 221 119 63 88 129
is_linear=0
shrinkage=0.1


Tree=21
num_leaves=31
num_cat=0
split_feature=0 2 1 2 1 5 6 0 3 11 3 7 0 0 8 10 1 12 5 14 1 6 1 7 1 4 5 5 10 4
split_gain=11.7262 5.23081 4.45241 3.87361 3.84371 3.16951 3.32986 2.90908 3.68249 2.81815 2.40656 2.09246 2.00992 1.73263 1.55362 1.49921 1.3148 1.3101 1.30562 1.29782 1.25551 1.21709 1.43554 1.1649 1.11016 1.05895 1.00096 0.981572 0.938819 0.916746
threshold=-0.37697298462596213 1.3709159242710087 0.8460402896972895 -1.4190907870970233 -0.041528435922771494 0.90102630056173694 0.03032450007352035 1.1283097970563041 -0.33113287806876707 -0.4104110697565278 -0.75693597888587016 -0.52254372683665806 0.50110863802202654 1.2537500288631598 0.37653750012947768 -0.66448527744901653 1.4247161008318843 -0.96475196854562628 0.92454183627135655 1.2035839787656941 -1.4592226057081901 0.57355798068992969 -0.87943271610449103 1.010238125479066 -0.30527185455520034 -0.67247997092385747 1.6127852616881719 -0.085490640173902788 0.0094833161081140007 -0.34153144941746866
decision_type=2 2 2 2 2 2 2 2 2 2 2 2 2 2 2 2 2 2 2 2 2 2 2 2 2 2 2 2 2 2
left_child=4 2 3 24 11 7 -7 8 21 15 13 28 29 27 -9 -6 -11 -10 -3 20 -13 22 -5 -17 -2 -23 -8 -4 -1 -12
right_child=1 18 10 5 9 6 26 14 17 16 12 19 -14 -15 -16 23 -18 -19 -20 -21 -22 25 -24 -25 -26 -27 -28 -29 -30 -31
leaf_value=-0.016109455095234086 -0.034489479639115882 0.021254275028331906 -0.019958092389559305 -0.035674650427934371 -0.033821486966917294 0.0017967968132785138 0.023244493753792575 0.0031520883780606886 -0.010672292493892691 0.0001017402329860361 0.00066209033131599433 -0.044768370240926746 0.039183243383896692 0.021075553365517408 0.023259208740379948 -0.0037102856215856534 0.021741758898133415 0.0069466799663911978 0.049340118281543256 -0.0059433660586364571 -0.023481804436366813 -0.017699882014130707 -0.013129604779480195 -0.028658635665973028 -0.010560083700383598 0.0057849098680890169 0.048689979280937802 0.0047185747604817155 0.00048258219103445302 0.022773876775056125
leaf_weight=73 33 96 27 38 32 85 52 94 52 229 30 35 56 40 65 85 32 224 20 32 133 32 110 24 47 48 22 40 64 50
leaf_count=73 33 96 27 38 32 85 52 94 52 229 30 35 56 40 65 85 32 224 20 32 133 32 110 24 47 48 22 40 64 50
internal_value=3.24362e-12 0.00586178 0.00381178 0.000575136 -0.0100023 0.00261952 0.0152995 -0.000421375 -0.0041419 -0.00339909 0.015826 -0.0178791 0.0246531 0.00460651 0.011372 -0.0147906 0.00275492 0.00362716 0.0260967 -0.0244008 -0.0279165 -0.0135466 -0.0189182 -0.0092035 -0.020431 -0.00360901 0.0308094 -0.00522575 -0.00835843 0.014482
internal_weight=2000 1261 1145 902 739 822 159 663 504 402 243 337 136 107 159 141 261 276 116 200 168 228 148 109 80 80 74 67 137 80
internal_count=2000 1261 1145 902 739 822 159 663 504 402 243 337 136 107 159 141 261 276 116 200 168 228 148 109 80 80 74 67 137 80
is_linear=0
shrinkage=0.1


Tree=22
num_leaves=31
num_cat=0
split_feature=0 1 7 2 0 5 8 3 12 6 0 3 1 14 6 5 1 2 10 3 0 11 13 5 11 8 24 27 11 12
split_gain=9.93282 4.82488 4.16076 3.58663 3.01605 3.12803 3.01522 2.9875 2.56573 2.32817 2.03233 3.70117 2.57387 1.74392 1.86317 1.87298 1.45449 1.43457 1.37168 1.29023 1.79283 1.10498 1.07817 1.06711 0.950915 0.945528 0.934407 0.930546 0.913484 0.893218
threshold=0.25022817440831546 1.0908443743549971 1.868595962775871 1.6511939552316006 -0.87873391185338412 0.83062163831642821 -1.0058514586900198 0.16563740621785333 -1.1409040547650184 -0.15075332679861583 1.3791902606700153 -0.75693597888587016 0.8460402896972895 0.97360474019764076 0.75463580756206572 0.17090913449498957 -1.1811720741041505 -1.1765668041706283 0.33685689383816475 0.59144050703495676 -1.1296143754670951 0.47285460017966791 -0.86837473909370122 0.93461992300405272 0.36438228637298192 -2.069344778815017 -0.073773313830643839 0.048669061641348356 -0.24073648715065873 0.20024124520502259
decision_type=2 2 2 2 2 2 2 2 2 2 2 2 2 2 2 2 2 2 2 2 2 2 2 2 2 2 2 2 2 2
left_child=1 2 4 6 13 7 25 18 -8 -7 11 17 -13 14 28 -16 -9 -10 22 21 26 -3 -6 -19 27 -2 -21 -4 -1 -5
right_child=3 19 24 29 5 9 8 16 10 -11 -12 12 -14 -15 15 -17 -18 23 -20 20 -22 -23 -24 -25 -26 -27 -28 -29 -30 -31
leaf_value=-0.029810790531337263 -0.02413764703863611 -0.016087056373663502 -0.047518642337033248 0.02291432134242672 -0.037795533188458151 -0.0028673575832866708 -0.0063467332728688129 -0.016176359868323845 -0.023171857785847454 0.025720694636009518 0.022301710107991393 0.010721770759032629 0.034688291586935524 0.00033418858268608652 -0.018223146973177791 0.013453097636146206 0.0058026000806421507 -0.0015705921143382687 -0.0034326199096228398 -0.003924634326726963 0.032658727253896715 0.012024791110996847 -0.015895773809403182 0.021182874101214111 -0.014096082083013809 -0.0030707947278192436 0.019777709891184651 -0.02296539653606456 -0.016538573547329447 0.049296392571358455
leaf_weight=85 27 29 33 33 29 52 91 36 27 63 138 177 60 72 40 35 184 146 70 39 41 27 100 24 29 101 29 29 133 21
leaf_count=85 27 29 33 33 29 52 91 36 27 63 138 177 60 72 40 35 184 146 70 39 41 27 100 24 29 101 29 29 133 21
internal_value=5.0336e-12 -0.0060278 -0.00866642 0.00823918 -0.00660384 -0.00181517 0.00653693 -0.00582483 0.00924974 0.0127939 0.011731 0.0083698 0.0167892 -0.0136097 -0.0170362 -0.0034409 0.00220604 -0.00175918 -0.0147032 0.00980391 0.0161422 -0.00253313 -0.020819 0.00164166 -0.0290428 -0.00751458 0.00618372 -0.0360341 -0.0217135 0.033174
internal_weight=2000 1155 990 845 899 534 791 419 663 115 572 434 237 365 293 75 220 197 199 165 109 56 129 170 91 128 68 62 218 54
internal_count=2000 1155 990 845 899 534 791 419 663 115 572 434 237 365 293 75 220 197 199 165 109 56 129 170 91 128 68 62 218 54
is_linear=0
shrinkage=0.1


Tree=23
num_leaves=31
num_cat=0
split_feature=0 1 8 4 7 4 6 2 9 14 5 3 1 0 3 1 1 10 2 11 5 2 6 9 12 38 2 16 1 26
split_gain=8.28303 4.84924 2.98095 2.73439 2.55424 2.52092 3.32459 2.22188 1.95605 2.24542 1.83111 1.6246 1.60337 1.42401 1.57823 2.01781 1.37077 1.18543 1.2395 1.16017 1.14761 1.12508 1.02493 1.01626 0.970632 0.922735 0.922698 0.878223 0.848631 0.80635
threshold=0.62654886982888203 -0.014497374119850848 -1.2285275753822462 1.3138662855077545 1.0000000180025095e-35 -0.37619860731198423 -0.99578318553525191 -1.4190907870970233 -0.6581766069800401 1.3188533781453071 0.87883558376533089 -0.54403442847731853 1.5405216259094818 1.6300707242837265 -1.111771896233456 -0.30527185455520034 -1.2247384058168873 0.25760230224794606 1.1775681147656065 0.50177640403293944 -0.57600484279291386 0.33804189883651281 0.81499508318611136 0.49882679154525184 0.69695400883076264 -1.2582551301447478 0.45566363278139915 -0.20108171584272097 -0.87943271610449103 0.62132995393273116
decision_type=2 2 2 2 2 2 2 2 2 2 2 2 2 2 2 2 2 2 2 2 2 2 2 2 2 2 2 2 2 2
left_child=1 4 -2 7 8 11 19 27 10 17 -1 20 21 14 -9 -16 -6 18 28 29 -3 23 -5 -8 -17 -13 -15 -4 -10 -7
right_child=2 5 3 22 16 6 12 13 9 -11 -12 25 -14 26 15 24 -18 -19 -20 -21 -22 -23 -24 -25 -26 -27 -28 -29 -30 -31
leaf_value=-0.00089331961915654662 -0.0087639806735505532 -0.037662120930850508 -0.025149760691618381 0.023079620795657063 -0.03102718097187819 -0.0096875276734036484 0.006991829415440888 0.0019947994480327027 -0.02883765034377575 0.015582934287235593 0.032370683858576027 -0.017577341271098706 0.031039313709034639 0.01811918501777109 0.0038729634623536294 0.01856869670037908 -0.014067395354250393 -0.0029221375432351361 0.0051810519261793657 0.006363731732643727 -0.008184881227290523 0.01576807431572947 0.052719336003065109 -0.011296037213902016 0.038937529921531683 7.7622999613898488e-05 0.043097572225157088 0.0031059421895241195 -0.013658801407744997 -0.032608019337058071
leaf_weight=59 74 25 22 28 62 66 170 145 65 33 23 35 34 50 85 87 206 92 22 36 28 124 20 37 32 192 21 22 85 20
leaf_count=59 74 25 22 28 62 66 170 145 65 33 23 35 34 50 85 87 206 92 22 36 28 124 20 37 32 192 21 22 85 20
internal_value=-3.92138e-11 -0.00414289 0.00999667 0.0127082 -0.010519 0.00123567 0.00558274 0.0103577 -0.00523547 -0.00901031 0.00843683 -0.00632512 0.0103595 0.0125975 0.00997113 0.0156406 -0.0179909 -0.0120845 -0.0169852 -0.00870855 -0.0220892 0.00823534 0.0354295 0.00372298 0.024046 -0.00264451 0.0255072 -0.0110219 -0.0202363 -0.0150179
internal_weight=2000 1414 586 512 647 767 487 464 379 297 82 280 365 420 349 204 268 264 172 122 53 331 48 207 119 227 71 44 150 86
internal_count=2000 1414 586 512 647 767 487 464 379 297 82 280 365 420 349 204 268 264 172 122 53 331 48 207 119 227 71 44 150 86
is_linear=0
shrinkage=0.1


Tree=24
num_leaves=31
num_cat=0
split_feature=0 2 38 11 13 13 6 4 2 3 7 0 36 1 13 7 13 17 5 0 12 10 1 2 4 10 14 4 3 4
split_gain=7.08371 4.92346 2.76121 2.62484 2.29384 2.25355 2.19864 2.79046 2.16489 1.82675 1.75171 1.55802 1.3833 1.37941 1.19327 1.18287 1.08185 1.30349 1.0173 1.00948 1.01616 0.945065 0.881103 0.929849 0.866 0.814322 0.794254 0.79055 0.73836 0.714631
threshold=-0.62785344823967304 -0.35953607182773389 1.011653760520389 -1.7571719704767894 -0.79734313587835404 0.029633599338907204 0.21140232694565672 -0.55242787610489474 0.93068454199692685 1.0000000180025095e-35 0.76499302910854994 0.877429333442593 -0.50046283286104398 -0.76726260497869758 0.98206672557594199 0.88761557729380802 -1.7304822000352551 -1.0600867407809165 1.335898108825585 1.2537500288631598 -0.37850448917193913 -0.22117394105624802 0.64362982257431278 -1.132055391880886 0.51319142301803378 -0.68600787362808824 -1.6432344497959619 -0.6629260297718248 1.0882107913215771 1.1349619131922764
decision_type=2 2 2 2 2 2 2 2 2 2 2 2 2 2 2 2 2 2 2 2 2 2 2 2 2 2 2 2 2 2
left_child=3 4 8 -1 12 15 9 -8 13 11 14 25 -2 -3 29 16 -5 -18 21 20 -10 -7 23 -13 -9 -6 -19 -15 -23 -4
right_child=1 2 10 5 6 18 7 24 19 -11 -12 22 -14 27 -16 -17 17 26 -20 -21 -22 28 -24 -25 -26 -27 -28 -29 -30 -31
leaf_value=-0.038345097198054706 -0.038669664911925798 -0.0074057234787027791 0.013603141876713685 -0.030253383315478763 -0.034399548943700467 -0.010458222171762075 -0.01167392234932235 0.010132643137688913 0.0028728895251535708 0.0053410026320254954 0.0032998936773255107 -0.025063086843583732 -0.010739580907507755 -0.0018840770415785111 0.04492862980816803 -0.025105185469841834 0.005764793106442634 0.0064409078750759371 0.017192253871222161 0.030573503836785677 0.017603742499072272 -0.0063608817914027286 0.015165969972377239 0.0033853446116188061 0.028540671051501539 -0.014666913371843596 -0.014808281572305994 0.0078886166397823757 0.0081997331746799101 0.033277783850450458
leaf_weight=29 25 113 48 24 29 99 47 63 81 87 41 20 61 116 29 67 53 20 28 32 111 59 23 27 43 75 146 289 85 30
leaf_count=29 25 113 48 24 29 99 47 63 81 87 41 20 61 116 29 67 53 20 28 32 111 59 23 27 43 75 146 289 85 30
internal_value=1.74419e-11 0.00394251 0.00840336 -0.00898375 -0.00399781 -0.00751821 -0.000910742 0.00860739 0.00591574 -0.00649034 0.0208751 -0.012406 -0.0188588 0.00236373 0.0276095 -0.0133412 -0.0100977 -0.00788884 -0.000857179 0.0141298 0.0113892 -0.00293695 -0.000872002 -0.00872037 0.0176001 -0.0201693 -0.0122481 0.00508952 0.00223393 0.0211703
internal_weight=2000 1390 890 610 500 581 414 153 742 261 148 174 86 518 107 310 243 219 271 224 192 243 70 47 106 104 166 405 144 78
internal_count=2000 1390 890 610 500 581 414 153 742 261 148 174 86 518 107 310 243 219 271 224 192 243 70 47 106 104 166 405 144 78
is_linear=0
shrinkage=0.1


Tree=25
num_leaves=31
num_cat=0
split_feature=0 1 7 2 2 10 0 8 12 9 5 1 2 15 3 0 13 7 3 38 5 7 0 0 6 3 20 6 6 3
split_gain=5.88862 3.09352 2.75246 2.34174 2.08972 2.2856 1.98214 1.9714 1.84976 1.62829 1.58153 1.345 1.21998 1.14281 1.08458 1.27676 1.04448 0.953762 0.929018 0.9093 0.906195 0.905725 0.885292 0.840595 0.824083 0.770379 0.766963 0.752974 0.732902 0.730174
threshold=0.25022817440831546 1.0908443743549971 1.868595962775871 1.6511939552316006 0.14608915808064141 0.31662023894023655 -1.0041741436602396 -1.0058514586900198 -1.5590568777306093 -0.53638677555632519 0.83062163831642821 1.4556757551311119 -0.34846271362832809 0.074637603554509463 0.59144050703495676 -1.2550546072739506 -1.1407461174530142 -0.27729863046614223 -0.18919851112973252 1.3359762696480184 -0.13025059345620207 -0.21598735637351338 1.6300707242837265 -0.50241321643281756 -0.33183115367075205 -0.68596879541635303 0.39086424384297086 0.09068377569756586 0.27176160256970222 -0.47306724500780123
decision_type=2 2 2 2 2 2 2 2 2 2 2 2 2 2 2 2 2 2 2 2 2 2 2 2 2 2 2 2 2 2
left_child=1 2 4 7 5 9 -6 29 -9 20 18 12 17 -7 23 24 -11 -10 -8 22 -1 -18 -14 -3 -16 -13 -4 -21 -12 -2
right_child=3 14 26 -5 6 13 10 8 11 16 28 25 19 -15 15 -17 21 -19 -20 27 -22 -23 -24 -25 -26 -27 -28 -29 -30 -31
leaf_value=-0.014852870057554955 -0.01205042198317398 -0.019713020762428642 -0.015376483935800095 0.026491886542903055 -0.0099306649427370053 -0.0065892967530676435 -0.0087329179894261293 -0.012412487756874827 0.009415023877527743 -0.035383434870252105 0.010331999047193677 0.012205160341479561 0.0072805338474682046 0.010693658979323048 -0.0054051618085109764 0.027255385121070716 -0.011136299023535917 -0.0038079149094097488 0.0055141426558423393 0.012505115832512579 0.0033160501190154304 -0.025526076131986816 0.025374935778478783 0.0058564102716950912 0.01698424636476463 0.038669184686362074 -0.033927771315360684 0.038777269199490552 0.032158267751336102 0.003690573906161539
leaf_weight=47 82 20 52 54 129 93 68 45 92 33 40 22 274 65 35 43 126 134 140 24 66 67 30 36 31 22 39 20 25 46
leaf_count=47 82 20 52 54 129 93 68 45 92 33 40 22 274 65 35 43 126 134 140 24 66 67 30 36 31 22 39 20 25 46
internal_value=6.98092e-12 -0.00464119 -0.00675399 0.00634387 -0.00507641 -0.00941251 0.000284384 0.00496841 0.00716196 -0.0140422 0.00511128 0.00858728 0.00729565 0.00052078 0.00803565 0.0138469 -0.0189428 0.00157487 0.00085645 0.0110109 -0.00424093 -0.0161317 0.00906617 -0.00327553 0.00511108 0.0254372 -0.023327 0.024447 0.0187267 -0.0063935
internal_weight=2000 1155 990 845 899 497 402 791 663 339 273 618 574 158 165 109 226 226 208 348 113 193 304 56 66 44 91 44 65 128
internal_count=2000 1155 990 845 899 497 402 791 663 339 273 618 574 158 165 109 226 226 208 348 113 193 304 56 66 44 91 44 65 128
is_linear=0
shrinkage=0.1


Tree=26
num_leaves=31
num_cat=0
split_feature=0 1 8 3 0 2 4 7 10 2 11 6 9 5 9 0 1 14 1 3 8 1 11 6 8 5 6 0 6 3
split_gain=4.96856 3.15749 1.99064 1.95162 2.293 1.82726 1.73936 1.70927 1.66368 1.43956 1.38947 1.63994 1.35609 1.2547 1.24397 1.14932 1.11554 1.09644 1.02349 1.41217 0.965334 0.897366 0.891881 1.02261 0.802941 0.801094 0.941688 0.795013 0.685727 0.669245
threshold=0.62654886982888203 0.16527970936770497 -1.2285275753822462 0.094670222748336072 -1.2550546072739506 0.31393336700866908 1.3138662855077545 1.9299072368685002 -0.15389890771664075 -1.4190907870970233 0.4031312837936048 0.45283942944183858 0.86419628581639663 0.86994037106229538 -0.71907152269189767 1.7555109560905822 1.1423265267692437 1.3457682233402515 -0.30527185455520034 -1.111771896233456 0.23988468325414294 -1.8794647313948489 0.51328292814660748 0.03032450007352035 -0.62640354264938736 -0.26632842182817679 0.6942765319380203 -0.25153275281910659 0.81499508318611136 -1.111771896233456
decision_type=2 2 2 2 2 2 2 2 2 2 2 2 2 2 2 2 2 2 2 2 2 2 2 2 2 2 2 2 2 2
left_child=1 7 -2 5 22 10 9 8 12 29 11 27 25 17 -15 18 -6 21 -11 -20 -17 -10 23 -5 -18 -1 -27 -3 -8 -4
right_child=2 3 6 4 16 -7 28 -9 13 15 -12 -13 -14 14 -16 20 24 -19 19 -21 -22 -23 -24 -25 -26 26 -28 -29 -30 -31
leaf_value=-0.015809871200699269 -0.0075884587905445215 -0.046101114319060887 -0.020383739838143813 -0.015215395661976395 0.0083731604880795882 0.0055342128045145385 0.017978274655927506 -0.0222467829133772 -0.026554873251271524 0.0012284935839269443 0.00041509282728657127 -0.0020508741404140188 -0.023404532872149976 0.026919478095240063 0.00071059897415001294 0.0090858254116028547 0.00845157650210673 0.0093800154306549338 0.0035744486596169219 0.019393567130404726 0.036416841938626023 -0.0054065458846213133 0.0071723211434532395 0.0036279692741421365 0.032816580528589455 -0.0085732183146121146 0.0085986175243225379 -0.021489647562016868 0.042222152389585973 0.0043846737360581757
leaf_weight=82 74 21 24 72 187 89 28 72 22 141 50 31 73 27 55 24 21 47 105 122 28 228 61 48 38 110 45 35 20 20
leaf_count=82 74 21 24 72 187 89 28 72 22 141 50 31 73 27 55 24 21 47 105 122 28 228 61 48 38 110 45 35 20 20
internal_value=-1.12072e-11 -0.00320867 0.00774241 0.00189265 0.00586988 -0.00562185 0.0099582 -0.00758601 -0.00605397 0.00808355 -0.0128692 -0.0205039 -0.0114873 -0.00160984 0.00934035 0.00988638 0.0121557 -0.00463313 0.00791997 0.0120764 0.0238025 -0.0072676 -0.00267323 -0.00767805 0.0241443 -0.00781656 -0.00358785 -0.0307189 0.0280799 -0.00912537
internal_weight=2000 1414 586 653 427 226 512 761 689 464 137 87 310 379 82 420 246 297 368 227 52 250 181 120 59 237 155 56 48 44
internal_count=2000 1414 586 653 427 226 512 761 689 464 137 87 310 379 82 420 246 297 368 227 52 250 181 120 59 237 155 56 48 44
is_linear=0
shrinkage=0.1


Tree=27
num_leaves=31
num_cat=0
split_feature=0 2 11 2 5 1 1 8 15 6 5 6 3 0 1 0 7 9 10 8 14 11 12 33 0 38 3 5 11 3
split_gain=4.2526 3.49532 2.31211 2.22461 2.01845 1.83371 1.611 1.51972 1.38601 1.37596 1.74959 1.32152 1.28854 1.71818 1.1839 1.14037 1.12782 0.93644 1.28175 0.928635 0.863544 0.797985 0.742075 0.730318 0.649224 0.718378 0.641374 0.624949 0.577815 0.559527
threshold=-0.75329368004652864 -0.35953607182773389 -1.5304623467237131 -1.9762899648396488 0.92454183627135655 -0.84184722669955769 1.4556757551311119 -1.5112481116106062 -0.73939974982647583 1.2375100125544296 0.70457458171596432 -0.27147187804670658 0.59144050703495676 1.0028695652494488 -0.94445971727464884 1.2537500288631598 1.868595962775871 0.43793187583339427 -0.13697862770165339 -0.61444935112169996 0.7797171339596064 -0.24073648715065873 -0.3488448121941457 0.45988689783776809 1.1283097970563041 0.018360948171988505 -0.68596879541635303 0.6553670220821447 -0.13711557270000763 -0.33113287806876707
decision_type=2 2 2 2 2 2 2 2 2 2 2 2 2 2 2 2 2 2 2 2 2 2 2 2 2 2 2 2 2 2
left_child=2 3 -1 -2 5 24 9 -5 -9 14 -11 -6 13 26 -4 16 17 27 -19 -15 21 -16 -14 -13 25 -3 -7 29 -17 -10
right_child=1 4 6 7 11 12 -8 8 15 10 -12 23 22 19 20 28 -18 18 -20 -21 -22 -23 -24 -25 -26 -27 -28 -29 -30 -31
leaf_value=-0.033230212771079758 -0.027020836543095741 -0.016332430031616243 -0.021110288029838657 -0.021104640334746558 0.0071006257909175478 -0.005117214248015511 0.014787752206570338 -0.010797301418390316 -0.0065590988018347498 -0.004572546919950341 0.030525258763227616 0.030758480060725443 0.0046097114459714957 -0.00022881819138255641 -0.018021198400402869 0.0033823482129567619 -0.019378608975697448 -0.020978094219592298 0.0045977438648426251 0.017688364546172255 0.0019272517783974763 -0.0060122819380878179 0.020225400974022898 0.010791394300758839 0.0064288184402839232 -0.00033486644458025696 0.0038683830512509019 0.014883923520418733 0.023527978083917073 0.0070377737816477966
leaf_weight=33 38 64 74 38 80 135 35 98 47 49 20 62 45 39 83 24 27 36 43 112 80 166 94 26 34 50 193 55 35 85
leaf_count=33 38 64 74 38 80 135 35 98 47 49 20 62 45 39 83 24 27 36 43 112 80 166 94 26 34 50 193 55 35 85
internal_value=-3.12992e-11 0.00280435 -0.00758214 -0.00371565 0.00647621 0.00429913 -0.00591274 -0.0019009 -0.000279249 -0.00744773 0.00560073 0.0164027 0.00669348 0.00423371 -0.00968183 0.00264907 9.49422e-05 0.00207158 -0.00705707 0.0130607 -0.0071113 -0.0100153 0.01517 0.0248591 -0.00569891 -0.00931595 0.000170043 0.00592807 0.0153331 0.00219646
internal_weight=2000 1460 540 526 934 766 507 488 450 472 69 168 618 479 403 352 293 266 79 151 329 249 139 88 148 114 328 187 59 132
internal_count=2000 1460 540 526 934 766 507 488 450 472 69 168 618 479 403 352 293 266 79 151 329 249 139 88 148 114 328 187 59 132
is_linear=0
shrinkage=0.1


Tree=28
num_leaves=31
num_cat=0
split_feature=0 7 4 9 12 3 8 0 1 15 13 9 17 10 6 1 0 17 2 1 4 2 15 11 0 3 11 2 4 2
split_gain=3.52808 2.16181 2.01736 2.50262 1.56963 1.56391 1.83706 2.25929 1.37371 1.34325 1.11483 0.98186 0.959972 0.919237 0.900103 0.809022 0.800307 0.78716 0.760451 0.73344 0.694273 0.678 0.661733 0.649894 0.684935 0.873137 0.828225 0.7212 0.644948 0.631507
threshold=0.50110863802202654 0.64237048092329208 0.22460780627722718 0.43793187583339427 -0.30494571184294034 -0.89887034582490455 -0.35145713751256563 1.3791902606700153 -1.2247384058168873 1.4042826394988319 -0.98962446720166442 -0.049227449861465496 1.4348483371154377 -0.06104041099437154 -0.75434608303907014 -0.48387622386475632 -1.0041741436602396 -0.80969134139602617 1.0523170985967185 1.0728432117226807 -0.43887246126931539 0.09791569032337831 0.97894465077013393 0.71486479113253931 -0.75329368004652864 -0.26016569459924982 -0.79466677772538963 0.3628479650391232 0.20358913574275742 0.33804189883651281
decision_type=2 2 2 2 2 2 2 2 2 2 2 2 2 2 2 2 2 2 2 2 2 2 2 2 2 2 2 2 2 2
left_child=1 2 10 9 14 6 -6 28 -3 16 17 23 22 29 15 -2 -4 -1 -18 21 -16 -7 -12 24 26 27 -10 -26 -8 -5
right_child=4 8 3 13 5 19 7 -9 11 -11 12 -13 -14 -15 20 -17 18 -19 -20 -21 -22 -23 -24 -25 25 -27 -28 -29 -30 -31
leaf_value=-0.0051003775264446931 -0.022389860926517124 -0.028001193932600713 0.00054460076505339218 -0.020811015686535456 -0.0078781485679650272 0.006208609169578716 -0.0076771973164286474 0.023776989007896654 -0.0328857106808573 0.031583547233431424 -0.0021711200951788825 -0.022707927447596664 -0.014920292674131426 0.0019265850647773024 -0.0051621050377183694 -0.0016144239075727902 0.0093989891238510613 -0.023604579333295215 0.02883325933168332 0.027286414595994547 0.0082570494885009765 0.020250846090225073 0.011969404795672746 0.0040299042373330204 -0.022562438891879446 0.0066442046833690262 -0.0093878312350716454 -0.00044706287638594707 0.01002197207084724 -0.00058895953242545541
leaf_weight=45 29 38 89 47 82 73 50 71 20 27 410 38 56 72 58 53 125 47 24 47 115 65 36 56 29 50 60 30 35 23
leaf_count=45 29 38 89 47 82 73 50 71 20 27 410 38 56 72 58 53 125 47 24 47 115 65 36 56 29 50 60 30 35 23
internal_value=9.77743e-12 -0.00300783 -0.000717864 0.00470552 0.00586482 0.00960062 0.00423978 0.0106095 -0.0101488 0.0104456 -0.00443389 -0.00775167 -0.00257928 -0.00600669 -0.000332203 -0.00896183 0.00804765 -0.0145536 0.0125293 0.0164973 0.00375814 0.0128227 -0.00102973 -0.00543193 -0.00823543 -0.0030781 -0.0152623 -0.0113173 -0.000389304 -0.0141666
internal_weight=2000 1322 1001 407 678 423 238 156 321 265 594 283 502 142 255 82 238 92 149 185 173 138 446 245 189 109 80 59 85 70
internal_count=2000 1322 1001 407 678 423 238 156 321 265 594 283 502 142 255 82 238 92 149 185 173 138 446 245 189 109 80 59 85 70
is_linear=0
shrinkage=0.1


Tree=29
num_leaves=31
num_cat=0
split_feature=2 0 7 5 9 12 1 0 3 38 10 2 11 2 15 8 11 4 7 1 2 1 2 9 7 1 4 35 5 7
split_gain=2.98876 2.40768 2.19567 2.1439 2.56342 1.49212 1.42663 1.15315 1.28739 1.11284 1.05171 1.00801 0.902117 0.879415 0.874714 0.828588 0.703952 0.685169 0.725177 0.683271 0.6741 0.658412 0.629332 0.668139 0.626466 0.611994 0.485023 0.475739 0.470723 0.468944
threshold=0.35687532695519075 -1.1296143754670951 0.58105920683066326 0.55505930436706052 0.3161420444096793 -0.42941911030711472 -1.9724023300014271 0.25022817440831546 -0.96983752929442169 -0.53608318599280469 -0.06104041099437154 1.6511939552316006 -1.0786602323362386 -1.0349673260931691 1.4042826394988319 0.2978976715502763 -0.92366424265375036 0.41399421688522114 0.76499302910854994 -1.1811720741041505 -0.67717578773672149 0.75292678396400514 -1.1765668041706283 -0.53638677555632519 0.64237048092329208 1.0433494501459561 -0.63317232732692419 -0.11035459573191793 -0.8890879409630692 -0.15467608228088447
decision_type=2 2 2 2 2 2 2 2 2 2 2 2 2 2 2 2 2 2 2 2 2 2 2 2 2 2 2 2 2 2
left_child=2 12 3 6 14 19 -1 9 13 16 20 17 -2 -9 29 22 -8 -7 -19 -3 -6 -10 -4 -24 -14 -17 -15 -25 -21 -5
right_child=1 5 15 4 10 11 7 8 21 -11 -12 -13 24 26 -16 25 -18 18 -20 28 -22 -23 23 27 -26 -27 -28 -29 -30 -31
leaf_value=-0.026756740175187588 -0.025155120901763441 -0.011347211468576764 -0.024492826408884946 0.015832657990977168 -0.027412240036452814 0.0056673739768854864 -0.031333852428942925 -0.023722468517636035 0.0040770132378532501 -0.0024594701454920161 0.0044666125687995353 0.023422742209319648 0.00093996221276416265 -0.012009270668828063 0.03286432997238907 -0.0072743744805588255 -0.010832123216964955 0.019676021956737438 0.002396726350046017 -0.0062895917121510913 -0.0053861752914434137 0.018801958681168882 -0.0055622359102263175 -0.012113589955719584 -0.01507514092337453 0.010735881474354994 0.0041100807596064571 -0.031098008697683161 0.0061458734351475088 0.0043594991050971057
leaf_weight=26 22 36 47 95 24 199 20 22 98 239 58 60 94 28 22 105 103 92 33 38 33 44 85 33 33 23 56 22 153 57
leaf_count=26 22 36 47 95 24 199 20 22 98 239 58 60 94 28 22 105 103 92 33 38 33 44 85 33 33 23 56 22 153 57
internal_value=-6.84086e-12 0.00493781 -0.0030264 -0.000570805 0.00657106 0.0077173 -0.00381609 -0.00283829 0.00241469 -0.00643701 -0.00501369 0.0115168 -0.00645997 -0.00592443 0.0142276 -0.0102373 -0.0141657 0.00931202 0.0151143 0.00128993 -0.0146603 0.00863967 -0.0144805 -0.0111192 -0.00322144 -0.00403816 -0.00126304 -0.0197074 0.0036718 0.0115302
internal_weight=2000 760 1240 925 289 611 636 610 248 362 115 384 149 106 174 315 123 324 125 227 57 142 187 140 127 128 84 55 191 152
internal_count=2000 760 1240 925 289 611 636 610 248 362 115 384 149 106 174 315 123 324 125 227 57 142 187 140 127 128 84 55 191 152
is_linear=0
shrinkage=0.1


Tree=30
num_leaves=31
num_cat=0
split_feature=0 1 1 4 7 9 2 4 9 4 3 10 10 8 5 7 0 3 5 6 11 34 5 27 8 5 15 12 0 23
split_gain=2.64772 2.61461 1.61138 1.54209 1.52712 1.58636 1.27226 1.23228 1.20962 1.36966 1.04166 1.03784 0.940708 0.939567 0.808003 0.881053 0.795362 1.08377 0.788044 0.707234 0.67805 0.671161 0.566671 0.555695 0.519358 0.493199 0.48519 0.469521 0.46583 0.463372
threshold=1.0028695652494488 -0.84184722669955769 1.7570632988773693 -1.3699176750221913 -0.093364808188255474 -0.11012236557332293 1.6511939552316006 1.3351033318399865 0.55972170725710935 -0.45497767635417019 -0.18919851112973252 -0.040871437216501792 0.76033766205336706 -1.6197343530236432 0.93461992300405272 -0.15467608228088447 -1.1296143754670951 0.59144050703495676 1.6127852616881719 -0.6336275317909793 0.74042793389317241 -1.6318091626671893 -0.28340912281645281 -0.20889900410485807 0.41685359704638764 -0.40235893523896621 -0.37215185818033775 -0.77887539807122097 -0.50241321643281756 0.48509783513337407
decision_type=2 2 2 2 2 2 2 2 2 2 2 2 2 2 2 2 2 2 2 2 2 2 2 2 2 2 2 2 2 2
left_child=1 11 3 10 8 16 7 13 9 -5 -3 19 28 -2 15 -13 -6 22 -11 23 26 -15 -18 -1 -24 -21 -7 -23 -10 -12
right_child=6 2 -4 4 5 20 -8 -9 12 18 29 14 -14 21 -16 -17 17 -19 -20 25 -22 27 24 -25 -26 -27 -28 -29 -30 -31
leaf_value=-0.037611595304174857 -0.01576904623282396 -0.026966267306301181 0.018779947775312597 -0.0030238255558805052 -0.0086738650258546372 -0.026513640111079442 0.028048540053090883 0.026419101970235781 -0.010164101871880977 0.0092457424547870756 0.00092147347344042263 -0.00031964352524931164 0.010679198171733422 -0.011603799449013812 0.010197983904120824 -0.016565921806013361 -0.0087558843616447231 0.011281713095841623 0.028171964750314755 -0.02110834023821348 -0.000649192319006512 -0.00044180644767810449 -0.0028332119491824414 -0.016830718325030421 0.010004091795641356 -0.0055298409228394657 -0.011917813960462809 0.0092059824444901944 -0.00050481384199628347 -0.016663371697928676
leaf_weight=22 22 33 45 95 83 32 28 27 85 264 43 71 51 21 30 63 73 94 24 31 38 66 80 31 52 59 79 214 121 23
leaf_count=22 22 33 45 95 83 32 28 27 85 264 43 71 51 21 30 63 73 94 24 31 38 66 80 31 52 59 79 214 121 23
internal_value=2.88113e-11 -0.00175647 0.000183451 -0.00047548 0.000537712 -0.00342691 0.00753703 0.00589611 0.00382711 0.00738835 -0.0124598 -0.0100659 -0.00148012 0.00418056 -0.00463664 -0.00795782 -1.32814e-05 0.00239083 0.0108229 -0.0162925 -0.0121786 0.00563868 -0.00168597 -0.0254567 0.00222391 -0.0108958 -0.0161256 0.00693186 -0.00449044 -0.00520658
internal_weight=2000 1622 1315 1270 1171 531 378 350 640 383 99 307 257 323 164 134 382 299 288 143 149 301 205 53 132 90 111 280 206 66
internal_count=2000 1622 1315 1270 1171 531 378 350 640 383 99 307 257 323 164 134 382 299 288 143 149 301 205 53 132 90 111 280 206 66
is_linear=0
shrinkage=0.1


Tree=31
num_leaves=31
num_cat=0
split_feature=2 0 7 10 9 5 1 9 4 5 1 6 11 1 0 5 2 12 20 3 4 1 7 32 5 11 4 0 2 1
split_gain=2.30994 1.8496 1.66078 1.48843 1.39839 1.60388 1.3412 1.28138 1.61447 1.17076 1.06288 0.860731 0.699494 0.642849 0.606128 0.661356 0.594827 0.583449 0.569553 0.531614 0.479922 0.479412 0.473344 0.465614 0.463273 0.460964 0.447199 0.427006 0.418969 0.40662
threshold=0.31393336700866908 -1.2550546072739506 -0.21598735637351338 -0.011903917830836898 0.86419628581639663 -0.25341143742430156 -0.91209280596181996 -0.23191219699703788 -1.4196527629621982 0.92454183627135655 0.30395316091632113 0.45283942944183858 -0.24073648715065873 -1.0304783022310249 1.0028695652494488 -0.86921565726479388 1.7592681874218823 -1.1802882159978247 1.3910190644885372 -0.33113287806876707 -0.6629260297718248 0.70396596703246439 0.82630430320117898 -0.93935359538720409 0.55505930436706052 1.0000000180025095e-35 -0.6629260297718248 1.0028695652494488 -1.4190907870970233 1.4247161008318843
decision_type=2 2 2 2 2 2 2 2 2 2 2 2 2 2 2 2 2 2 2 2 2 2 2 2 2 2 2 2 2 2
left_child=2 12 3 4 5 20 -4 8 -8 10 14 -11 -2 -6 15 25 29 -5 22 26 -1 -14 27 -9 -19 -3 -17 -10 -25 -12
right_child=1 9 6 17 13 -7 7 23 18 11 16 -13 21 -15 -16 19 -18 24 -20 -21 -22 -23 -24 28 -26 -27 -28 -29 -30 -31
leaf_value=-0.020157553242712185 -0.014113954705141124 -0.018230494258530211 -0.01705083294864744 -0.0076574050143660456 -0.027926589131987256 0.0086630359846215765 -0.02626615460536888 -0.0012814803255928888 0.0018030137943550332 0.010097107686394068 0.0063113506017187689 0.028744944078190362 -0.0050695830745495522 -0.0087754825693511247 0.0091182797377566908 -0.01635667949837322 0.025455881873874559 0.0047717410137222424 0.016706541938368569 0.0056020137496292591 -0.0035112335714836459 0.011869146331446246 -0.004077548651815012 -0.026374296358098154 0.013879477919545025 -0.0016394249492270108 0.00054629192428870337 0.017250535015149841 -0.011556461083715218 0.020637066474022428
leaf_weight=29 62 33 100 28 21 120 23 36 121 91 143 34 55 106 72 24 23 185 22 125 43 24 142 23 80 34 45 21 112 23
leaf_count=29 62 33 100 28 21 120 23 36 121 91 143 34 55 106 72 24 23 185 22 125 43 24 142 23 80 34 45 21 112 23
internal_value=1.62356e-11 0.00421477 -0.00274029 0.00092496 -0.0038014 0.0015834 -0.00647885 -0.00436446 -0.000714783 0.00647646 0.00439484 0.0151693 -0.00616335 -0.0119422 0.000995327 -0.00124549 0.0103844 0.00607073 0.00120574 0.00171276 -0.010216 7.636e-05 4.97886e-06 -0.0113863 0.00752125 -0.00981115 -0.005333 0.00408751 -0.014081 0.00829624
internal_weight=2000 788 1212 612 319 192 600 500 329 647 522 125 141 127 333 261 189 293 306 194 72 79 284 171 265 67 69 142 135 166
internal_count=2000 788 1212 612 319 192 600 500 329 647 522 125 141 127 333 261 189 293 306 194 72 79 284 171 265 67 69 142 135 166
is_linear=0
shrinkage=0.1


Tree=32
num_leaves=31
num_cat=0
split_feature=0 2 3 8 1 0 3 1 2 0 5 5 4 6 34 38 38 11 1 10 11 3 12 12 15 30 17 3 35 34
split_gain=2.07561 1.30123 1.22307 1.22266 1.20904 1.09639 1.03466 1.05496 0.998192 0.955128 0.853063 0.819217 0.809245 1.19588 0.800217 0.632801 0.624663 0.607167 0.603831 0.731937 0.603756 0.596137 0.553884 0.472273 0.466846 0.45815 0.447309 0.561216 0.419173 0.408365
threshold=0.25022817440831546 0.35687532695519075 0.23660458968737058 0.49342292840020746 -1.9313573337713927 1.7555109560905822 -0.54403442847731853 0.73146611450658761 -0.91564535210978903 -1.2550546072739506 1.4053091568859766 -0.75201649840617757 -0.38509742107073458 -0.75434608303907014 -1.0568868646125258 1.3986632559490946 0.75613928895504845 -1.0786602323362386 1.2768368429859545 0.55181213114861327 1.1276691183888239 0.80434205744350851 -0.061972526671239793 0.42494629209766327 0.33001724794450288 0.51940982509609057 -0.61747139223940972 0.6624076905044739 0.059113765765004052 -0.27362401268876096
decision_type=2 2 2 2 2 2 2 2 2 2 2 2 2 2 2 2 2 2 2 2 2 2 2 2 2 2 2 2 2 2
left_child=1 2 10 6 -4 15 8 22 24 17 14 21 -10 -14 -1 26 -13 -3 19 20 -6 28 -8 -18 -2 -19 -5 29 -11 -28
right_child=3 9 4 5 18 -7 7 -9 12 11 -12 16 13 -15 -16 -17 23 25 -20 -21 -22 -23 -24 -25 -26 -27 27 -29 -30 -31
leaf_value=-0.028010303444499451 -0.021490033596961035 -0.020608605852414093 -0.025368854060599751 0.011509129165624007 -0.006564536774334849 0.028167189671485512 -0.0032990388658141628 0.018607251497231563 -0.0073861836408956232 -0.0026793031383784034 0.0079706512835054175 0.0047546027142903258 -0.0089677281937945424 0.0091609957096291574 -0.010649729252708731 0.020711782639846205 0.0084088676496697906 -0.0065062377578017846 0.0097676282835230024 0.0047780110455099868 0.0075666620841195039 0.010798882927047089 0.0082905854485202501 0.027164177596569063 -0.0027287083866429471 0.0072759577662081416 -0.0064748361177931913 0.016371481896688543 -0.020109825682911007 0.0045817850846661158
leaf_weight=31 36 22 22 78 273 27 84 53 97 37 21 171 51 127 185 30 29 83 44 102 34 20 81 25 21 34 59 24 22 77
leaf_count=31 36 22 22 78 273 27 84 53 97 37 21 171 51 127 185 30 29 83 44 102 34 20 81 25 21 34 59 24 22 77
internal_value=1.10604e-11 -0.00275547 -0.00540305 0.00376635 -0.00247544 0.00896026 0.000980529 0.00633304 -0.00253407 0.00149978 -0.0112706 0.00463956 -3.77e-05 0.00396681 -0.0131413 0.00702524 0.00771555 -0.00536708 -0.00136362 -0.00256111 -0.00499952 -0.00412117 0.00239041 0.0170919 -0.014578 -0.00250116 0.00530004 0.00227311 -0.00917882 -0.000214837
internal_weight=2000 1155 712 845 475 295 550 218 332 443 237 304 275 178 216 268 225 139 453 409 307 79 165 54 57 117 238 160 59 136
