tree
version=v4
num_class=1
num_tree_per_iteration=1
label_index=0
max_feature_idx=39
objective=regression
feature_names=Component5_fraction Component3_Property4 Component2_fraction Component4_fraction Component1_Property4 Component1_fraction Property4_mean Component4_Property4 Component3_fraction Component2_Property4 Component5_Property4 Property4_min Property4_std Property4_max Component2_Property3 Component4_Property2 Component3_Property10 Component1_Property8 Property7_min Component2_Property7 Component5_Property8 Component3_Property5 Component3_Property3 Component3_Property8 Component1_Property2 Property9_mean Property8_std Component3_Property9 Component1_Property1 Component2_Property5 Component1_Property6 Component2_Property2 Component4_Property9 Component1_Property9 Component2_Property9 Component3_Property1 Component4_Property3 Component1_Property10 Component2_Property1 Property6_std
feature_infos=[-1.4432149549842339:2.194551767414576] [-3.0867858750721169:3.1358004965226809] [-1.1050008307166337:1.9605628739148144] [-2.3536976069500075:1.1236943830563355] [-3.0635018972085128:3.0305493308678941] [-1.1148884748189714:1.9298573107739021] [-3.6790015965442953:3.0661186479266531] [-3.0390985030773874:3.046518899229937] [-1.0863220989713205:1.9316416822309519] [-3.0362610107314225:3.0767043898214803] [-3.180910575964031:1.6304460008198225] [-2.9428030085830961:2.8354005010362817] [-2.3614802526895105:3.1170978951954051] [-3.4342708161603053:3.1069744666637038] [-2.9333709382245061:2.9302061702065161] [-2.9846027145041738:2.9828626016179931] [-2.5162544518231571:3.0183554716300929] [-2.9831086286865651:2.9592846825428496] [-4.2958783118945361:3.5086017963361722] [-2.1338563896450644:3.1133057856593047] [-3.1233416482436249:1.7593989751171502] [-3.1092710137687747:2.9778590922157657] [-1.3756205895767295:3.1314356627873163] [-3.0296356529809692:2.9990892293641047] [-2.9632259579886839:2.9397538736952944] [-3.7460832672071551:2.9407837283881686] [-2.3746755670365052:3.9563143668821481] [-3.2703553075502727:2.885983552251977] [-2.9443259388623559:2.9817423438570092] [-2.5079698593676123:2.9460068094965961] [-2.9205000524078404:3.1836601658004189] [-2.5835751569409351:3.1353536269747639] [-3.3616581809703208:2.9510622392090893] [-3.2875020715288867:2.860497660818905] [-1.4229776261693556:3.2585970667568298] [-3.0092845207792114:2.8694751749189109] [-2.4934569599317689:3.0246642120110661] [-3.079879551332029:3.046570451098813] [-1.7192392865983002:3.0517006532723983] [-2.4675458255732496:3.702493962776352]
tree_sizes=2754 2755 2771 2776 2788 2788 2780 2782 2782 2784 2800 2791 2792 2778 2796 2785 2805 2811 2806 2804 2793 2812 2820 2825 2816 2821 2835 2825 2839 2833 2841 2856 2848 2854 2876 2849 2844 2855 2862 2866 2884 2864 2858 2879 2863 2885 2880 2872 2872 2862 2884 2871 2875 2896 2874 2896 2898 2891 2885 2916 2909 2902 2906 2934 2901 2941 2916 2900 2917 2916 2928 2923 2944 2935 2950 2957 2943 2936 2941 2941 2943 2930 2940 2956 2928 2945 2933 2934 2930 2930 2932 2931 2939 2932 2939 2942 2933 2947 2930 2935 2934 2947 2936 2946 2953 2951 2948 2927 2944 2939 2941 2957 2940 2942 2949 2947 2953 2943 2956 2962 2941 2940 2927 2944 2957 2949 2956 2945 2953 2939 2950 2970 2973 2963 2948 2961 2956 2963 2958 2946 2964 2976 2959 2950 2955 2985 2969 2969 2966 2961 2958 2964 2957 2993 2981 2974 2977 2993 2981 2970 2975 2975 2985 2980 2983 2983 2985 2984 2978 2992 2998 2958 2991 2989 2983 2984 2982 2983 2993 2994 2985 2995 2983 2987 2992 2981 2977 2990 2985 2986 2984 2976 2998 2983 2986 2973 2970 2988 2989 2987 2980 2991 3003 2997 2978 2976 2979 2994 3001 2981 2983 2986 2983 2992 2992 2988 2984 3010 2984 2999 2985 2993 3012 2999 2990 2995 2990 2997 3000 3010 2986 3013 3020 3022 2989 3000 2992 2995 3008 3007 2999 3000 3001 3006 3000 3022 3009 3013 3012 3001 3015 3018 3022 3021 3022 3012 3029 3003 3023 3013 3021 3013 3027 3024 3027 3013 3025 3022 3019 3029 3013 3014 3032 3021 3018 3028 3025 3014 3028 3036 3044 3032 3031 3032 3028 3037 3041 3023 3016 3037 3026 3030 3038 3058 3032 3026 3039 3041 3028 3014 3032 3024 3042 3035 3028 3029 3027 3027 3034 3023 3033 3041 3048 3031 3009 3024 3046 3040 3037 3028 3026 3026 3038 3019 3031 3035 3032 3049 3031 3039 3031 3026 3021 3038 3036 3018 3047 3015 3010 3030 3033 3042 3048 3032 3016 3046 3014 3048 3036 3051 3042 3036 3050 3026 3028 3038 3022 3031 3024 3015 3036 3043 3030 3026 3035 3017 3046 3031 3007 3043 3034 3035 3019 3040 3030 3045 3026 3027 3038 3035 3043 3042 3024 3027 3025 3015 3024 3034 3037 3041 3017 3032 3016 3037 3034 3015 3028 3037 3035 3022 3028 3023 3024 3019 3035 3034 3041 3038 3038 3033 3024 3028 3046 3034 3044 3033 3024 3042 3026 3025 3032 3039 3029 3026 3032 3030 3027 3026 3039 3043 3042 3037 3046 3027 3034 3044 3044 3034 3011 3015 3035 3030 3028 3030 3034 3043 3032 3038 3041 3027 3008 3028 3019 3026 3043 3042 3044 3025 3034 3021 3033 3037 3012 3021 3033 3033 3027 3033 3033 3032 3020 3029 3044 3031 3009 3037 3026 3021 3035 3021 3032 3029 3030 3040 3016 3034 3023 3037 3022 3038 3012 3024 3039 3038 3033 3026 3023 3033 3037 3018 3028 3018 3046 3045 3043 3016 3041 3031 3023 3025 3040 3032 3042 3027 3029 3026 3032 3030 3027 3030 3025 3027 3022 3034 3029 3030 3029 3035 3015 3038 3032 3039 3023 3016 3021 3035 3022 3012 3019 3006 3026 3025 3029 3026 3030 3040 3032 3039 3025 3037 3028 3023 3020 3043 3043 3048 3030 3020 3032 3030 3019 3018 3037 3021 3022 3024 3039 3019 3025 3027 3044 3021 3042 3028 3024 3044 3028 3043 3016 3023 3042 3032 3033 3037 3034 3031 3032 3025 3041 3032 3032 3044 3027 3041 3028 3021 3022 3028 3017 3047 3024 3035 3026 3029 3033 3027 3040 3032 3036 3029 3031 3020 3031 3036 3034 3022 3041 3024 3029 3027 3025 3032 3027 3042 3029 3018 3038 3026 3033 3035 3031 3021 3032 3032 3024 3033 3016 3025 3043 3029 3038 3047 3027 3029 3035 3046 3029 3027 3026 3040 3041 3031 3024 3032 3031 3042 3031 3029 3020 3036 3027 3027 3037 3030 3031 3021 3031 3014 3039 3043 3027 3050 3047 3024 3041 3040 3025 3039 3029 3018 3021 3018 3030 3037 3048 3023 3026 3046 3040 3026 3034 3028 3023 3027 3014 3035 3025 3047 3020 3036 3042 3029 3022 3028 3023 3041 3034 3030 3037 3027 3032 3043 3034 3023 3029 3033 3034 3033 3039 3034 3042 3030 3039 3021 3032 3022 3033 3044 3039 3026 3029 3030 3027 3028 3033 3024 3044 3048 3058 3037 3044 3031 3038 3033 3035 3034 3016 3030 3044 3027 3051 3026 3042 3037 3027 3032 3037 3040 3039 3030 3012 3036 3031 3037 3039 3037 3026 3037 3034 3026 3036 3050 3032 3024 3020 3033 3029 3025 3033 3039 3034 3034 3044 3040 3039 3031 3038 3041 3045 3034 3039 3033 3053 3041 3033 3043 3029 3020 3047 3034 3031 3039 3035 3027 3039 3040 3032 3027 3036 3044 3049 3030 3034 3039 3028 3027 3033 3037 3038 3038 3035 3037 3032 3031 3023 3043 3044 3039 3026 3028 3043 3019 3044 3024 3031 3041 3031 3032 3035 3030 3041 3034 3036 3026 3030 3035 3031 3040 3044 3021 3035 3035 3042 3044 3038 3028 3032 3038 3036 3055 3036 3029 3035 3034 3022 3039 3029 3021 3034 3026 3051 3045 3029 3050 3029 3035 3034 3034 3033 3032 3032 3023 3030 3032 3048 3032 3043 3025 3039 3037 3023 3025 3051 3027 3037 3044 3031 3044 3040 3022 3037 3040 3038 3040 3021 3034 3044 3037 3027 3034 3029 3038 3038 3022 3035 3046 3035 3032 3021 3033 3038 3049 3041 3034 3051 3040 3035 3023 3029 3042 3035 3037 3039 3040 3047 3038 3044 3031 3035 3037 3033 3043 3010 3043 3034 3025 3025 3020 3038 3038 3028 3027 3048 3039 3036 3047 3035 3030 3045 3042 3031 3033 3041 3038 3038 3025 3026 3030 3046 3027 3016 3042 3018 3033 3045 3030 3042 3039 3025 3044 3021 3023 3027 3040 3032 3026 3022 3024 3030 3035 3046 3047 3033 3032 3038 3042 3046 3028 3028 3043

Tree=0
num_leaves=31
num_cat=0
split_feature=0 2 2 6 0 6 0 6 6 0 6 6 0 6 8 3 3 3 1 2 8 3 0 0 2 8 2 3 5 3
split_gain=668.202 168.634 116.183 96.7418 63.1091 37.6352 31.9637 31.883 31.3576 27.4208 25.1024 24.2292 21.655 20.3717 20.0664 18.8148 17.9169 15.0462 14.3 12.863 12.7358 13.0034 11.7028 10.8822 10.3279 7.89599 7.76883 7.50607 7.13242 7.11064
threshold=1.0000000180025095e-35 1.010238125479066 0.27450283636751821 0.085557955432215074 -0.75329368004652864 -0.45643721192999648 0.75198910163573751 -1.3957584561530509 0.25538177303316639 0.62654886982888203 0.11808846730882937 -0.9873789656978903 0.877429333442593 1.0768727595308956 0.21140232694565672 0.23660458968737058 -0.68596879541635303 0.23660458968737058 -0.37477531478538278 -0.5838550009292871 0.633917256313975 0.87530924091302564 -0.50241321643281756 -0.75329368004652864 -0.39992117865140026 0.51319870506588416 -0.093364808188255474 0.37853895662640519 0.98598611724011154 0.30757177315688794
decision_type=2 2 2 2 2 2 2 2 2 2 2 2 2 2 2 2 2 2 2 2 2 2 2 2 2 2 2 2 2 2
left_child=2 3 4 7 11 -3 16 26 17 15 23 -1 -7 24 -13 -9 -5 -6 -16 28 21 -18 -12 -4 -8 -15 -2 -25 -11 -10
right_child=1 5 10 6 8 12 13 9 29 19 22 14 -14 25 18 -17 20 -19 -20 -21 -22 -23 -24 27 -26 -27 -28 -29 -30 -31
leaf_value=-0.12631327720925398 -0.00081128848311599541 -0.088766977760009469 -0.16143560018954012 0.028762124553738874 -0.068046406148209879 -0.040845722610384903 0.13843748960057822 -0.013428466450689095 0.0084355167588766895 0.11964656548791874 -0.099411302899580681 -0.081754920532461264 0.037693384250664777 0.15520713495294705 -0.078135641213929796 0.05649889456316777 0.052475412504583159 -0.0080661939061171702 -0.0099304422356517007 0.048638709188396141 0.15420280494013183 0.1185492451028055 -0.032741050933280752 -0.13387579190702145 0.082468456193324532 0.22779557294457811 -0.071830430475684506 -0.072262685737572621 0.056927837875671697 0.055666740209795534
leaf_weight=61 43 70 97 54 76 66 68 84 68 66 98 160 75 47 44 71 68 93 102 87 30 53 36 58 64 22 24 30 25 60
leaf_count=61 43 70 97 54 76 66 68 84 68 66 98 160 75 47 44 71 68 93 102 87 30 53 36 58 64 22 24 30 25 60
internal_value=-0.00606778 0.0507593 -0.0648604 0.0715939 -0.0410314 -0.028827 0.105982 0.0366901 -0.00676116 0.049354 -0.114461 -0.068765 0.000930398 0.134318 -0.057293 0.0186028 0.0781984 -0.0350395 -0.0304854 0.0761317 0.0958776 0.0814168 -0.0814999 -0.138335 0.111301 0.178351 -0.026251 -0.112871 0.102416 0.0305752
internal_weight=2000 1017 983 806 664 211 406 400 297 333 319 367 141 201 306 155 205 169 146 178 151 121 134 185 132 69 67 88 91 128
internal_count=2000 1017 983 806 664 211 406 400 297 333 319 367 141 201 306 155 205 169 146 178 151 121 134 185 132 69 67 88 91 128
is_linear=0
shrinkage=1


Tree=1
num_leaves=31
num_cat=0
split_feature=0 2 2 6 0 6 6 6 0 0 6 6 6 3 3 0 3 8 2 0 2 0 8 1 3 8 3 8 5 0
split_gain=541.244 137.257 94.1082 79.904 51.1184 34.5263 25.3996 23.9292 23.9036 22.2108 21.7205 20.333 16.2925 16.2347 15.24 14.5165 12.1874 11.3656 10.419 10.0963 9.69116 9.47923 9.19459 9.83196 8.7487 8.64832 9.64194 7.64872 6.83938 6.4703
threshold=1.0000000180025095e-35 0.94892685138643695 0.27450283636751821 0.085557955432215074 -0.75329368004652864 -0.28537220325105705 0.25538177303316639 -1.3957584561530509 0.75198910163573751 0.62654886982888203 -0.12193197746026803 0.11808846730882937 1.0768727595308956 -0.61500161194683567 0.23660458968737058 0.877429333442593 0.23660458968737058 0.21140232694565672 -0.5838550009292871 1.1283097970563041 1.4394170441274685 -0.50241321643281756 0.33212087819374769 -0.44737215578732176 -0.47306724500780123 0.633917256313975 0.87530924091302564 1.297869288178475 -0.29280711270889531 -0.75329368004652864
decision_type=2 2 2 2 2 2 2 2 2 2 2 2 2 2 2 2 2 2 2 2 2 2 2 2 2 2 2 2 2 2
left_child=2 3 4 7 10 19 16 28 13 14 22 20 24 -5 -9 -7 -6 -12 -11 -3 29 -13 -1 -24 27 26 -15 -10 -2 -4
right_child=1 5 11 8 6 15 -8 9 12 18 17 21 -14 25 -16 -17 -18 -19 -20 -21 -22 -23 23 -25 -26 -27 -28 -29 -30 -31
leaf_value=-0.10393200722461629 0.028896736692298544 -0.091958712368157877 -0.12407251997240659 0.034043838614124362 -0.05578076529629087 -0.020454024436714298 0.032978637605265253 -0.0066246211739434376 0.071193855903402437 0.097635532425880273 -0.054658983094634975 -0.084009173913497714 0.16680463640128865 0.056950256216029331 0.056310005176445133 0.044692416721299089 -0.0017985759488236841 -0.0056139021380139254 0.049235838293044391 -0.020287703946232798 -0.1477133999682135 -0.024005946280926262 -0.09755665353602834 -0.028423254981559395 0.1516562020406127 0.14631454971219812 0.11609048504455417 0.13046362670985134 -0.03965517445792293 -0.076197826571085245
leaf_weight=91 22 57 58 59 76 66 128 84 64 91 108 98 68 60 71 71 93 84 87 30 72 36 36 48 32 28 51 33 43 55
leaf_count=91 22 57 58 59 76 66 128 84 64 91 108 98 68 60 71 71 93 84 87 30 72 36 36 48 32 28 51 33 43 55
internal_value=3.45428e-10 0.0511444 -0.0529133 0.0706695 -0.0314672 -0.017978 -0.000624041 0.0390464 0.102533 0.0498796 -0.0564275 -0.0975535 0.127195 0.0779951 0.0222035 0.013308 -0.0260746 -0.0332018 0.0739795 -0.0672446 -0.11904 -0.0678889 -0.0819095 -0.0580519 0.106316 0.0966506 0.0841228 0.0913578 -0.016453 -0.100771
internal_weight=2000 1017 983 793 664 224 297 398 395 333 367 319 197 198 155 137 169 192 178 87 185 134 175 84 129 139 111 97 65 113
internal_count=2000 1017 983 793 664 224 297 398 395 333 367 319 197 198 155 137 169 192 178 87 185 134 175 84 129 139 111 97 65 113
is_linear=0
shrinkage=0.1


Tree=2
num_leaves=31
num_cat=0
split_feature=0 2 2 6 6 0 5 5 6 1 6 0 5 1 4 2 4 6 2 8 2 3 8 0 5 0 8 0 2 1
split_gain=438.407 115.627 76.2277 55.1629 44.5645 41.7711 24.7828 23.2455 17.5656 17.0349 16.7959 16.1895 14.5357 18.8304 13.947 13.8968 11.8552 11.3107 11.0856 10.3732 10.2738 9.81532 8.77547 8.52181 8.24755 7.44821 7.09837 6.90957 6.73408 6.11875
threshold=1.0000000180025095e-35 0.090569014089631319 0.27450283636751821 -0.14792434000182633 -0.25517537272822827 -0.87873391185338412 0.13345729727410682 0.98598611724011154 -0.12193197746026803 0.44453189080793259 -0.19521341274930268 0.62654886982888203 0.92509120152825419 -1.4447144714568221 -0.42020717703037053 1.2554832218495819 0.41772486683013449 0.57863285249343177 1.1941719477569528 0.51319870506588416 1.4394170441274685 -0.26016569459924982 0.21140232694565672 -0.37697298462596213 -0.17101728128518043 0.50110863802202654 -0.27147187804670658 1.1283097970563041 1.4394170441274685 -0.40588824664335638
decision_type=2 2 2 2 2 2 2 2 2 2 2 2 2 2 2 2 2 2 2 2 2 2 2 2 2 2 2 2 2 2
left_child=2 3 5 12 15 8 17 9 26 25 28 21 13 -2 -8 24 -9 -7 -13 -11 23 -6 -10 -12 -3 -5 -1 -17 -4 -28
right_child=1 4 10 7 11 6 14 16 22 19 20 18 -14 -15 -16 27 -18 -19 -20 -21 -22 -23 -24 -25 -26 -27 29 -29 -30 -31
leaf_value=-0.11184764402833852 -0.024712599770954025 0.014786566824365695 -0.09531609920804647 0.064540931789204489 -0.025730223176748647 0.0055851978729932316 -0.07197111652486704 0.028274217993021013 -0.051745639987833186 0.10950883731648729 -0.061424615666891141 0.076785807171836501 0.0011956564076244832 0.067516809710357714 -0.0103893298873896 -0.092153522435655 0.092859519117822253 0.060879318629476153 0.022176806004170112 0.1777430934565408 -0.095466386753579852 0.03459402316734575 -0.0064269713622021989 0.008155371588857277 -0.048552343531456946 0.11213816464878619 -0.089262624337988095 -0.024250404468991543 -0.13864554562445344 -0.042633520568100117
leaf_weight=44 26 52 94 50 60 113 55 54 96 37 75 82 75 149 111 47 60 55 68 56 69 49 77 23 34 96 53 22 58 60
leaf_count=44 26 52 94 50 60 113 55 54 96 37 75 82 75 149 111 47 60 55 68 56 69 49 77 23 34 96 53 22 58 60
internal_value=2.85872e-10 0.0460299 -0.047622 0.073969 0.00533611 -0.0283205 -0.00338963 0.0994225 -0.0535536 0.117145 -0.0877981 0.0307172 0.0380286 0.0538142 -0.0307929 -0.0370749 0.0622665 0.0236874 0.0520297 0.150596 -0.0659069 0.00138802 -0.0315749 -0.0450946 -0.0102544 0.0958377 -0.0777721 -0.0705033 -0.11185 -0.0645038
internal_weight=2000 1017 983 603 414 664 334 353 330 239 319 259 250 175 166 155 114 168 150 93 167 109 173 98 86 146 157 69 152 113
internal_count=2000 1017 983 603 414 664 334 353 330 239 319 259 250 175 166 155 114 168 150 93 167 109 173 98 86 146 157 69 152 113
is_linear=0
shrinkage=0.1


Tree=3
num_leaves=31
num_cat=0
split_feature=0 2 2 6 6 6 6 0 9 2 0 5 3 5 0 3 1 6 0 2 6 5 5 5 2 8 0 5 8 4
split_gain=358.718 87.7541 71.0924 56.1444 37.8997 23.9516 22.7274 22.0548 20.9804 15.9566 15.2739 14.2535 14.2069 13.9235 13.2856 11.0808 10.872 10.3511 8.1926 7.95518 7.01397 7.00927 6.76547 6.12694 6.10692 6.05639 6.0365 6.02134 5.72745 5.53906
threshold=0.12478794260145983 1.1941719477569528 1.0000000180025095e-35 0.47031238850644869 0.59308495426104424 -1.3957584561530509 -0.15515032783016489 -0.62785344823967304 -0.25486175347985135 -0.27729863046614223 -0.62785344823967304 0.25524712869782185 0.30757177315688794 -0.11012236557332293 1.3791902606700153 -0.40210006153828415 -0.0083341173470229488 -0.89372825098010866 0.877429333442593 1.4394170441274685 1.1395786555353618 1.168670864375684 -0.17101728128518043 -0.23191219699703788 1.5620395923127266 -0.39219042929479753 -0.62785344823967304 -0.29280711270889531 0.09068377569756586 0.30600059431540022
decision_type=2 2 2 2 2 2 2 2 2 2 2 2 2 2 2 2 2 2 2 2 2 2 2 2 2 2 2 2 2 2
left_child=2 3 4 5 7 27 19 17 -3 11 -8 16 -9 -6 15 -5 -7 -1 -10 23 -15 -19 -11 26 -12 -16 -4 -2 -17 -13
right_child=1 8 6 14 13 9 10 12 18 22 24 29 -14 20 25 28 -18 21 -20 -21 -22 -23 -24 -25 -26 -27 -28 -29 -30 -31
leaf_value=-0.088276425696288546 0.027485365831208503 -0.066251765810433891 -0.087346125572919847 0.063643934690349166 0.052668888986301732 0.06487001234508423 -0.071017873784763624 -0.033594979717336756 -0.025143391227142681 0.041064478262680872 -0.0054405889803446931 0.023103836295824198 0.022313797470732508 -0.027717135839841586 0.10386303501203656 0.094766438648670542 0.12318500569806651 -0.030171834474149485 0.031301385567833982 -0.12314835451543332 0.024594521460433803 -0.072078112692192761 0.0011520659326012734 -0.10569225753347078 -0.064162710114665664 0.17646676522714122 -0.034856887634557028 -0.036350764108614791 0.14548683676027482 0.069291350338608032
leaf_weight=60 22 62 50 105 78 83 129 94 45 116 77 74 88 55 20 79 52 153 60 64 48 54 67 60 23 27 39 45 31 40
leaf_count=60 22 62 50 105 78 83 129 94 45 116 77 74 88 55 20 79 52 153 60 64 48 54 67 60 23 27 39 45 31 40
internal_value=8.36968e-11 0.0455182 -0.0394038 0.0599236 -0.0178336 0.0402419 -0.0701487 -0.0334063 -0.0201256 0.04887 -0.0482794 0.0653461 -0.00656216 0.0207971 0.0974088 0.0868802 0.0873321 -0.0517045 0.00711077 -0.0936608 -0.00333889 -0.0411039 0.0264517 -0.080995 -0.0189467 0.145572 -0.0643452 -0.0153896 0.10906 0.03931
internal_weight=2000 928 1072 761 630 499 442 449 167 432 229 249 182 181 262 215 135 267 105 213 103 207 183 149 100 47 89 67 110 114
internal_count=2000 928 1072 761 630 499 442 449 167 432 229 249 182 181 262 215 135 267 105 213 103 207 183 149 100 47 89 67 110 114
is_linear=0
shrinkage=0.1


Tree=4
num_leaves=31
num_cat=0
split_feature=0 2 6 2 0 6 7 3 0 0 7 6 3 1 5 0 6 5 8 2 3 0 4 4 2 1 1 9 5 1
split_gain=293.373 84.6014 52.63 42.0838 32.3407 32.202 20.9619 20.3299 17.1908 13.9896 13.7043 10.9587 10.7609 10.7243 10.4258 10.0809 9.22799 8.75126 8.61603 7.75374 7.18284 8.0085 7.04686 6.65446 6.51352 6.48127 5.66028 5.5103 5.3997 5.35185
threshold=-0.25153275281910659 0.39712538455277618 -0.61705011777203345 1.0000000180025095e-35 1.1283097970563041 -0.48011291773268167 -0.19153669358108619 0.094670222748336072 0.62654886982888203 0.50110863802202654 -0.039396258523404094 1.0768727595308956 0.094670222748336072 -0.40588824664335638 -0.23191219699703788 0.50110863802202654 0.83298203085233691 -0.23191219699703788 0.33212087819374769 1.6846621404979849 -0.26016569459924982 0.62654886982888203 0.75289768437433735 0.12317905747310783 1.7459734145906134 0.03660678422560646 -0.49922704221727887 -0.19373209947432299 0.98598611724011154 -0.55799591350456279
decision_type=2 2 2 2 2 2 2 2 2 2 2 2 2 2 2 2 2 2 2 2 2 2 2 2 2 2 2 2 2 2
left_child=3 2 9 6 7 20 18 16 24 12 27 -6 -2 -8 -15 -9 28 26 23 -12 21 -3 -16 -1 -7 -20 -11 -5 29 -4
right_child=1 5 4 10 11 8 13 15 -10 17 19 -13 -14 14 22 -17 -18 -19 25 -21 -22 -23 -24 -25 -26 -27 -28 -29 -30 -31
leaf_value=-0.090845342680360333 -0.051839890510130382 -0.10211375500704792 -0.00014148760586977005 -0.11336348383001199 0.089599179306296059 0.0026129589326781772 -0.042265782708923026 0.060057769623870008 0.035414198445195853 0.028109007546057302 -0.040319019844455108 0.15203776845806524 0.014182563477810077 0.031044120602226551 -0.029600033852222721 0.10804966823412823 0.061803186713502961 0.0066427321921764815 -0.058623152909179535 -0.089598796562140079 -0.011786804703297094 -0.039311474321617024 0.022354145761993197 -0.041610251741602704 -0.045116670089377531 -0.0011112117663372395 0.096098407685756684 -0.077152428661096617 0.00014299217828859885 0.050029000720210152
leaf_weight=66 52 37 30 76 108 73 75 134 141 24 124 38 47 77 95 65 78 64 36 43 32 45 36 47 47 43 25 94 75 73
leaf_count=66 52 37 30 76 108 73 75 134 141 24 124 38 47 77 95 65 78 64 36 43 32 45 36 47 47 43 25 94 75 73
internal_value=8.93735e-11 0.0316639 0.0497878 -0.046326 0.0648991 -0.00762864 -0.0271505 0.0517587 0.0117382 0.00694867 -0.0733539 0.10585 -0.0204959 -0.00984732 0.00184204 0.0757335 0.0331221 0.030993 -0.0526546 -0.0530078 -0.0519684 -0.0676491 -0.0153225 -0.070367 -0.0160811 -0.0273192 0.0627975 -0.0933409 0.0205539 0.0354162
internal_weight=2000 1188 813 812 601 375 475 455 261 212 337 146 99 283 208 199 256 113 192 167 114 82 131 113 120 79 49 170 178 103
internal_count=2000 1188 813 812 601 375 475 455 261 212 337 146 99 283 208 199 256 113 192 167 114 82 131 113 120 79 49 170 178 103
is_linear=0
shrinkage=0.1


Tree=5
num_leaves=31
num_cat=0
split_feature=0 2 2 0 6 6 6 0 9 6 2 6 5 5 2 5 2 0 3 5 4 5 5 7 5 8 7 0 3 13
split_gain=241.189 60.8677 47.6897 34.5664 29.0942 27.4947 18.1649 18.0286 12.484 12.3853 10.6128 9.55015 9.22513 8.74697 8.12303 7.87719 9.77067 7.27548 10.3464 6.79057 6.53655 6.38614 6.14616 6.13816 5.64947 5.31366 5.19295 5.11243 5.49981 4.54737
threshold=0.37566840621517095 -0.21598735637351338 1.010238125479066 -0.87873391185338412 0.47031238850644869 -0.15515032783016489 0.28891104652604516 -0.75329368004652864 -0.1122258941336176 -1.3957584561530509 -0.5838550009292871 -0.83087209251689897 1.1077759486638266 -0.47549185984446779 1.6233508664053558 -0.35370202842075277 -0.27729863046614223 -0.62785344823967304 0.44950614009592227 -1.0235461012511848 0.91540571712304153 1.838514937206116 -0.17101728128518043 -0.61245856390734377 0.072562381562249353 -0.81470535866311555 -0.18139399791057512 1.1283097970563041 -0.89887034582490455 0.25016619924900885
decision_type=2 2 2 2 2 2 2 2 2 2 2 2 2 2 2 2 2 2 2 2 2 2 2 2 2 2 2 2 2 2
left_child=1 3 4 11 9 17 12 -7 -4 -2 13 -1 23 -11 24 16 -6 25 -19 -13 -17 -8 -12 -5 -9 -3 -21 28 -15 -10
right_child=2 5 8 6 15 7 21 14 29 10 22 19 -14 27 -16 20 -18 18 -20 26 -22 -23 -24 -25 -26 -27 -28 -29 -30 -31
leaf_value=-0.073883207073929355 -0.0058520869484969549 -0.11155657706589535 -0.034472744459829605 -0.016360017254708276 0.1539857383930322 -0.056919151066359898 0.048762239062205982 0.010413165827922059 3.7290961766729554e-05 0.11210494181689096 0.046400623047606629 0.014715726078591413 -0.036650510558060241 0.0015413922759202811 -0.053235273023269004 0.05561199161678642 0.08164586743643118 -0.074640173041685062 -0.017243985343805474 -0.057244738229903683 0.10072508323937655 -0.010639026397395702 0.0086594217037126216 0.023612041277165461 -0.035247791502624748 -0.072106002208339168 -0.019768752749808424 0.08165358323603869 0.058442391447570866 0.044326421017335221
leaf_weight=49 49 58 72 62 33 141 131 120 49 34 110 36 63 26 35 84 43 99 46 58 52 21 71 101 35 83 102 44 49 44
leaf_count=49 49 58 72 62 33 141 131 120 49 34 110 36 63 26 35 84 43 99 46 58 52 21 71 101 35 83 102 44 49 44
internal_value=3.6768e-11 -0.0271869 0.0443576 -0.00513832 0.057549 -0.0494499 0.0138253 -0.0298276 -0.0032112 0.0410972 0.0479849 -0.0343964 -0.0041526 0.0673731 -0.00972278 0.0872708 0.113057 -0.0721597 -0.0564317 -0.0245247 0.0728611 0.0405555 0.0315961 0.00840795 0.000102627 -0.0883339 -0.0333538 0.0545925 0.0387167 0.0209913
internal_weight=2000 1240 760 623 595 617 378 331 165 383 334 245 226 153 190 212 76 286 145 196 136 152 181 163 155 141 160 119 75 93
internal_count=2000 1240 760 623 595 617 378 331 165 383 334 245 226 153 190 212 76 286 145 196 136 152 181 163 155 141 160 119 75 93
is_linear=0
shrinkage=0.1


Tree=6
num_leaves=31
num_cat=0
split_feature=0 2 6 8 6 1 0 0 3 3 7 5 1 5 8 6 2 7 0 2 0 4 5 4 6 8 1 0 9 0
split_gain=196.587 58.7828 33.4719 29.418 24.8217 21.5775 16.8577 13.926 12.879 12.5071 12.4847 11.0768 13.8355 9.14725 8.43996 7.60831 6.75799 6.42312 6.36245 5.96154 5.74108 5.70587 4.77526 4.382 4.31395 4.16758 3.94354 3.77283 3.75517 3.72855
threshold=-0.25153275281910659 0.090569014089631319 -0.27221979813022418 -0.33183115367075205 -0.48011291773268167 -0.40588824664335638 0.877429333442593 1.2537500288631598 0.16563740621785333 -0.61500161194683567 -0.11546647605224518 0.98598611724011154 -1.2217384598080077 -0.41459694413261033 1.2375100125544296 1.0768727595308956 1.3167944959422109 0.67059243841245098 0.50110863802202654 1.6846621404979849 -0.87873391185338412 0.5853112756022365 0.68151153868082404 0.21458982589425513 -0.67166974528280454 0.33212087819374769 0.98036571725081756 0.37566840621517095 -0.24806956970145996 0.62654886982888203
decision_type=2 2 2 2 2 2 2 2 2 2 2 2 2 2 2 2 2 2 2 2 2 2 2 2 2 2 2 2 2 2
left_child=3 2 11 10 16 24 9 8 25 -4 20 12 -2 -11 17 22 -3 -7 -14 21 -1 -12 -8 -13 -5 28 -16 -15 -6 -18
right_child=1 4 6 5 7 14 15 -9 -10 13 19 23 18 27 26 -17 29 -19 -20 -21 -22 -23 -24 -25 -26 -27 -28 -29 -30 -31
leaf_value=-0.091201231453201873 -0.024015928444599637 -0.017128562464670514 0.013485246211313074 -0.073648291146546072 -0.051289145162539379 -0.025765025892084643 0.091873182915151119 0.050462723641267304 0.036425319707093694 0.087758783935695084 -0.043547928533998546 -0.028204519804567098 0.021518978242363249 0.029911919353673089 0.0096335528696316394 0.12242152260785753 -0.085288909221849132 0.01401227477599274 0.062801255149533983 -0.074907392299756778 -0.054531953680882421 -0.00053134744410358729 0.051075477299925232 0.023133099565039512 -0.037830361058344933 0.017151523246807424 0.059772643198569619 0.065778706587375488 -0.011763258183496857 -0.036242840967832077
leaf_weight=112 38 83 82 57 31 155 64 79 77 74 116 60 70 78 62 44 31 55 80 41 69 42 52 23 82 37 21 47 107 31
leaf_count=112 38 83 82 57 31 155 64 79 77 74 116 60 70 78 62 44 31 55 80 41 69 42 52 23 82 37 21 47 107 31
internal_value=-8.61473e-13 0.0259198 0.0441076 -0.0379221 -0.00128545 -0.0200705 0.0611044 0.0138286 0.00234414 0.0463511 -0.0582166 0.0164488 0.029882 0.0598939 -0.00467713 0.0870147 -0.0357873 -0.0153472 0.0435362 -0.04093 -0.0772223 -0.0321131 0.0735846 -0.0139784 -0.0525183 -0.0126516 0.0223193 0.0433978 -0.0206423 -0.0607659
internal_weight=2000 1188 712 812 476 432 441 331 252 281 380 271 188 199 293 160 145 210 150 199 181 158 116 83 139 175 83 125 138 62
internal_count=2000 1188 712 812 476 432 441 331 252 281 380 271 188 199 293 160 145 210 150 199 181 158 116 83 139 175 83 125 138 62
is_linear=0
shrinkage=0.1


Tree=7
num_leaves=31
num_cat=0
split_feature=0 2 0 2 6 6 3 6 9 6 2 1 5 3 8 5 1 5 2 6 0 5 7 5 10 1 3 0 2 7
split_gain=163.211 44.1524 34.1082 33.5128 19.4116 17.8033 14.4552 13.7205 13.0723 10.0276 8.34119 8.1725 12.6446 7.22837 6.97509 6.70132 6.49605 6.26871 5.61101 5.46372 5.42938 5.36782 4.79849 4.27964 4.27604 4.04431 3.90559 5.12244 3.8479 3.75912
threshold=0.37566840621517095 0.64237048092329208 -0.75329368004652864 -0.27729863046614223 0.26101884778769874 0.57257836377621374 0.30757177315688794 0.83298203085233691 0.13229272188849847 -0.79195920305015111 1.1941719477569528 -0.37477531478538278 0.19435221298596428 -0.33113287806876707 1.2375100125544296 -0.29280711270889531 0.03660678422560646 -0.23191219699703788 -0.82910009729980294 1.4447792338496181 1.3791902606700153 -0.17101728128518043 -0.40960465049709932 0.80330137010453917 0.54040643859067994 -0.43354418607266665 -0.68596879541635303 1.3791902606700153 1.9299072368685002 0.73144861243552428
decision_type=2 2 2 2 2 2 2 2 2 2 2 2 2 2 2 2 2 2 2 2 2 2 2 2 2 2 2 2 2 2
left_child=1 2 9 7 10 6 18 11 28 -1 17 13 -13 20 19 -9 -16 -5 25 24 -2 -7 -8 -20 -11 -4 27 -6 -3 -10
right_child=3 8 5 4 26 21 22 15 29 14 -12 12 -14 -15 16 -17 -18 -19 23 -21 -22 -23 -24 -25 -26 -27 -28 -29 -30 -31
leaf_value=-0.064259529261883483 -0.0024453669666282592 -0.062797757188844325 -0.030559491359495691 0.031049152370542288 0.014831386651734219 0.051029193576243595 -0.0071549116471863313 0.14182188727638939 -0.041475418202268584 -0.026944771135032814 -0.026420042961835862 0.092148138563099669 0.034271562195072568 0.068550441088154918 -0.032912556640803815 0.077580838009054146 0.034236681014847233 -0.009314102338935237 -0.023356506384909156 0.01561070914718915 0.055378566902469506 0.014138756873772333 0.026485243285900323 -0.06112615084648132 -0.05458164814640494 0.020114151159537463 0.062226756822604402 0.061481144527594248 -0.094386919804157754 -0.00092527636423193188
leaf_weight=83 62 102 28 84 68 82 69 22 108 164 85 76 75 32 25 62 34 71 75 22 22 76 110 50 85 36 65 36 62 29
leaf_count=83 62 102 28 84 68 82 69 22 108 164 85 76 75 32 25 62 34 71 75 22 22 76 110 50 85 36 65 36 62 29
internal_value=-4.81479e-11 -0.0223643 -0.0116808 0.0364892 0.017036 0.00520727 -0.00684759 0.0591568 -0.0556928 -0.0331895 -0.00124532 0.0480672 0.0634015 0.0281063 -0.0253749 0.0944059 0.00578361 0.0125602 -0.0261355 -0.0321585 0.012699 0.0332844 0.0135178 -0.0384644 -0.036379 -0.00205557 0.0429976 0.0309794 -0.07474 -0.0328918
internal_weight=2000 1240 939 760 409 526 368 351 301 413 240 267 151 116 330 84 59 155 189 271 84 158 179 125 249 64 169 104 164 137
internal_count=2000 1240 939 760 409 526 368 351 301 413 240 267 151 116 330 84 59 155 189 271 84 158 179 125 249 64 169 104 164 137
is_linear=0
shrinkage=0.1


Tree=8
num_leaves=31
num_cat=0
split_feature=0 2 2 6 6 6 6 5 4 5 1 2 1 6 2 4 5 10 5 0 2 5 9 0 2 5 0 0 0 3
split_gain=134.556 35.3023 29.1212 19.9173 14.809 13.664 13.1438 10.4328 10.0798 8.82323 10.5247 8.79242 7.74578 7.37173 7.34989 7.09609 6.3141 6.01628 5.97681 5.21181 5.00391 4.54463 4.41149 4.30748 4.06122 4.60121 3.73522 3.67959 3.67254 5.73536
threshold=0.12478794260145983 -0.27729863046614223 -0.21598735637351338 0.29817802430562829 0.74079486447938958 0.57863285249343177 0.8250591194463377 -0.049227449861465496 -0.50146119340472262 0.98598611724011154 -0.39897426178602968 1.3167944959422109 0.12303159494220135 -1.3673070408450261 1.4394170441274685 0.016533160981771104 -0.35370202842075277 -0.43629894649644158 0.13345729727410682 -0.75329368004652864 1.4394170441274685 -0.53638677555632519 -0.43145853171804638 -0.62785344823967304 1.3781057700348398 1.0000000180025095e-35 0.50110863802202654 -1.0041741436602396 1.3791902606700153 -0.68596879541635303
decision_type=2 2 2 2 2 2 2 2 2 2 2 2 2 2 2 2 2 2 2 2 2 2 2 2 2 2 2 2 2 2
left_child=2 6 4 11 7 14 9 12 -9 10 17 13 23 -3 18 -11 -8 -2 19 -4 -7 -12 -13 -1 25 26 -5 -6 29 -15
right_child=1 3 5 24 27 20 16 8 -10 15 21 22 -14 28 -16 -17 -18 -19 -20 -21 -22 -23 -24 -25 -26 -27 -28 -29 -30 -31
leaf_value=-0.033840158276937225 -0.011652352510681077 -0.037296169568948885 -0.049633540873675004 0.021960817353799941 0.00073637616490790001 -0.0049035414105706053 0.11971690449221382 -0.057687351092257921 -0.015210937480927887 -0.0090936189916517064 0.091313245083885997 -0.055896668348993574 0.02856148387106848 -0.020580456436922155 -0.075391588283963099 0.042467512617654662 0.064451785793062308 0.042601204194749394 -0.064474878661083368 -0.016936178501381786 -0.04460481144487858 0.05352182082104974 -0.012684421891484549 0.0089825267835361208 0.011524109532391387 0.016084408967723247 0.066746549160309032 0.036013134573767716 0.039783997320365617 0.022769656691602188
leaf_weight=55 31 34 97 25 48 114 29 85 163 56 52 42 68 51 93 51 72 60 89 98 44 82 54 41 56 43 73 77 41 76
leaf_count=55 31 34 97 25 48 114 29 85 163 56 52 42 68 51 93 51 72 60 89 98 44 82 54 41 56 43 73 77 41 76
internal_value=3.78059e-11 0.0278779 -0.0241331 0.00963605 -0.00768193 -0.0406458 0.0487317 -0.016829 -0.0297694 0.0391221 0.0503641 -0.00667334 0.00273936 0.00516814 -0.0509917 0.0154822 0.08032 0.0241192 -0.0430016 -0.033201 -0.0159596 0.0681871 -0.0315898 -0.0155513 0.0343071 0.0433557 0.0553216 0.0224669 0.0137621 0.00536134
internal_weight=2000 928 1072 495 537 535 433 412 248 332 225 298 164 202 377 107 101 91 284 195 158 134 96 96 197 141 98 125 168 127
internal_count=2000 928 1072 495 537 535 433 412 248 332 225 298 164 202 377 107 101 91 284 195 158 134 96 96 197 141 98 125 168 127
is_linear=0
shrinkage=0.1


Tree=9
num_leaves=31
num_cat=0
split_feature=0 2 6 7 6 0 2 3 5 8 0 2 6 9 0 5 1 2 3 0 3 9 5 1 3 4 6 4 1 8
split_gain=110.587 37.2504 22.2697 18.1232 15.6813 11.1874 10.6095 10.0509 8.61111 8.12674 6.7081 6.16963 6.00526 5.8062 5.16862 5.13526 4.63904 4.47965 4.35294 4.23729 5.51024 3.80797 3.6781 3.63134 3.42689 3.29887 3.23398 2.97024 2.91682 4.88212
threshold=-0.25153275281910659 -0.5838550009292871 -0.6320536262939358 -0.16617995440480623 -0.43278549554213991 0.62654886982888203 0.64237048092329208 -0.26016569459924982 -0.41459694413261033 -0.87506463428716108 0.877429333442593 1.4394170441274685 1.2901138331298405 0.29530513256990937 -0.87873391185338412 -0.23191219699703788 1.141115865183683 -0.5838550009292871 0.6624076905044739 0.877429333442593 -0.047264144190698042 0.050786516547793058 -0.41459694413261033 -0.25378057978215013 0.30757177315688794 0.28060871419841577 1.2901138331298405 0.12317905747310783 -0.44737215578732176 0.09068377569756586
decision_type=2 2 2 2 2 2 2 2 2 2 2 2 2 2 2 2 2 2 2 2 2 2 2 2 2 2 2 2 2 2
left_child=3 4 11 9 13 7 14 26 16 -1 24 19 15 22 28 27 -6 23 -16 20 -3 -8 -2 -11 -10 -12 -4 -7 -5 -30
right_child=1 2 5 6 8 12 21 -9 10 17 25 -13 -14 -15 18 -17 -18 -19 -20 -21 -22 -23 -24 -25 -26 -27 -28 -29 29 -31
leaf_value=-0.068416530156025182 0.058902894526168148 -0.045426493812421406 -0.023311688998264486 -0.036452638329189671 0.071981877316625753 0.050385951587783279 -0.061307722695849158 0.020346003917690654 0.021591170208661685 -0.042458067044970543 0.047845990293555796 -0.052261855567106975 0.065746699187106322 -0.02491172511406519 -0.0076243627097316181 0.0071255972856009491 0.12913309305906295 -0.047238407208098347 0.02793685742424893 0.012449494427146048 0.00040857216763291878 -0.023746550829975673 0.016535744848935045 -0.0043751788806290397 0.058467701002438033 0.088876845808916319 0.019335494837945416 0.021617553920334424 -0.026601607508744192 0.0086000616513192667
leaf_weight=108 27 54 116 56 49 76 55 156 84 42 36 50 42 27 79 98 20 138 61 49 51 53 85 62 36 43 21 68 83 75
leaf_count=108 27 54 116 56 49 76 55 156 84 42 36 50 42 27 79 98 20 138 61 49 51 53 85 62 36 43 21 68 83 75
internal_value=1.09721e-11 0.0194405 0.00665762 -0.0284425 0.0439699 0.0166982 -0.0154393 0.0029893 0.0581061 -0.0456068 0.047551 -0.0217415 0.0308415 0.0167144 -0.00706908 0.0247836 0.0885474 -0.0354273 0.00787017 -0.0118323 -0.0231637 -0.0428749 0.0267493 -0.0197548 0.0326541 0.0701792 -0.0167745 0.0368009 -0.0168424 -0.00989195
internal_weight=2000 1188 781 812 407 577 462 293 268 350 199 204 284 139 354 242 69 242 140 154 105 108 112 104 120 79 137 144 214 158
internal_count=2000 1188 781 812 407 577 462 293 268 350 199 204 284 139 354 242 69 242 140 154 105 108 112 104 120 79 137 144 214 158
is_linear=0
shrinkage=0.1


Tree=10
num_leaves=31
num_cat=0
split_feature=0 2 2 6 0 6 5 3 0 1 0 1 8 9 4 8 4 3 6 3 9 0 2 5 7 0 3 25 8 5
split_gain=91.3941 26.2489 20.0826 14.8223 13.7639 12.589 8.74784 7.99079 15.0312 7.36551 7.28544 6.16313 5.90719 5.75294 5.08111 4.99708 4.91723 4.25208 4.18768 4.18481 4.14413 3.76472 3.53851 3.11443 3.0625 2.80018 4.51801 2.68937 2.50577 2.41888
threshold=0.37566840621517095 -0.21598735637351338 1.1941719477569528 1.0768727595308956 -0.37697298462596213 -0.15515032783016489 0.55972170725710935 -0.33113287806876707 1.1283097970563041 -0.40588824664335638 -0.75329368004652864 -0.36267584128505942 0.39248015381779311 0.51944719725684851 0.16888444168368141 -0.090394051174570333 0.05208179314555076 0.23660458968737058 -1.3673070408450261 0.87530924091302564 -1.3416111580225902 1.3791902606700153 -0.5838550009292871 -0.77996643840375512 -0.15096591089903733 -0.62785344823967304 0.44950614009592227 0.44085717434664701 -0.45254970491884294 1.0000000180025095e-35
decision_type=2 2 2 2 2 2 2 2 2 2 2 2 2 2 2 2 2 2 2 2 2 2 2 2 2 2 2 2 2 2
left_child=1 4 3 7 9 20 11 8 18 -1 28 19 14 -4 -11 -9 -8 -12 -2 -6 -3 27 -10 -13 -14 -22 -27 -5 -7 -24
right_child=2 5 13 21 6 10 16 15 22 12 17 23 24 -15 -16 -17 -18 -19 -20 -21 25 -23 29 -25 -26 26 -28 -29 -30 -31
leaf_value=-0.035249597072883478 -0.044316261110916022 -0.072561765958865487 -0.021174799894636616 0.071977932918436668 -0.023121175106747875 -0.045802353487360753 -0.026938744108857854 0.031840172931377857 0.056209477060155513 -0.038570858924889338 -0.017511907173320653 0.077081300100932518 -0.0088579550821413396 0.02263730316137133 0.0011807395986922573 0.066204202239002502 0.016678927403700073 0.013024512358549001 0.0035060898991874779 0.032593428753674603 -0.052170794185026195 0.10198528314078298 0.03997799602439045 0.035625895978945839 0.023869950838119099 -0.043941889046691357 -0.0024302740885804482 0.031671595769003039 -0.018378797402881362 0.0093107468332163986
leaf_weight=118 21 51 94 49 28 87 56 107 73 68 114 24 47 44 61 70 48 76 143 26 116 27 64 74 73 80 39 25 54 43
leaf_count=118 21 51 94 49 28 87 56 107 73 68 114 24 47 44 61 70 48 76 143 26 116 27 64 74 73 80 39 25 54 43
internal_value=9.76695e-11 -0.0167356 0.0273054 0.0349622 -0.00225641 -0.0313555 0.0155403 0.0281654 0.0192819 -0.0146705 -0.0180778 0.0308309 -0.00491812 -0.00720572 -0.0197736 0.0454305 -0.00680751 -0.00529734 -0.0026175 0.00370437 -0.0467224 0.0700229 0.0392347 0.0457782 0.0110515 -0.0411147 -0.0303372 0.0583609 -0.0352997 0.0276538
internal_weight=2000 1240 760 622 623 617 256 521 344 367 331 152 249 138 129 177 104 190 164 54 286 101 180 98 120 235 119 74 141 107
internal_count=2000 1240 760 622 623 617 256 521 344 367 331 152 249 138 129 177 104 190 164 54 286 101 180 98 120 235 119 74 141 107
is_linear=0
shrinkage=0.1


Tree=11
num_leaves=31
num_cat=0
split_feature=0 2 2 0 6 6 3 9 5 4 7 1 9 2 3 1 8 0 8 1 4 7 13 2 0 9 0 7 2 3
split_gain=74.0293 21.7055 16.4791 16.4489 10.9183 10.8178 10.486 8.24707 6.94077 7.87814 6.43944 6.10118 6.01937 5.25331 4.98042 4.50972 7.39386 4.44004 3.92059 4.51398 4.26022 3.50149 3.44236 3.34117 2.84131 2.79552 2.71956 2.68285 2.584 2.33954
threshold=0.37566840621517095 0.64237048092329208 0.70368175501592101 -0.87873391185338412 0.93179756716627971 1.0768727595308956 0.30757177315688794 -0.4790038181667905 0.98598611724011154 0.42788161887692849 -1.2311629998085873 -0.38687478828570626 -0.25486175347985135 -0.64516627502191604 -0.33113287806876707 -0.59947982264852817 0.03032450007352035 1.3791902606700153 0.15104305132161133 -0.51996899678926156 -0.3491099127028135 -0.55160238988427035 0.16321060683089603 -0.5838550009292871 0.75198910163573751 0.75038144572218213 1.3791902606700153 0.84301826481115871 -0.5838550009292871 -0.75693597888587016
decision_type=2 2 2 2 2 2 2 2 2 2 2 2 2 2 2 2 2 2 2 2 2 2 2 2 2 2 2 2 2 2
left_child=1 3 5 10 6 8 15 27 11 28 -1 14 -4 -13 17 -5 -17 -2 20 -20 -12 -8 29 -23 -15 -9 -7 -3 -10 -14
right_child=2 7 12 4 -6 26 21 25 9 -11 18 13 22 24 -16 16 -18 -19 19 -21 -22 23 -24 -25 -26 -27 -28 -29 -30 -31
leaf_value=-0.062326353157942119 -0.013910225662842113 -0.073809954207112546 -0.02173638245562631 -0.040410656256795824 0.032275322084980351 0.053942669999923969 -0.0059886638023032759 -0.036010582535527649 0.0026876610619200499 0.04175454825162888 -0.050288480840390552 0.066141940983413139 -0.015666861339575715 0.016206235611303285 0.043789260176827716 -0.033240842065225318 0.0095890154492937873 0.033734457786645626 -0.034131030280618591 0.0027456442565879729 -0.017839272871735212 0.038440491198027726 0.029051059740932958 0.0083876055553852719 0.047088679783046247 -0.011826928021587633 0.091786754848780461 -0.035422871828079225 -0.034039449918394291 0.025438723079132614
leaf_weight=39 53 67 76 67 105 64 76 135 53 44 64 79 45 55 49 73 90 31 47 113 110 61 69 94 65 74 27 25 30 20
leaf_count=39 53 67 76 67 105 64 76 135 53 44 64 79 45 55 49 73 90 31 47 113 110 61 69 94 65 74 27 25 30 20
internal_value=5.94213e-11 -0.015062 0.0245748 -0.00757127 0.00317313 0.0336737 -0.00345535 -0.0384301 0.0274292 0.00754695 -0.0238751 0.0350347 0.000744399 0.0461172 0.0184526 -0.0185699 -0.00959245 0.00367293 -0.0193853 -0.00808688 -0.0297746 0.0115938 0.0134947 0.0202149 0.0329342 -0.0274479 0.0651711 -0.0633787 -0.0105872 -0.00301899
internal_weight=2000 1240 760 939 566 550 461 301 459 127 373 332 210 199 133 230 163 84 334 160 174 231 134 155 120 209 91 92 83 65
internal_count=2000 1240 760 939 566 550 461 301 459 127 373 332 210 199 133 230 163 84 334 160 174 231 134 155 120 209 91 92 83 65
is_linear=0
shrinkage=0.1


Tree=12
num_leaves=31
num_cat=0
split_feature=0 6 2 7 6 3 0 5 0 8 0 3 2 1 1 8 8 5 3 9 4 6 2 6 4 2 5 6 11 6
split_gain=62.435 24.9851 18.1426 10.9268 7.36052 7.06456 10.8859 6.99167 5.51909 5.47562 5.4306 6.80162 5.42693 4.1218 3.58861 3.55274 3.00846 2.79193 2.67332 2.6467 2.64422 2.60368 2.55333 2.39421 2.36235 2.31494 3.57979 2.23104 2.13484 1.98353
threshold=-0.37697298462596213 -0.6320536262939358 -0.5838550009292871 -0.15096591089903733 0.8250591194463377 -0.26016569459924982 1.2537500288631598 -0.41459694413261033 0.877429333442593 -0.87506463428716108 1.2537500288631598 1.0000000180025095e-35 -0.27729863046614223 -0.32983441321275403 1.141115865183683 -0.21111260242266122 1.0000000180025095e-35 0.55972170725710935 0.59144050703495676 0.34964260279704623 0.91540571712304153 0.99317193581390562 1.0715493995716947 -0.79195920305015111 0.42788161887692849 1.5620395923127266 -0.17101728128518043 -1.3383423831820283 -0.87664784455317191 -1.8982126151592744
decision_type=2 2 2 2 2 2 2 2 2 2 2 2 2 2 2 2 2 2 2 2 2 2 2 2 2 2 2 2 2 2
left_child=3 5 7 9 10 6 29 14 18 28 11 15 13 -5 -3 -4 -7 -15 19 -9 -10 22 -14 -11 -19 26 -6 -8 -1 -2
right_child=1 2 4 12 25 16 27 8 20 23 -12 -13 21 17 -16 -17 -18 24 -20 -21 -22 -23 -24 -25 -26 -27 -28 -29 -30 -31
leaf_value=-0.081147537589073185 -0.06251594889909029 0.054664206303852172 -0.023800910798538674 -0.020531812234019692 0.049283848323121472 -0.0019908345569828747 -0.0060417605736465367 0.026156541312189953 0.043178816676619602 -0.043081731550129398 0.027321905771143153 0.017081469402970621 -0.022118121904461108 0.022676443886943162 0.10389721378684046 0.001822727293824976 0.03161796415463472 -0.024486867076484488 0.045418467155347274 -0.0044691364478279391 0.083919392739023491 -0.0053139663658415279 -0.050581788110037787 -0.020636217199372933 0.018081122117159381 0.0066123133374227068 0.01741467235180048 0.033277503947817512 -0.047669306366005915 -0.031066729405467387
leaf_weight=25 24 57 114 66 77 84 27 73 66 70 86 133 118 75 20 103 39 32 36 46 21 60 43 148 22 37 65 31 80 122
leaf_count=25 24 57 114 66 77 84 27 73 66 70 86 133 118 75 20 103 39 32 36 46 21 60 43 148 22 37 65 31 80 122
internal_value=7.76286e-11 0.0135258 0.0218547 -0.0230799 0.0118169 -0.0102635 -0.0216767 0.0412063 0.0328555 -0.0368796 0.00480724 -0.000724936 -0.0123653 -0.000205956 0.067452 -0.0116385 0.00866561 0.0101933 0.0215414 0.014318 0.0530127 -0.0230941 -0.0297202 -0.0278435 -0.00714435 0.0288909 0.0346958 0.0149737 -0.0556403 -0.0362365
internal_weight=2000 1261 934 739 615 327 204 319 242 323 436 350 416 195 77 217 123 129 155 119 87 221 161 218 54 179 142 58 105 146
internal_count=2000 1261 934 739 615 327 204 319 242 323 436 350 416 195 77 217 123 129 155 119 87 221 161 218 54 179 142 58 105 146
is_linear=0
shrinkage=0.1


Tree=13
num_leaves=31
num_cat=0
split_feature=0 6 2 6 8 2 1 1 5 0 3 5 0 3 7 4 11 4 7 9 1 10 8 8 0 8 3 0 0 1
split_gain=51.3018 18.1234 11.8757 10.5846 8.72129 8.1516 5.69798 5.09376 5.47832 4.41086 7.44264 4.01922 3.1685 3.78074 3.13637 3.10481 2.81013 2.74983 2.67324 2.50203 2.47902 2.44772 2.39981 2.36461 2.30355 2.28768 2.23633 3.24148 1.97239 1.8216
threshold=-0.12609252101225107 0.26101884778769874 -0.15467608228088447 -0.79195920305015111 -0.33183115367075205 -0.5838550009292871 0.98036571725081756 -1.636577551247661 -0.41459694413261033 1.2537500288631598 -0.68596879541635303 -0.35370202842075277 1.2537500288631598 -0.47306724500780123 0.31559808994452448 0.28060871419841577 -0.85602965756909999 0.60562477969582462 0.67059243841245098 -1.0223785204381597 -0.13624283720758237 -0.10110777164716699 1.0564321856822929 -0.69398680741502472 1.0028695652494488 0.6942765319380203 0.23660458968737058 -0.87873391185338412 0.50110863802202654 1.0149356415374562
decision_type=2 2 2 2 2 2 2 2 2 2 2 2 2 2 2 2 2 2 2 2 2 2 2 2 2 2 2 2 2 2
left_child=3 2 7 21 14 11 18 -2 20 10 -4 29 13 25 -5 -13 19 26 -6 -10 -9 -1 -8 -23 -18 -7 -16 -28 -15 -3
right_child=1 5 9 4 6 12 22 8 16 -11 -12 15 -14 28 17 -17 24 -19 -20 -21 -22 23 -24 -25 -26 -27 27 -29 -30 -31
leaf_value=-0.031689507248919717 -0.022324958452954888 0.055187358760105623 -0.034958672730637519 -0.03273424158728213 -0.013393935886353979 -0.0070175980933283163 0.010421712544941626 0.027171062520344038 0.020156410951977191 0.01136313143620038 0.0001453536493326759 0.016898575179824016 0.039912521655742939 0.015732215416750739 -0.045109152148167297 0.051739074347321605 0.010784221558006353 0.0077459918647284874 0.006917947735496705 -0.021631937132118959 0.061204812028690395 -0.084331477433443075 0.049893420872588953 -0.04099812364780947 0.036856225837825565 0.02487202648433947 -0.027065387978127194 0.017501409942633474 0.04091124030362283 0.096886277347803126
leaf_weight=129 30 22 116 185 225 82 43 49 23 73 126 41 65 70 30 68 101 44 91 38 38 20 24 34 51 31 51 24 56 20
leaf_count=129 30 22 116 185 225 82 43 49 23 73 126 41 65 70 30 68 101 44 91 38 38 20 24 34 51 31 51 24 56 20
internal_value=-1.12701e-11 0.0144869 0.00370619 -0.0177063 -0.0122275 0.0297695 -0.00192827 0.0169633 0.0208921 -0.0101822 -0.0166814 0.0487612 0.0203361 0.015012 -0.0240377 0.0386339 0.0122557 -0.0132399 -0.00754463 -0.00587567 0.0420364 -0.0391722 0.0245608 -0.0570475 0.0195321 0.00173088 -0.0220341 -0.012804 0.0269229 0.075044
internal_weight=2000 1100 645 900 717 455 383 330 300 315 242 151 304 239 334 109 213 149 316 61 87 183 67 54 152 113 105 75 126 42
internal_count=2000 1100 645 900 717 455 383 330 300 315 242 151 304 239 334 109 213 149 316 61 87 183 67 54 152 113 105 75 126 42
is_linear=0
shrinkage=0.1


Tree=14
num_leaves=31
num_cat=0
split_feature=0 2 2 7 6 6 2 5 4 5 1 6 5 9 4 0 9 0 2 10 1 3 3 1 3 1 8 8 0 4
split_gain=42.8823 14.0535 10.5142 8.33553 7.42752 6.9083 5.28412 4.75003 5.5176 4.41783 3.99549 3.71647 3.55199 3.51472 3.45025 3.44915 3.27987 3.12129 3.01517 2.83486 2.79401 2.44894 2.41031 2.21585 2.09303 2.00705 1.95691 1.95012 1.90521 1.85679
threshold=0.37566840621517095 -0.21598735637351338 1.1941719477569528 0.30545539427401119 -0.21944047688145357 1.0905220477460509 1.4394170441274685 0.13345729727410682 -0.54716657761529641 0.13345729727410682 -0.90369515637094078 1.7963343205633784 0.80330137010453917 0.26813639745634088 0.40248973875994404 -0.37697298462596213 -0.4790038181667905 -0.87873391185338412 -0.5838550009292871 -0.30425393822248464 0.67615038352840551 -0.26016569459924982 -0.26016569459924982 -0.063645996205643388 0.6624076905044739 0.54824166366784521 -0.93542390991120661 0.57355798068992969 1.0028695652494488 -0.38973692088998962
decision_type=2 2 2 2 2 2 2 2 2 2 2 2 2 2 2 2 2 2 2 2 2 2 2 2 2 2 2 2 2 2
left_child=1 3 4 7 19 6 9 10 -9 17 -1 12 18 -4 -14 23 -8 -3 20 22 -6 -17 28 -5 -19 -12 -25 -21 -2 -11
right_child=2 5 13 15 11 -7 16 8 -10 29 25 -13 14 -15 -16 21 -18 24 -20 27 -22 -23 -24 26 -26 -27 -28 -29 -30 -31
leaf_value=-0.03127813598397991 -0.023280554533832605 -0.027254221721419267 -0.021770217554958563 -0.010255213073389769 0.039704443586191962 0.0052537223702529452 -0.063971489698302991 -0.046006852189489342 -0.010041987046587294 -0.050052892586047004 0.00066232279743417167 0.069274796316256895 -0.0060211035767165216 0.01016121170580832 0.031248056474874764 0.0066509595347775362 -0.031624044168569232 -0.015888842686874103 0.028003228777485741 0.011336798327476054 0.077572169789561524 0.039074927969186601 0.023222626448841766 -0.007919695980846882 0.0059439896375850024 0.025814038077939527 0.026233982645413458 0.038394205038284147 0.0058185956151121203 -0.025087786091921423
leaf_weight=29 45 105 71 64 70 80 49 59 154 55 90 26 46 67 54 36 87 92 164 70 27 66 32 25 84 49 51 43 45 65
leaf_count=29 45 105 71 64 70 80 49 59 154 55 90 26 46 67 54 36 87 92 164 70 27 66 32 25 84 49 51 43 45 65
internal_value=5.97171e-11 -0.0114636 0.0187037 -0.000869105 0.0242439 -0.0221611 -0.0262452 -0.0100878 -0.0200041 -0.0204683 0.00248471 0.0327593 0.0301294 -0.00626728 0.0141042 0.0136446 -0.0432786 -0.0136092 0.0362693 0.0102207 0.0502449 0.0276312 -0.000349706 0.00345434 -0.00546863 0.00952875 0.0149992 0.021633 -0.00873098 -0.0365301
internal_weight=2000 1240 760 623 622 617 537 381 213 401 168 387 361 138 100 242 136 281 261 235 97 102 122 140 176 139 76 113 90 120
internal_count=2000 1240 760 623 622 617 537 381 213 401 168 387 361 138 100 242 136 281 261 235 97 102 122 140 176 139 76 113 90 120
is_linear=0
shrinkage=0.1


Tree=15
num_leaves=31
num_cat=0
split_feature=0 6 2 7 2 0 3 0 3 8 1 2 0 3 2 1 7 10 6 1 8 7 1 5 4 4 5 4 9 9
split_gain=35.659 15.1092 10.6106 7.00014 4.83362 4.63761 7.32444 4.39982 3.87451 3.67032 3.73707 3.60527 3.5499 5.18378 3.395 2.46256 2.45185 2.3115 2.17368 2.13833 2.10813 2.0953 1.87771 1.81512 1.81031 1.66221 1.55902 1.66751 1.50142 1.48687
threshold=-0.37697298462596213 -0.6320536262939358 -0.5838550009292871 -0.15096591089903733 0.58105920683066326 1.1283097970563041 1.0000000180025095e-35 1.0028695652494488 0.16563740621785333 0.09068377569756586 0.51367173938120825 1.1328606736643239 0.75198910163573751 -0.54403442847731853 -0.46123245274402919 0.63812346681310361 -0.46031812884965934 -0.96982493134425118 -0.79195920305015111 0.90776887624887836 0.09068377569756586 0.6858064819182198 -0.81381335322568249 -0.6581766069800401 -0.35418828872620989 -0.84171238697232298 -0.96265118553932749 0.036846665075359157 1.0016922455226898 -1.4061369039173142
decision_type=2 2 2 2 2 2 2 2 2 2 2 2 2 2 2 2 2 2 2 2 2 2 2 2 2 2 2 2 2 2
left_child=3 4 7 14 12 6 9 8 25 -4 -11 15 13 24 22 -5 -10 -7 -16 28 -17 -8 -1 -24 -2 -3 27 -19 -9 -6
right_child=1 2 5 11 29 17 21 19 16 10 -12 -13 -14 -15 18 20 -18 26 -20 -21 -22 -23 23 -25 -26 -27 -28 -29 -30 -31
leaf_value=-0.039134447906037859 -0.058293245400747533 -0.010970361919801993 -0.015436870882652526 -0.010240120001702309 -0.051084511727094654 -0.0080579499248415228 0.012451271574886501 0.050619850589040054 0.012457555264234544 -0.0074832300283014771 0.031409246953470367 -0.031111089750042849 0.015214683340904726 0.0020936474879950429 -0.053549320302319542 -0.0066528339827509261 0.048940478260628882 0.063394827785139732 -0.030100437092356561 0.07551650298604122 0.022254604326847657 0.035912827764534291 0.010921839502607954 -0.018329927384156345 -0.0176836381710711 0.018148965994875321 0.021333224810755901 0.023498531100340187 0.018561157584190368 -0.020795075758032397
leaf_weight=29 23 24 171 253 21 20 129 48 25 60 42 62 88 103 57 49 70 22 129 24 52 54 29 79 21 107 97 20 21 71
leaf_count=29 23 24 171 253 21 20 129 48 25 60 42 62 88 103 57 49 70 22 129 24 52 54 29 79 21 107 97 20 21 71
internal_value=3.89846e-12 0.010222 0.0166988 -0.0174423 -0.00827764 0.00902247 0.00389473 0.031498 0.0239643 -0.00648172 0.00853132 -0.00886632 -0.000670482 -0.01018 -0.0284876 -0.00497034 0.0393397 0.0237284 -0.0372864 0.0498057 0.0082302 0.0193744 -0.0165418 -0.0104753 -0.0389114 0.0128141 0.028302 0.0443966 0.0408629 -0.027709
internal_weight=2000 1261 934 739 327 615 456 319 226 273 102 416 235 147 323 354 95 159 186 93 101 183 137 108 44 131 139 42 69 92
internal_count=2000 1261 934 739 327 615 456 319 226 273 102 416 235 147 323 354 95 159 186 93 101 183 137 108 44 131 139 42 69 92
is_linear=0
shrinkage=0.1


Tree=16
num_leaves=31
num_cat=0
split_feature=0 6 8 3 0 0 3 10 6 6 2 7 7 8 1 3 0 0 6 7 2 2 4 8 0 3 3 1 2 3
split_gain=29.7141 10.8488 8.87657 8.25654 9.74128 5.32215 4.62683 4.58564 3.34584 3.16426 2.88324 2.88088 2.74045 2.45223 3.2542 2.44185 4.39766 2.4395 2.32683 2.25063 2.20906 2.18824 2.01312 1.84274 1.73544 1.93029 1.53101 1.34676 1.28335 1.26109
threshold=0.50110863802202654 -0.77799420898607718 -0.69398680741502472 -0.68596879541635303 1.2537500288631598 -0.37697298462596213 -0.68596879541635303 0.079050802394629124 -1.9790772549444033 -0.9873789656978903 0.88761557729380802 -0.22196478059262398 0.71116322109449992 0.39248015381779311 0.13340257222819227 -0.11823132766021528 -1.0041741436602396 1.6300707242837265 1.3846117071102613 0.2877056768506156 -0.70647754911454508 -0.39992117865140026 1.1286975101057151 -0.57326825616693389 -0.25153275281910659 0.52047332356543941 -1.3956406301115247 0.79195962988864144 -1.0130339195776898 0.30757177315688794
decision_type=2 2 2 2 2 2 2 2 2 2 2 2 2 2 2 2 2 2 2 2 2 2 2 2 2 2 2 2 2 2
left_child=1 8 15 4 9 12 -7 21 -1 -2 24 28 20 -11 -15 -3 22 26 23 -8 27 -6 -17 -13 -10 -26 -9 -4 -5 -18
right_child=3 2 5 11 7 6 19 17 10 13 -12 18 -14 14 -16 16 29 -19 -20 -21 -22 -23 -24 -25 25 -27 -28 -29 -30 -31
leaf_value=-0.056896613033548482 -0.034996260293392527 -0.035927202401019757 -0.0056733929236591069 0.038336846046149731 0.028400624502541091 -0.0071508369462278025 0.010852859296652383 0.0069563647159017056 -0.024523960608476364 -0.0097276360258272219 -0.041756614779346973 0.022261513993444462 0.0083237232025847058 -0.0040322651532856196 0.042671019893139601 -0.032020549441433767 -0.015427042171359063 0.05497837668657303 0.070721249991939183 0.030864393122193187 -0.017410014744231109 -0.00054140507062483173 0.0024695698567666117 0.045706074929808917 -0.019678878736601253 0.010357754968572408 0.042375338498664941 0.020693080485440218 0.011248527643309065 0.0051468707981144959
leaf_weight=31 33 59 76 23 41 91 130 26 114 119 58 62 104 37 25 110 43 50 21 99 178 72 20 73 46 40 23 26 73 97
leaf_count=31 33 59 76 23 41 91 130 26 114 119 58 62 104 37 25 110 43 50 21 99 178 72 20 73 46 40 23 26 73 97
internal_value=3.89733e-11 -0.00872903 -0.00393751 0.0170203 0.00853281 0.0023995 0.0119241 0.0237258 -0.0258558 -0.00651815 -0.0221261 0.0313682 -0.00553769 -0.00132601 0.0147997 -0.0174975 -0.0134703 0.0394386 0.0397558 0.0195041 -0.0106862 0.00995969 -0.0267144 0.0349389 -0.0164332 -0.00570835 0.0235816 0.00104747 0.0177384 -0.00117226
internal_weight=2000 1322 1033 678 426 704 320 212 289 214 258 252 384 181 62 329 270 99 156 229 280 113 130 135 200 86 49 102 96 140
internal_count=2000 1322 1033 678 426 704 320 212 289 214 258 252 384 181 62 329 270 99 156 229 280 113 130 135 200 86 49 102 96 140
is_linear=0
shrinkage=0.1


Tree=17
num_leaves=31
num_cat=0
split_feature=0 2 6 2 13 9 1 5 6 4 5 1 9 4 0 5 2 3 10 9 10 0 2 10 10 31 7 2 2 0
split_gain=24.0685 9.38321 7.65004 6.89017 4.60508 4.5617 4.00293 4.57954 3.67434 3.64275 3.1319 3.98312 2.99912 2.75534 2.73308 2.53256 2.4578 2.4241 1.99586 1.96588 1.90259 1.94329 1.65576 1.58777 1.56703 1.36124 1.29863 1.2934 1.28622 1.26563
threshold=0.50110863802202654 1.0715493995716947 -0.15515032783016489 0.27450283636751821 -0.78689730987776108 0.13229272188849847 -1.612378604247015 0.13345729727410682 1.2245634288375393 -0.75537999457457439 -0.41459694413261033 -0.21575366306684965 -0.22769301836628289 0.40248973875994404 -0.75329368004652864 1.7167251057824011 -0.46123245274402919 0.30757177315688794 -0.11019588962553614 0.35643478657543765 0.44364471187980498 1.2537500288631598 -0.64516627502191604 -0.14387538566302341 0.087069730022601557 -0.72596310740177572 -0.58710182473106254 -0.64516627502191604 -0.39992117865140026 -0.87873391185338412
decision_type=2 2 2 2 2 2 2 2 2 2 2 2 2 2 2 2 2 2 2 2 2 2 2 2 2 2 2 2 2 2
left_child=1 2 6 4 23 29 -1 16 14 -9 11 -6 -5 15 18 -12 -8 19 -4 28 -14 -22 -19 -2 -15 -20 -18 -11 -16 -3
right_child=3 5 8 12 10 -7 7 9 -10 27 13 -13 20 24 17 -17 26 22 25 -21 21 -23 -24 -25 -26 -27 -28 -29 -30 -31
leaf_value=-0.039837716273762584 -0.0085612288983714473 -0.052149167778540631 0.0032947800920477936 -0.012375051862141885 0.016523800226859748 -0.010726338940225922 0.011342574969845981 -0.040331522863947186 0.020647407591555412 -0.002670486961675047 0.020268111783079804 0.055881048749304489 0.0026188161250736033 0.018677642134949567 0.020625473136225574 -0.011983356885612011 -0.020702102914219724 0.030919822875099881 0.0064821293577551845 -0.015364234071624067 0.010348653492110317 0.049497767892621815 0.0080255211889414327 0.020228295630464951 0.041926573408578617 -0.022096599145035728 -0.0016952341281031968 -0.022613836905608576 -0.0040608436152662925 -0.031314762531676227
leaf_weight=51 53 49 77 91 40 98 96 68 103 71 80 72 105 50 39 35 59 45 20 70 32 21 106 30 69 100 92 60 46 72
leaf_count=51 53 49 77 91 40 98 96 68 103 71 80 72 105 50 39 35 59 45 20 70 32 21 106 30 69 100 92 60 46 72
internal_value=1.08208e-11 -0.00785612 -0.00410212 0.0153183 0.0229985 -0.0267633 -0.0132982 -0.0102634 0.00343987 -0.0215527 0.0280729 0.0418249 0.00208617 0.0214908 -8.3745e-05 0.0104524 -0.00116801 0.0058307 -0.00927066 -0.0029542 0.0104151 0.0258606 0.0148483 0.00184462 0.0321581 -0.0173335 -0.00912176 -0.0118048 0.00726582 -0.0397518
internal_weight=2000 1322 1103 678 429 219 497 446 606 199 346 112 249 234 503 115 247 306 197 155 158 53 151 83 119 120 151 131 85 121
internal_count=2000 1322 1103 678 429 219 497 446 606 199 346 112 249 234 503 115 247 306 197 155 158 53 151 83 119 120 151 131 85 121
is_linear=0
shrinkage=0.1


Tree=18
num_leaves=31
num_cat=0
split_feature=0 6 2 7 0 3 0 3 6 8 1 1 5 8 3 0 3 9 7 3 2 13 8 2 5 10 8 0 4 4
split_gain=20.3509 9.22672 7.34223 4.55758 4.41466 6.68797 2.90645 3.04692 2.70672 2.67591 2.76019 2.66849 2.53216 2.41548 2.36791 3.81439 2.27701 2.27367 2.00276 1.76427 1.79795 1.68885 1.28569 1.23212 1.17224 1.17162 1.16036 1.14402 1.13386 1.07315
threshold=-0.37697298462596213 0.8250591194463377 1.4394170441274685 -0.15096591089903733 0.75198910163573751 -0.047264144190698042 1.3791902606700153 0.23660458968737058 -1.3673070408450261 0.27176160256970222 0.98036571725081756 -0.44737215578732176 0.3770369601215367 -0.87506463428716108 0.52047332356543941 -1.1296143754670951 -0.89887034582490455 -0.023927505014519294 -0.38424791132081831 -0.89887034582490455 -1.0130339195776898 0.76451596345857353 -0.45254970491884294 -0.5838550009292871 -0.77996643840375512 0.62059571487041099 -0.45254970491884294 1.6300707242837265 -0.64873409808323657 1.3419893030883909
decision_type=2 2 2 2 2 2 2 2 2 2 2 2 2 2 2 2 2 2 2 2 2 2 2 2 2 2 2 2 2 2
left_child=3 2 4 13 5 8 7 9 -2 29 -11 16 -13 28 26 21 27 -4 -7 -10 -21 -16 -22 -15 -20 -8 -5 -6 -1 -3
right_child=1 6 17 14 11 18 25 -9 19 10 -12 12 -14 23 15 -17 -18 -19 24 20 22 -23 -24 -25 -26 -27 -28 -29 -30 -31
leaf_value=-0.047796466797590254 -0.040287132321723873 -0.0023469086682390691 -0.029116809655291339 -0.034014133010059594 -0.0098159268176199743 0.00092935688209343855 0.031853138944943959 0.038600355356962227 -0.02097121365905668 0.011564857412840386 0.053849338682798245 0.033086607026001601 0.0084739985606795409 -0.0076125302707320472 -0.013996922051601191 0.016073747587032877 0.023106637686491016 -0.0041966554696125022 0.031423125092871484 0.019777575560146945 -0.0204741820439019 0.0056266809456671282 0.0011665818865143069 -0.022756507132893247 0.013129988730622408 0.064522910721245261 -0.01181742833642703 0.015104767307639122 -0.026397749913426544 0.022032198186396904
leaf_weight=40 28 84 78 35 70 104 23 61 65 38 26 114 66 96 163 86 50 69 50 32 44 60 73 122 117 21 72 25 65 23
leaf_count=40 28 84 78 35 70 104 23 61 65 38 26 114 66 96 163 86 50 69 50 32 44 60 73 122 117 21 72 25 65 23
internal_value=2.09853e-11 0.00772222 0.00319426 -0.0131769 0.00681029 0.00103319 0.0238818 0.0194128 -0.0110495 0.0125681 0.0287429 0.0159292 0.024062 -0.0220892 -0.00625698 -0.00181733 0.00583335 -0.0174196 0.0118229 -0.00722407 -0.00122699 -0.00871703 -0.00697183 -0.0160876 0.018607 0.0474455 -0.019078 -0.00325785 -0.0345496 0.00289346
internal_weight=2000 1261 985 739 838 513 276 232 242 171 64 325 180 323 416 309 145 147 271 214 149 223 117 218 167 44 107 95 105 107
internal_count=2000 1261 985 739 838 513 276 232 242 171 64 325 180 323 416 309 145 147 271 214 149 223 117 218 167 44 107 95 105 107
is_linear=0
shrinkage=0.1


Tree=19
num_leaves=31
num_cat=0
split_feature=0 6 3 0 2 7 10 5 4 1 7 9 6 1 5 2 10 2 0 0 2 2 1 1 3 12 3 2 12 0
split_gain=16.828 6.59134 6.35352 8.24913 5.54463 3.88183 3.35847 3.29815 4.52136 3.71278 2.8866 2.88496 2.6952 2.31038 2.08339 1.80212 1.78224 1.77581 1.77075 1.57831 1.5311 1.5002 1.36013 1.34642 1.33838 1.3214 1.26308 1.09074 0.989789 0.971673
threshold=0.25022817440831546 1.0905220477460509 -0.68596879541635303 1.2537500288631598 0.88761557729380802 -1.2844121520787763 -0.65922513455409326 -0.35370202842075277 -0.3491099127028135 -0.52688298164658909 -0.11546647605224518 -0.29561485615020405 -0.77799420898607718 0.90776887624887836 1.534040358646829 -0.70647754911454508 0.4313490228502464 0.51974793273803421 1.6300707242837265 -0.87873391185338412 -1.0130339195776898 -0.82910009729980294 -0.72047455765176083 -1.5743516875317132 -1.2537062631724905 0.69585310125662336 0.16563740621785333 0.21319156227488922 0.53394529366618815 0.75198910163573751
decision_type=2 2 2 2 2 2 2 2 2 2 2 2 2 2 2 2 2 2 2 2 2 2 2 2 2 2 2 2 2 2
left_child=1 4 3 12 5 -1 -5 9 14 23 20 -6 29 18 -9 25 26 22 24 -3 -4 -11 -14 -7 -8 -10 -12 -20 -13 -2
right_child=2 19 10 6 11 7 13 8 15 21 16 28 17 -15 -16 -17 -18 -19 27 -21 -22 -23 -24 -25 -26 -27 -28 -29 -30 -31
leaf_value=-0.025918547865171372 -0.044156915856444323 -0.00066959990371921751 0.031140789700342189 -0.0025162721397997494 -0.040693394358776794 -0.035830242233350872 -0.00096708203835243534 -0.01637622891235407 0.0013316726504958103 0.027004891673134936 0.013342307504164439 -0.02184633747176604 -0.016170121677990618 0.054948882305103801 -0.042360307984054095 -0.0097598942823284886 0.042668748757661516 -0.015710604579986208 0.046464040130376819 0.019595996006999329 0.0060959718699339525 0.0066770686033470117 0.0081069002438962992 -0.0059315537884984107 0.028389927364575369 0.025446051320639151 0.032508572113449472 0.020118162273006005 -0.0015888470718089271 -0.016633720747355758
leaf_weight=97 23 66 30 58 79 20 44 135 105 51 73 83 29 23 40 137 63 77 30 92 131 126 113 61 24 29 65 33 34 29
leaf_count=97 23 66 30 58 79 20 44 135 105 51 73 83 29 23 40 137 63 77 30 92 131 126 113 61 24 29 65 33 34 29
internal_value=4.8778e-12 -0.00784582 0.0107242 0.00321729 -0.0108531 -0.00716419 0.017993 -0.00458014 -0.00978598 0.00441911 0.0207403 -0.0259288 -0.00834154 0.0257172 -0.0223154 -0.001695 0.0287322 -0.00348206 0.0205849 0.0111306 0.0107627 0.0125342 0.00314892 -0.0133139 0.00939422 0.00655046 0.0223699 0.0326638 -0.0159595 -0.0288074
internal_weight=2000 1155 845 483 997 801 212 704 446 258 362 196 271 154 175 271 201 219 131 158 161 177 142 81 68 134 138 63 117 52
internal_count=2000 1155 845 483 997 801 212 704 446 258 362 196 271 154 175 271 201 219 131 158 161 177 142 81 68 134 138 63 117 52
is_linear=0
shrinkage=0.1


Tree=20
num_leaves=31
num_cat=0
split_feature=0 2 4 6 2 0 5 3 1 5 7 2 7 5 4 5 4 2 1 1 5 4 9 10 9 7 8 9 4 2
split_gain=14.374 7.32841 4.76184 4.66697 3.51541 2.99329 2.52018 2.51714 2.25015 2.2091 2.06783 1.96068 2.31767 1.92602 1.75105 1.68064 2.08443 1.65811 1.5949 1.44966 1.44495 1.74013 1.44375 1.37871 1.34267 1.25452 1.20535 1.1824 1.09213 1.08498
threshold=-0.62785344823967304 -0.5838550009292871 -1.1057879401889672 0.26821226788931585 -0.5838550009292871 1.0028695652494488 -0.71907152269189767 0.16563740621785333 -0.93135109580025111 1.0000000180025095e-35 -0.92181078185796561 1.5620395923127266 1.2943682221489519 0.6206166229689668 0.06731692121574126 -0.6581766069800401 -0.008858719135213149 0.58105920683066326 -0.17081276149422023 0.90776887624887836 0.80330137010453917 -0.33895316065601838 0.730004894387005 0.5874508140081226 -0.60805530995624146 -0.19153669358108619 0.45283942944183858 0.3224738676834778 0.85954358086567395 1.010238125479066
decision_type=2 2 2 2 2 2 2 2 2 2 2 2 2 2 2 2 2 2 2 2 2 2 2 2 2 2 2 2 2 2
left_child=4 2 13 6 8 7 14 18 -1 11 -6 12 -5 -2 -3 -10 -17 20 -4 23 -8 -22 29 -7 -19 -9 -20 -13 -11 -12
right_child=1 3 5 9 10 19 17 25 15 28 22 27 -14 -15 -16 16 -18 24 26 -21 21 -23 -24 -25 -26 -27 -28 -29 -30 -31
leaf_value=-0.024220944994107582 0.0074408888552958772 0.010628752775805732 -0.004089333062382558 0.013652027430276971 -0.035154170462718376 0.016648736481632419 -0.00022620055386984107 0.014088709968844522 0.017086160513667428 -0.0098058616841832803 -0.015144430213458807 -0.019868794249613648 0.04156858612679773 -0.028392198410583658 -0.0082760765266110311 -0.017561309602707766 0.0061251548439373868 -0.033214321903263531 0.0057140021749279082 0.054605403295359935 -0.037451146818973401 -0.003446760143646423 -0.0039741504700214134 0.043200968341393906 -0.011795968965316813 0.033458481321458997 0.02961297000033988 0.0091575547244348056 0.010039256599901077 -0.030507619346563632
leaf_weight=43 30 124 78 171 65 48 149 61 49 75 157 23 36 30 81 66 85 48 51 26 27 34 80 33 75 74 36 36 44 65
leaf_count=43 30 124 78 171 65 48 149 61 49 75 157 23 36 30 81 66 85 48 51 26 27 34 80 33 75 74 36 36 44 65
internal_value=5.42495e-12 0.00561605 0.015824 0.000451231 -0.0127972 0.0197011 -0.00556405 0.0145795 -0.00346785 0.008857 -0.0189745 0.0139235 0.0185071 -0.0104757 0.00315904 0.000994068 -0.00422787 -0.0109341 0.00629402 0.0340609 -0.00553369 -0.0184979 -0.0154921 0.0274663 -0.0201544 0.0247062 0.0156032 -0.0021578 -0.00246817 -0.0196427
internal_weight=2000 1390 467 923 610 407 538 300 243 385 367 266 207 60 205 200 151 333 165 107 210 61 302 81 123 135 87 59 119 222
internal_count=2000 1390 467 923 610 407 538 300 243 385 367 266 207 60 205 200 151 333 165 107 210 61 302 81 123 135 87 59 119 222
is_linear=0
shrinkage=0.1


Tree=21
num_leaves=31
num_cat=0
split_feature=0 2 3 0 5 4 1 9 2 10 8 0 11 0 7 1 7 8 1 4 8 7 0 8 6 3 0 3 10 1
split_gain=11.9756 5.66674 3.95743 4.26982 3.88517 5.52723 4.70716 3.34618 2.23495 2.21484 2.1009 2.37038 1.87993 1.83815 1.80586 1.65881 1.62771 1.54489 1.46971 1.41534 1.39763 1.31656 1.27063 1.18374 1.16086 1.13647 1.31316 1.46807 1.07436 0.975874
threshold=0.62654886982888203 0.090569014089631319 -0.68596879541635303 1.3791902606700153 0.55972170725710935 0.05208179314555076 -0.09130193563495359 -1.2533127689034917 -0.76778882320717401 0.079050802394629124 1.1167914613063386 -1.0041741436602396 -0.75194946910888716 -1.0041741436602396 1.0000000180025095e-35 -1.2217384598080077 0.82780422130539077 -0.93542390991120661 0.085004678226899319 -1.3546283653354203 -0.57326825616693389 -0.22196478059262398 -0.87873391185338412 0.15104305132161133 1.2604810290643187 -0.47306724500780123 -1.0041741436602396 0.87530924091302564 0.56553241182499681 1.0598765431100847
decision_type=2 2 2 2 2 2 2 2 2 2 2 2 2 2 2 2 2 2 2 2 2 2 2 2 2 2 2 2 2 2
left_child=1 4 3 12 6 19 10 -3 29 -5 11 -1 -2 -10 22 -12 -7 -14 -19 -6 -11 -4 -9 -20 -15 -16 -27 -28 -23 -8
right_child=2 7 21 9 5 16 8 14 13 20 15 -13 17 24 25 -17 -18 18 23 -21 -22 28 -24 -25 -26 26 27 -29 -30 -31
leaf_value=-0.014636770879363981 -0.024899859321029748 -0.034428627003217117 0.013423498465177638 0.0069203541350915379 -0.041458261864733816 0.0001225425699163997 0.020230043579845928 -0.026644351389966431 -0.0090824402923531389 0.0099940321121651399 -0.04065940816971389 0.011971672795752579 -0.016567545738071204 0.0093429488316579754 -0.016544648474414968 -0.0093837254667321138 0.0260407707033058 -0.0027120631345244777 0.0020628012046217921 -0.016886605414199746 0.037822682328395925 0.023316143417301087 -0.011160174432146994 0.031309110551111158 0.035429444457404313 -0.010688603911045437 -0.00051701367967369328 0.024986847949725007 0.043310543052034411 0.043419846697993904
leaf_weight=52 34 64 77 92 28 126 86 79 51 26 22 94 40 116 56 74 30 83 25 144 59 78 161 31 20 74 83 31 41 23
leaf_count=52 34 64 77 92 28 126 86 79 51 26 22 94 40 116 56 74 30 83 25 144 59 78 161 31 20 74 83 31 41 23
internal_value=1.93788e-11 -0.00498148 0.0120202 0.00619438 5.43767e-05 -0.0085239 0.00528426 -0.0129396 0.0137419 0.0176726 -0.00506065 0.00249469 -0.00334388 0.00710784 -0.0100981 -0.0165511 0.00510682 0.000750555 0.00573418 -0.0208866 0.0293104 0.0236122 -0.016257 0.0182527 0.0131792 -0.00404007 -0.000315301 0.00641825 0.030205 0.0251233
internal_weight=2000 1414 586 390 866 328 538 548 296 177 242 146 213 187 484 96 156 179 139 172 85 196 240 56 136 244 188 114 119 109
internal_count=2000 1414 586 390 866 328 538 548 296 177 242 146 213 187 484 96 156 179 139 172 85 196 240 56 136 244 188 114 119 109
is_linear=0
shrinkage=0.1


Tree=22
num_leaves=31
num_cat=0
split_feature=0 2 1 7 6 6 0 3 5 9 6 5 6 7 3 0 4 11 0 3 2 4 5 14 26 4 0 8 0 5
split_gain=10.0453 5.13382 3.69617 3.18222 3.15463 2.4537 2.29856 2.49519 2.06119 1.60192 1.54372 1.51378 1.63282 1.51168 1.49405 1.71876 1.47581 1.44529 1.43266 2.10884 1.28142 1.24461 1.40748 1.17734 1.1185 1.06214 0.877068 0.865448 0.848403 0.847389
threshold=-0.12609252101225107 -0.82910009729980294 -1.5743516875317132 0.32574078561503561 -0.28537220325105705 1.3649140570235687 -1.1296143754670951 0.44950614009592227 -0.77996643840375512 0.44473317569453591 1.8580587315607531 -0.17101728128518043 0.89925199582098758 -1.3072332173374297 0.87530924091302564 -1.2550546072739506 0.12317905747310783 -1.0817052944568544 1.5046304924768708 0.37853895662640519 1.3781057700348398 0.79860306858490981 0.86419628581639663 0.93235514765054472 -0.035426851924101194 -0.98390691562743926 0.75198910163573751 0.15104305132161133 1.1283097970563041 -0.77996643840375512
decision_type=2 2 2 2 2 2 2 2 2 2 2 2 2 2 2 2 2 2 2 2 2 2 2 2 2 2 2 2 2 2
left_child=3 2 -2 6 18 8 13 -8 -4 25 14 12 16 -1 -5 23 29 -9 19 26 21 22 -13 -16 -20 -10 -3 -15 -27 -6
right_child=1 4 5 10 11 -7 7 17 9 -11 -12 20 -14 27 15 -17 -18 -19 24 -21 -22 -23 -24 -25 -26 28 -28 -29 -30 -31
leaf_value=-0.038629597246957324 -0.022348683664486522 -0.01970144482495512 0.041054781723548386 -0.010875727826929769 0.023691256623715164 0.052449284761172277 -0.015212759007560517 -0.020126101844336677 0.00052417169385792124 0.00088759795991612267 0.021787892217779981 0.0070676104814717273 0.023491842799176949 -0.021390416634206037 -0.0069497466823617154 0.017767144759234629 -0.00053131751705284651 0.0072204380926833888 -0.0061906966147944331 0.007899588002052543 -0.023475929237902166 0.013985289270332194 -0.01438424004846367 0.01881681164460523 0.024083026813773011 0.019159441149619583 -0.0060851182076092592 -0.0081759645965368832 0.038550984337925913 0.0054722070168807275
leaf_weight=36 21 110 34 124 59 23 163 23 23 61 29 66 84 133 114 57 118 121 23 58 20 68 57 21 26 91 83 79 30 45
leaf_count=36 21 110 34 124 59 23 163 23 23 61 29 66 84 133 114 57 118 121 23 58 20 68 57 21 26 91 83 79 30 45
internal_value=8.4468e-12 0.00641048 0.0180181 -0.00783503 0.00238974 0.0212536 -0.0125232 -0.00673911 0.0182515 0.0144695 -0.000293137 0.0071232 0.0116165 -0.0196834 -0.00231956 0.0032063 0.00712314 0.00285259 -0.00576758 -0.00882091 0.000606833 0.00312859 -0.00287349 -0.00294162 0.00987291 0.0202229 -0.0138457 -0.0164662 0.0239673 0.015808
internal_weight=2000 1100 283 900 817 262 555 307 239 205 345 517 306 248 316 192 222 144 300 251 211 191 123 135 49 144 193 212 121 104
internal_count=2000 1100 283 900 817 262 555 307 239 205 345 517 306 248 316 192 222 144 300 251 211 191 123 135 49 144 193 212 121 104
is_linear=0
shrinkage=0.1


Tree=23
num_leaves=31
num_cat=0
split_feature=0 6 2 3 0 9 6 0 3 10 8 1 0 5 2 1 6 7 4 9 3 2 23 9 3 9 7 2 5 8
split_gain=8.40832 4.84185 3.50217 2.39824 2.50027 2.29675 2.12909 2.12398 2.55148 2.0101 1.729 2.9012 1.70079 1.38339 1.29088 1.24492 1.18011 1.08399 1.02092 0.985054 0.98413 0.844783 0.826905 0.821361 0.789532 0.783352 0.777163 0.766222 0.752274 0.743977
threshold=0.75198910163573751 -0.77799420898607718 -0.39992117865140026 -0.68596879541635303 1.6300707242837265 0.30888950012669364 -1.8982126151592744 -0.62785344823967304 0.80434205744350851 0.03200642697718651 0.27176160256970222 0.050434753940261506 -0.87873391185338412 0.92509120152825419 0.64237048092329208 -0.86221124722697529 1.5191118715996652 0.488023916343231 0.85954358086567395 0.730004894387005 -0.54403442847731853 1.1328606736643239 -1.1735922192029979 -0.98841760154620018 1.0000000180025095e-35 -1.0563394393301195 -0.22196478059262398 -0.82910009729980294 1.168670864375684 -0.39219042929479753
decision_type=2 2 2 2 2 2 2 2 2 2 2 2 2 2 2 2 2 2 2 2 2 2 2 2 2 2 2 2 2 2
left_child=1 6 5 4 10 12 -1 19 16 -6 18 -12 -3 15 23 -7 20 -10 -2 21 29 -4 -14 -8 -24 -16 -5 -26 -25 -9
right_child=3 2 7 26 9 13 14 8 17 -11 11 -13 22 -15 25 -17 -18 -19 -20 -21 -22 -23 24 28 27 -27 -28 -29 -30 -31
leaf_value=-0.036059259421691844 -0.010032538365339861 0.0011252815098586409 -0.011937351245433093 0.012940880480117253 0.0052969462335264936 -0.016604231532663109 0.0023208824911948723 -0.024947674902663988 0.0050960922709423796 0.033675223742969905 -0.0035035576910559031 0.028467926706242208 -0.00019813476130366324 -0.014034735327455359 -0.035546514741947942 0.0082959400471665119 0.014515591473676837 0.026299912314344611 0.010142845881637186 -0.0032236416165193796 -0.0024403473553247751 -0.026450641671645233 0.012100587864966379 -0.0084667316893287728 0.033957151486538349 -0.014810331611494934 0.027490803447758991 0.014823829132365064 -0.029049272041413044 -0.0084855880795408692
leaf_weight=41 116 110 130 62 48 25 61 44 73 52 64 51 25 71 29 102 26 36 32 81 150 58 79 115 50 49 90 36 21 73
leaf_count=41 116 110 130 62 48 25 61 44 73 52 64 51 25 71 29 102 26 36 32 81 150 58 79 115 50 49 90 36 21 73
internal_value=1.60471e-11 -0.00381839 -0.000849602 0.0110103 0.00659449 0.00550382 -0.014801 -0.00556496 -0.000962639 0.0200537 0.00147693 0.0106751 0.011021 -0.00285549 -0.0116316 0.00339433 -0.00582182 0.0120992 -0.00567029 -0.0124428 -0.00780224 -0.0164149 0.01675 -0.00732048 0.019318 -0.0225199 0.021556 0.0259479 -0.0116449 -0.0146765
internal_weight=2000 1485 1169 515 363 498 316 671 402 100 263 115 300 198 275 127 293 109 148 269 267 188 190 197 165 78 152 86 136 117
internal_count=2000 1485 1169 515 363 498 316 671 402 100 263 115 300 198 275 127 293 109 148 269 267 188 190 197 165 78 152 86 136 117
is_linear=0
shrinkage=0.1


Tree=24
num_leaves=31
num_cat=0
split_feature=0 2 3 0 1 7 5 7 5 1 4 10 5 2 4 9 7 10 0 3 10 7 3 14 3 1 0 5 1 39
split_gain=7.05716 4.68423 3.22102 5.41439 3.07931 2.19605 2.17432 2.17056 2.1705 2.29904 1.89034 1.79019 1.74932 1.42408 1.16421 1.13749 1.10999 1.03205 0.977293 0.9613 0.931448 0.928728 0.89971 1.00148 0.72491 0.657882 0.655362 0.615383 0.603985 0.594917
threshold=-0.87873391185338412 -0.82910009729980294 0.37853895662640519 1.0028695652494488 -1.5743516875317132 0.11274417653428016 -0.77996643840375512 0.6858064819182198 -0.71907152269189767 0.10401813658455036 0.45581268700561234 -0.96982493134425118 1.7167251057824011 0.88761557729380802 -0.53193144954510585 0.39039570546739893 -1.510087130747674 0.62059571487041099 1.8809511878974374 -1.6795093639895939 -0.032679589221796493 -0.65810069442464803 0.59144050703495676 1.022914838547426 -0.96983752929442169 0.14377354951418322 0.25022817440831546 -1.0844410169630423 0.66232241381374968 0.87854640600417977
decision_type=2 2 2 2 2 2 2 2 2 2 2 2 2 2 2 2 2 2 2 2 2 2 2 2 2 2 2 2 2 2
left_child=5 4 3 8 -2 16 25 21 9 -3 12 -5 15 -11 -10 28 -1 -12 19 -13 -18 -4 -7 -24 -16 -6 -23 -21 -8 -29
right_child=1 2 7 11 6 22 10 -9 14 13 17 18 -14 -15 24 -17 20 -19 -20 27 -22 26 23 -25 -26 -27 -28 29 -30 -31
leaf_value=-0.03468925828114152 -0.020624073684215549 -0.011841013837748996 -0.0045841733841239535 -0.0089899404235184201 0.025221733963521925 -0.022336491747674617 0.014331916011614751 0.022819352373991891 -0.02217361620827837 0.022306376385454407 0.016624922705684893 -0.0054074182964137033 -0.010484943416280052 -0.0014525958672703173 -0.018762880212698993 0.00019867408734101515 -0.0073106325837730803 0.037764596661059739 0.029040757844481492 0.022310422234078673 -0.019940847526662628 0.0039026165367242426 -0.0035025904873166136 0.019099532166728751 -0.0064422748465504916 0.050020448565483093 0.017809075365463892 0.0048014308945122331 0.033576380794069598 0.021039688767244422
leaf_weight=30 25 91 83 50 23 22 73 82 108 49 72 36 45 52 65 52 106 34 29 47 130 101 180 22 180 20 51 91 21 30
leaf_count=30 25 91 83 50 23 22 73 82 108 49 72 36 45 52 65 52 106 34 29 47 130 101 180 22 180 20 51 91 21 30
internal_value=6.62803e-12 0.00338384 0.000239174 -0.0030426 0.0132486 -0.0104277 0.0157392 0.00881113 -0.00886973 -0.000312785 0.0126964 0.00817925 0.0067531 0.010074 -0.0135239 0.0120662 -0.0165711 0.0234056 0.0118636 0.00942178 -0.014268 0.00392315 -0.0031325 -0.00104097 -0.00971101 0.036756 0.0085686 0.0125995 0.0186312 0.00882745
internal_weight=2000 1510 1145 828 365 490 340 317 545 192 297 283 191 101 353 146 266 106 233 204 236 235 224 202 245 43 152 168 94 121
internal_count=2000 1510 1145 828 365 490 340 317 545 192 297 283 191 101 353 146 266 106 233 204 236 235 224 202 245 43 152 168 94 121
is_linear=0
shrinkage=0.1


Tree=25
num_leaves=31
num_cat=0
split_feature=0 6 3 0 8 1 8 12 6 8 7 4 2 8 1 3 6 0 3 8 1 1 6 10 2 6 5 0 3 3
split_gain=6.07088 2.93717 2.82153 3.52595 2.48471 2.33655 1.57888 1.4838 1.4314 1.38996 1.38122 1.29009 1.53835 1.18721 1.14492 1.08035 1.05442 0.992218 1.00105 0.879045 0.970209 0.785589 0.764987 0.744905 0.728156 0.716349 0.70963 0.659268 0.678407 0.64019
threshold=0.25022817440831546 1.0905220477460509 -0.68596879541635303 1.3791902606700153 -0.69398680741502472 -0.52688298164658909 1.177150736930384 1.0421501111160572 -1.1108913455026974 1.5393063906746567 -0.46031812884965934 -0.059642479369184397 -0.76778882320717401 -0.69398680741502472 0.61046752738379406 -0.40210006153828415 -1.3383423831820283 -1.1296143754670951 1.0172436078520601 0.09068377569756586 0.050434753940261506 -0.11550088263559974 1.8580587315607531 0.57568972015376196 1.6846621404979849 0.22132644280274533 -0.41459694413261033 1.6300707242837265 -1.4666078135810421 -0.18919851112973252
decision_type=2 2 2 2 2 2 2 2 2 2 2 2 2 2 2 2 2 2 2 2 2 2 2 2 2 2 2 2 2 2
left_child=1 4 3 7 11 15 23 8 -2 16 -4 26 -13 21 -8 -6 -5 -17 -19 -10 -21 -12 -3 -7 -14 -15 -1 28 -18 -28
right_child=2 22 10 9 5 6 14 -9 19 -11 13 12 24 25 -16 17 27 18 -20 20 -22 -23 -24 -25 -26 -27 29 -29 -30 -31
leaf_value=-0.008328251291586217 -0.022977783866226675 0.0040394673709912851 0.0038273876597937034 -0.01227881248508181 -0.023777942380190573 0.00067011186814246084 0.0039325131278019404 -0.023279516497710484 -0.0051325297937902222 0.0311842120167884 0.020001357241943924 0.011398675146379642 -0.0071340250933516619 0.015555747605465126 0.027196056729949576 -0.017515028403113319 -0.0093219927714570713 -0.0090995932703181633 0.010997506831056224 -0.0013953993205334349 0.018171901090277564 0.0025063993832604454 0.020320172520893576 -0.0095773484922715077 -0.02511208159566829 0.029753289420109293 -0.037176931212441276 0.01844302717582795 0.013345182152284731 -0.019758931708513824
leaf_weight=43 30 120 111 21 55 264 56 39 134 33 42 35 71 66 34 64 23 68 39 58 45 66 38 97 33 77 26 69 31 112
leaf_count=43 30 120 111 21 55 264 56 39 134 33 42 35 71 66 34 64 23 68 39 58 45 66 38 97 33 77 26 69 31 112
internal_value=-1.16719e-11 -0.00471247 0.0064413 0.00143871 -0.00671996 -0.00328778 0.000870939 -0.00505945 -0.00239809 0.0126728 0.013116 -0.0139812 -0.00673569 0.0172238 0.012721 -0.0115868 0.00843062 -0.00766568 -0.00177448 0.000206934 0.00715342 0.00930999 0.00795508 -0.00208336 -0.0128386 0.0232006 -0.0195454 0.0119664 0.00369064 -0.0230406
internal_weight=2000 1155 845 483 997 677 451 306 267 177 362 320 139 251 90 226 144 171 107 237 103 108 158 361 104 143 181 123 54 138
internal_count=2000 1155 845 483 997 677 451 306 267 177 362 320 139 251 90 226 144 171 107 237 103 108 158 361 104 143 181 123 54 138
is_linear=0
shrinkage=0.1


Tree=26
num_leaves=31
num_cat=0
split_feature=0 2 6 6 7 1 3 0 3 0 5 1 5 3 4 7 2 1 6 7 9 38 10 13 0 1 19 8 7 8
split_gain=5.12106 3.22075 2.03957 1.95785 1.83328 1.66133 1.57568 2.5654 1.46576 2.60036 1.24829 1.24012 1.05416 0.979209 0.948909 0.903767 0.849942 0.988877 0.845164 0.821345 0.780609 0.776701 0.772871 0.67218 0.636336 0.614978 0.579334 0.549724 0.519546 0.48674
threshold=-0.37697298462596213 -0.82910009729980294 0.71603608307823585 1.3649140570235687 -0.90152539051694125 -1.5743516875317132 0.6624076905044739 -1.2550546072739506 0.59144050703495676 1.0028695652494488 -0.77996643840375512 1.471258642121074 -0.17101728128518043 -0.89887034582490455 -1.1057879401889672 -0.35889117214453714 0.27450283636751821 0.42378993623594902 -1.3383423831820283 0.011317219829157902 0.44473317569453591 -0.81173835375004366 0.12930274886326024 -0.42083389663595311 -1.2550546072739506 0.62256700088411676 0.66183161735710527 -0.81470535866311555 1.1371564392560118 0.75463580756206572
decision_type=2 2 2 2 2 2 2 2 2 2 2 2 2 2 2 2 2 2 2 2 2 2 2 2 2 2 2 2 2 2
left_child=4 3 8 5 24 -2 21 11 9 13 -7 22 16 -3 -12 -10 17 -4 -11 27 23 -6 28 -16 -1 -14 -21 -20 -8 -15
right_child=1 2 12 -5 6 10 7 -9 15 18 14 -13 25 29 20 -17 -18 -19 19 26 -22 -23 -24 -25 -26 -27 -28 -29 -30 -31
leaf_value=-0.024471277371048927 -0.015361538359328457 -0.016767542362892223 0.0061992959429820384 0.040737546364898271 -0.00059049946667496557 0.029969363809019951 -0.004778062762016172 0.011595688338797445 -0.0015825928355583788 -0.010627901310762092 -0.0073069646189521473 0.018352367682382464 0.008972395213249211 -0.0077795372290480787 0.0079984093349374803 0.013720964268120656 0.0076784104540648344 0.033114941957860425 6.7163416480814876e-05 0.0055965540870543456 0.0027417973048674566 -0.016050988759257295 -0.012838411006394882 0.021928715451382277 -0.010528428533545403 -0.0065601746188476686 -0.012187202570315164 0.018189161172402758 0.012475810502655805 0.0042751255547400658
leaf_weight=64 23 120 21 23 43 36 137 117 70 31 28 20 52 183 58 86 74 39 22 62 60 133 138 86 67 50 26 70 20 41
leaf_count=64 23 120 21 23 43 36 137 117 70 31 28 20 52 183 58 86 74 39 22 62 60 133 138 86 67 50 26 70 20 41
internal_value=3.24508e-11 0.00387373 0.000963612 0.0126504 -0.00660998 0.0104305 -0.00429804 -0.00104869 -0.00171011 -0.00411731 0.012644 -0.00574518 0.00901875 -0.00947814 0.00995556 0.00685398 0.0148498 0.0236945 0.00462262 0.0072491 0.0123249 -0.0122737 -0.00737891 0.0163179 -0.0173402 0.00135839 0.000342262 0.0138556 -0.00258012 -0.0055731
internal_weight=2000 1261 947 314 739 291 608 432 711 555 268 315 236 344 232 156 134 60 211 180 204 176 295 144 131 102 88 92 157 224
internal_count=2000 1261 947 314 739 291 608 432 711 555 268 315 236 344 232 156 134 60 211 180 204 176 295 144 131 102 88 92 157 224
is_linear=0
shrinkage=0.1


Tree=27
num_leaves=31
num_cat=0
split_feature=0 2 5 4 1 10 5 9 2 1 6 0 6 7 11 8 1 4 3 8 2 3 4 0 1 32 3 7 4 8
split_gain=4.36628 3.00899 3.11526 3.43483 2.93263 1.70821 1.70301 1.6901 1.65253 1.54886 1.39032 1.05735 0.950639 0.927738 0.919947 0.88524 1.53055 0.808659 0.787716 0.743766 0.649916 0.648917 0.626624 0.702159 0.622499 0.611224 0.608882 0.600261 0.597939 0.579306
threshold=0.877429333442593 1.4394170441274685 -0.77996643840375512 0.05208179314555076 -1.4948408616724465 0.051251853284322607 1.4731454429349713 -0.4790038181667905 -1.0743451936703188 0.96999473996482644 -1.5460775057432867 -0.87873391185338412 1.6050715483462146 0.59959356871886549 -0.85602965756909999 -0.57326825616693389 -0.27797952678279697 -0.86202589106591099 1.0172436078520601 1.7203842175467929 0.21319156227488922 -1.2537062631724905 -0.059642479369184397 0.12478794260145983 0.46181685295125102 0.32875606578104238 0.23660458968737058 -0.30310634595672059 -0.11042623960315338 1.7807434931708384
decision_type=2 2 2 2 2 2 2 2 2 2 2 2 2 2 2 2 2 2 2 2 2 2 2 2 2 2 2 2 2 2
left_child=1 2 4 6 -1 14 10 -3 -5 13 -4 27 -10 22 -2 21 25 -8 -13 -18 24 -7 23 -6 -16 -17 -15 -12 -9 -11
right_child=5 7 3 8 9 15 17 28 12 29 11 18 -14 26 20 16 19 -19 -20 -21 -22 -23 -24 -25 -26 -27 -28 -29 -30 -31
leaf_value=-0.026786400936543941 -0.009844606710558243 -0.026704679393737732 -0.021542019187472762 0.011958602018421517 0.0017329976030547795 -0.0025350764525146822 -0.031400776490932557 0.00025789985527931636 -0.00257378557709677 0.017414597566756937 -0.024098067574443355 -0.0043017610442540096 0.01602123043810328 0.0037967461002567275 0.0050894039287937417 -0.00066559385907437123 0.023022224107070974 -0.013466363458338982 0.0075730420134524695 0.044668487671085381 -0.0019213587935155375 0.015378412391458238 -0.0018619227937261504 0.02006482870091458 0.021293142656921536 0.019806943727540785 0.024332968225436555 -0.0076781110342922093 -0.012877119811517852 0.038313839549110051
leaf_weight=23 47 67 52 135 48 39 41 59 329 36 31 180 30 22 66 35 57 65 81 22 64 42 104 37 37 25 42 79 84 21
leaf_count=23 47 67 52 135 48 39 41 59 329 36 31 180 30 22 66 35 57 65 81 22 64 42 104 37 37 25 42 79 84 21
internal_value=7.61211e-12 -0.00245974 -0.000734723 -0.00346937 0.00766632 0.00887548 -0.00906889 -0.0135985 0.00252687 0.0102225 -0.0062286 -0.00408224 -0.00101988 0.00686741 0.00251441 0.0150631 0.0199054 -0.0204033 -0.000616477 0.0290503 0.00599269 0.0067534 0.00334361 0.00971274 0.0109102 0.00786463 0.0172736 -0.0123056 -0.00745778 0.0251143
internal_weight=2000 1566 1356 1023 333 434 529 210 494 310 423 371 359 253 214 220 139 106 261 79 167 81 189 85 103 60 64 110 143 57
internal_count=2000 1566 1356 1023 333 434 529 210 494 310 423 371 359 253 214 220 139 106 261 79 167 81 189 85 103 60 64 110 143 57
is_linear=0
shrinkage=0.1


Tree=28
num_leaves=31
num_cat=0
split_feature=0 2 4 5 4 7 3 0 1 9 7 5 2 9 11 10 13 13 6 21 1 5 4 2 0 3 4 9 3 3
split_gain=3.74128 2.71948 2.00643 1.66061 1.77707 1.32437 1.32007 1.9145 1.31427 1.56431 0.975798 0.941317 0.844717 0.845646 0.821384 0.771116 0.767923 0.726037 0.665374 0.64963 0.646323 0.758399 0.808173 0.599537 0.585508 0.967608 0.5853 0.571331 0.54855 0.532128
threshold=-0.87873391185338412 -0.5838550009292871 -1.1057879401889672 -0.77996643840375512 -0.029172223228801246 0.17867169839260902 1.0000000180025095e-35 0.877429333442593 1.5127425512650394 0.44473317569453591 -0.65810069442464803 0.6206166229689668 0.70368175501592101 -0.45183508305322201 0.60972865412242039 -0.30425393822248464 -0.90122730567009135 -1.2912393416131909 1.2604810290643187 0.80143313824615836 -1.2632223689519735 -0.77996643840375512 -0.78838943872665457 -0.5838550009292871 1.0028695652494488 1.0000000180025095e-35 -1.5019012700139329 -0.40428979660447789 0.6624076905044739 -1.1827390797029731
decision_type=2 2 2 2 2 2 2 2 2 2 2 2 2 2 2 2 2 2 2 2 2 2 2 2 2 2 2 2 2 2
left_child=5 2 11 4 16 12 7 -5 9 17 -8 -2 20 -14 19 -9 -3 -4 -12 -6 -1 -22 -23 -7 25 -19 -18 -28 -11 -17
right_child=1 3 8 6 14 23 10 15 -10 28 18 -13 13 -15 -16 29 26 24 -20 -21 21 22 -24 -25 -26 -27 27 -29 -30 -31
leaf_value=-0.02627118855889421 0.0036004087291491623 -0.00086350780160677056 0.0006067761914596918 -0.012425831767887646 -0.0099977654441543041 0.0052458192103931427 -0.0079763682355867734 -0.0073590506801310077 0.031413121877944677 -0.002928743296965527 0.0040930814321106634 -0.020129519466718194 -0.038713863988717401 -0.014136783633425477 0.0067243502373831024 0.0016682468473083795 0.031531917200085115 0.0056122346935571048 0.022436548765424804 0.0090353250207210137 0.0035138668308112154 -0.025018391944468022 -0.0070337745207852053 -0.005737455504418198 0.024312077554226933 0.020115665792811502 0.0019874037429690361 0.018554329827962006 0.012227010201182097 0.016781728191862761
leaf_weight=20 35 31 37 251 97 79 63 65 29 104 141 32 21 42 78 74 22 92 23 22 48 32 114 134 59 92 30 68 31 34
leaf_count=20 35 31 37 251 97 79 63 65 29 104 141 32 21 42 78 74 22 92 23 22 48 32 114 134 59 92 30 68 31 34
internal_value=2.63477e-11 0.0024638 0.00839751 -0.000571367 0.00500501 -0.00759252 -0.00355229 -0.00684715 0.0108317 0.00939344 0.002602 -0.00773329 -0.0121514 -0.0223291 -0.0012513 0.00124677 0.0131672 0.0136565 0.00666564 -0.00647904 -0.00915513 -0.00739058 -0.0109756 -0.00166385 0.0156435 0.012864 0.0167918 0.0134828 0.000551467 0.00642619
internal_weight=2000 1510 511 999 348 490 651 424 444 415 227 67 277 63 197 173 151 280 164 119 214 194 146 213 243 184 120 98 135 108
internal_count=2000 1510 511 999 348 490 651 424 444 415 227 67 277 63 197 173 151 280 164 119 214 194 146 213 243 184 120 98 135 108
is_linear=0
shrinkage=0.1


Tree=29
num_leaves=31
num_cat=0
split_feature=0 6 2 6 5 4 7 3 9 8 1 8 5 1 12 1 8 7 17 0 10 4 0 2 6 23 9 3 1 5
split_gain=3.19875 2.00452 1.88201 1.3241 1.43408 1.38791 1.30926 1.34385 1.14451 1.12682 1.12225 1.891 1.19694 1.06435 0.928012 0.833251 0.745204 0.719042 0.717906 0.630786 0.608022 0.581905 0.551049 0.543324 0.506714 0.495888 0.459462 0.450391 0.449938 0.446164
threshold=-0.12609252101225107 -1.8982126151592744 0.090569014089631319 1.8700965201688653 1.7776200214942584 0.14349256156669582 -0.90152539051694125 -0.47306724500780123 0.11870835433171421 -0.87506463428716108 -0.72047455765176083 1.177150736930384 -0.41459694413261033 0.55861264095383689 1.1511918978913152 0.61046752738379406 0.45283942944183858 1.9029299623796847 0.23704954669652586 -1.0041741436602396 1.2760093996634121 0.73258418028074923 -1.2550546072739506 1.4394170441274685 1.2079361991956339 -0.10309163759459154 -0.55371783972910449 0.87530924091302564 -1.5363247708164109 0.072562381562249353
decision_type=2 2 2 2 2 2 2 2 2 2 2 2 2 2 2 2 2 2 2 2 2 2 2 2 2 2 2 2 2 2
left_child=6 25 3 4 10 -6 22 -8 23 21 11 -3 15 17 24 -12 26 19 -17 28 -10 -9 -1 29 -14 -2 -15 -21 -11 -4
right_child=1 2 8 -5 5 -7 7 9 20 13 12 -13 14 16 -16 18 -18 -19 -20 27 -22 -23 -24 -25 -26 -27 -28 -29 -30 -31
leaf_value=-0.019779062793531921 -0.029204198084771635 0.011254589946122107 0.00072992134972342429 0.033256708998233082 -0.014069677507014653 0.008637878045384937 -0.016482349412399344 -0.010673562850840144 0.002207569428064363 -0.021390232695266603 0.013253831825891717 -0.015329946735873817 0.0077415727287865228 -0.0099131512191061952 -0.012650687143295295 0.03758417074294651 0.017202431455672042 0.016079653443635575 0.014068032987415791 -0.0025848074294775331 0.017306230757986346 0.0025121661260464165 -0.0078488169896074253 -0.012969441596444135 0.023751252995465291 -0.0074476364534348249 0.0067740275510445695 0.0087439617882150086 -0.0053767050103462714 -0.013683194439444277
leaf_weight=64 20 66 105 20 57 51 64 151 191 20 99 45 195 22 21 34 58 21 21 94 31 43 98 73 22 22 66 56 143 27
leaf_count=64 20 66 105 20 57 51 64 151 191 20 99 45 195 22 21 34 58 21 21 94 31 43 98 73 22 22 66 56 143 27
internal_value=-7.58228e-12 0.00361743 0.00446796 0.00793746 0.00710868 -0.00334667 -0.0044213 -0.00263432 -0.000659098 -0.00131937 0.00935357 0.000477075 0.0118671 0.00128006 0.00742214 0.0187365 0.00840231 -0.00183327 0.0286053 -0.00303509 0.00431594 -0.00775095 -0.012562 -0.0060467 0.00936467 -0.0178079 0.00260223 0.0016446 -0.00734156 -0.00221822
internal_weight=2000 1100 1058 631 611 108 900 738 427 674 503 111 392 480 238 154 146 334 55 313 222 194 162 205 217 42 88 150 163 132
internal_count=2000 1100 1058 631 611 108 900 738 427 674 503 111 392 480 238 154 146 334 55 313 222 194 162 205 217 42 88 150 163 132
is_linear=0
shrinkage=0.1


Tree=30
num_leaves=31
num_cat=0
split_feature=0 6 2 5 4 5 1 6 9 1 2 0 2 2 3 0 11 9 10 8 4 4 0 8 10 3 3 1 1 10
split_gain=2.75578 2.104 1.8058 1.6826 1.63825 1.39783 1.29285 1.28774 1.02684 1.00693 1.00203 0.978998 0.907563 0.837078 0.822754 1.03991 0.883611 0.753534 0.735179 0.721711 0.63777 0.634413 0.653144 0.592884 0.590516 0.543792 0.529353 0.739152 0.508919 0.506852
threshold=0.75198910163573751 -1.8190088180420025 1.8072846886832421 -0.77996643840375512 0.5853112756022365 1.4731454429349713 -1.4948408616724465 1.7312338764727837 0.49907064592167288 0.96999473996482644 0.21319156227488922 -0.87873391185338412 -0.76778882320717401 -0.95172264548506103 -0.047264144190698042 1.6300707242837265 -1.0033247600188548 -0.037511872571303541 -0.067428275609679636 0.75463580756206572 -0.86202589106591099 0.41772486683013449 -0.12609252101225107 1.7807434931708384 -0.35022912328953054 1.0882107913215771 -1.2537062631724905 0.21982738294478646 -1.1871685355213695 0.68367794554379946
decision_type=2 2 2 2 2 2 2 2 2 2 2 2 2 2 2 2 2 2 2 2 2 2 2 2 2 2 2 2 2 2
left_child=1 28 3 6 5 11 -3 10 -4 21 14 18 -13 19 15 16 -2 -12 -5 -6 -7 22 -8 -11 -17 -14 27 -18 -1 -19
right_child=7 2 8 4 13 20 9 -9 -10 23 17 12 25 -15 -16 24 26 29 -20 -21 -22 -23 -24 -25 -26 -27 -28 -29 -30 -31
leaf_value=-0.03445932833477855 -0.012621521435934922 -0.018883955865749161 -0.017673587488476188 -0.0023557789632893599 0.018360131486939889 -0.025190229546033633 0.0033166675555468018 0.02943083817827637 0.0012840732728363947 0.011905685018159841 -0.0069841944691878587 0.0078736147018602098 -0.005843156714151216 0.00051323732660738018 0.021682807881125185 0.0063291292591020473 -0.0077543067963833506 0.0010543060912750661 -0.015070178582062645 -0.0031795371323823929 -0.0098145490800551904 -0.0012823960800953914 0.016592400486300153 0.03317689188756049 0.028512374066437286 0.0038626633549716733 0.010977302416693419 0.013006861325077439 -0.014124700776301326 0.016433864194744578
leaf_weight=20 29 20 100 89 60 38 90 23 40 38 91 107 195 178 43 20 47 75 93 21 93 106 63 20 30 82 100 27 32 30
leaf_count=20 29 20 100 89 60 38 90 23 40 38 91 107 195 178 43 20 47 75 93 21 93 106 63 20 30 82 100 27 32 30
internal_value=-1.31041e-11 -0.00218599 -0.00146896 -0.000300864 -0.00244266 -0.0049661 0.00577496 0.00630328 -0.0122571 0.00733073 0.00522212 -0.00281165 5.15615e-05 0.00434824 0.00889444 0.00672092 0.00353911 -0.000323841 -0.0088527 0.0127758 -0.0142747 0.00466366 0.00878315 0.0192406 0.0196391 -0.00296995 0.00623255 -0.000179286 -0.0219457 0.00544847
internal_weight=2000 1485 1433 1293 956 697 337 515 140 317 492 566 384 259 296 253 203 196 182 81 131 259 153 58 50 277 174 74 52 105
internal_count=2000 1485 1433 1293 956 697 337 515 140 317 492 566 384 259 296 253 203 196 182 81 131 259 153 58 50 277 174 74 52 105
is_linear=0
shrinkage=0.1


Tree=31
num_leaves=31
num_cat=0
split_feature=0 7 10 2 3 0 9 12 1 9 5 1 2 4 5 7 1 13 12 8 3 0 3 2 1 11 12 10 11 7
split_gain=2.29559 1.57997 1.55151 1.36184 1.22781 1.88791 0.94642 0.886018 0.796082 0.798967 0.742949 0.699557 0.690477 0.688673 0.911673 0.671665 0.577275 0.571878 0.507507 0.499933 0.487869 0.482875 0.590099 0.462454 0.439861 0.425381 0.433155 0.415562 0.400768 0.394587
threshold=0.25022817440831546 -1.3072332173374297 -0.95859843266508893 -0.46123245274402919 -0.68596879541635303 1.2537500288631598 -0.29561485615020405 1.0819684073518465 -1.6884324376776176 -1.1344495527816292 -0.41459694413261033 0.90776887624887836 1.010238125479066 0.35170597852597396 1.2904606957993991 -0.11546647605224518 -0.68936162579378635 1.1457847529007261 0.45241576325250521 -0.99578318553525191 1.0000000180025095e-35 1.6300707242837265 -1.4666078135810421 0.82630430320117898 0.66232241381374968 -1.484378458966515 -0.51886955993717498 1.0000000180025095e-35 -1.2838878203198993 0.17867169839260902
decision_type=2 2 2 2 2 2 2 2 2 2 2 2 2 2 2 2 2 2 2 2 2 2 2 2 2 2 2 2 2 2
left_child=1 28 25 8 5 7 12 19 -3 27 16 21 29 14 24 -6 -8 -17 23 -4 -12 22 -7 -18 -11 -2 -27 -10 -1 -5
right_child=2 3 4 6 15 11 10 -9 9 13 20 -13 -14 -15 -16 17 18 -19 -20 -21 -22 -23 -24 -25 -26 26 -28 -29 -30 -31
leaf_value=-0.022664268847202532 -0.019123858585953713 -0.015427747814227705 -0.012042264688227859 -0.010982835412792423 0.005513685077860736 -0.0082005807901485688 -0.0073418818326899784 -0.019157052303489765 0.024123262370435092 1.3955267927339e-07 -0.013817659493070095 0.024610325587647305 -0.017941598749187378 0.0079700804316453887 -0.011112639821940728 0.012660539319080677 0.00852390823696377 0.029971186058934441 0.015087512044164426 0.0011444585373978021 -0.0024327825941606474 0.013457358950365553 0.0095772232752033455 -0.0035752683653674255 0.012694517969419915 -0.015105231843888759 -0.00032747364833388327 0.0065663125661168517 -0.0099737824032720378 -0.0013753318076216898
leaf_weight=37 20 23 35 85 138 33 48 32 26 124 60 28 70 123 67 144 59 22 39 161 101 68 43 68 35 25 96 28 76 86
leaf_count=37 20 23 35 85 138 33 48 32 26 124 60 28 70 123 67 144 59 22 39 161 101 68 43 68 35 25 96 28 76 86
internal_value=1.80225e-11 -0.00289781 0.00396091 -0.00167983 0.00587857 0.00223786 -0.00468621 -0.00372915 0.00266742 0.00370015 -0.00154394 0.0101476 -0.00957565 0.00194871 -0.00132841 0.010669 0.0023168 0.0149547 0.00510967 -0.00121031 -0.00667559 0.00733543 0.00185791 0.00204561 0.0027945 -0.0056138 -0.00338073 0.0150197 -0.0141291 -0.00615099
internal_weight=2000 1155 845 1042 704 400 616 228 426 403 375 172 241 349 226 304 214 166 166 196 161 144 76 127 159 141 121 54 113 171
internal_count=2000 1155 845 1042 704 400 616 228 426 403 375 172 241 349 226 304 214 166 166 196 161 144 76 127 159 141 121 54 113 171
is_linear=0
shrinkage=0.1


Tree=32
num_leaves=31
num_cat=0
split_feature=0 7 3 0 3 10 7 3 1 1 8 1 1 7 8 0 11 1 2 10 1 8 1 11 13 8 1 4 3 2
split_gain=1.96112 1.60481 1.65968 2.02505 1.42045 1.01873 0.772824 0.735106 0.678016 0.674516 0.848669 1.18101 0.630001 0.614241 0.587173 0.666172 0.551871 0.54107 0.504841 0.488939 0.462477 0.563154 0.446169 0.396168 0.375578 0.350353 0.756513 0.444338 0.344388 0.337258
threshold=0.877429333442593 -1.2514483911496119 -0.47306724500780123 -1.0041741436602396 0.87530924091302564 0.54040643859067994 0.53873739469579218 0.59144050703495676 -0.99357695951619907 -1.4948408616724465 -0.15075332679861583 1.1601293235413344 0.88011293681956804 1.4262232658656118 -0.57326825616693389 1.5046304924768708 -1.0033247600188548 -0.58219486050520952 0.21319156227488922 -0.11019588962553614 0.44453189080793259 0.45283942944183858 0.13340257222819227 -1.2340621122445448 0.47799762774784188 1.3582285638025204 0.27513926180340692 -1.4714310138735518 -1.0408047127639388 -1.0743451936703188
decision_type=2 2 2 2 2 2 2 2 2 2 2 2 2 2 2 2 2 2 2 2 2 2 2 2 2 2 2 2 2 2
left_child=1 23 9 7 25 16 -6 -4 -7 -3 12 17 24 19 22 28 -2 -12 20 -9 -18 -22 -10 -1 -11 27 -27 -5 -16 -29
right_child=5 2 3 4 6 8 -8 13 14 10 11 -13 -14 -15 15 -17 18 -19 -20 -21 21 -23 -24 -25 -26 26 -28 29 -30 -31
leaf_value=-0.018164454754617698 -0.006812707496842799 -0.022274857745147671 -0.019344677912692232 -0.011869098991155624 0.0067692213731151644 -0.0025659181449251872 0.018512697011323239 -0.00024168187025875513 0.015810751719982363 -0.011918623613995276 -0.0146507293658538 0.020843636253002017 -0.026514287171480452 0.010173246660815495 0.0071061369449157141 0.033404030517808034 0.0039412178885605605 -0.00051083792582551585 -0.0011292047803587418 -0.0078353265289260506 0.0024751278690746405 0.02374081286375947 -0.0044127059026504867 -0.0076243237591211883 0.0012242084889051816 -0.0057594201574102041 0.019705056731722185 0.0081188161011336232 0.024163341970852344 -0.00037234868935447085
leaf_weight=53 52 26 30 29 177 24 82 158 24 79 36 22 23 32 29 28 90 109 94 183 20 33 20 109 30 20 28 56 20 284
leaf_count=53 52 26 30 29 177 24 82 158 24 79 36 22 23 32 29 28 90 109 94 183 20 33 20 109 30 20 28 56 20 284
internal_value=-2.37887e-12 -0.00164849 -0.000561086 0.00132586 0.00467078 0.00594823 0.0104872 -0.00428498 0.0127881 -0.00682575 -0.00548235 -0.000745794 -0.0114748 -0.00307374 0.0158336 0.0210995 0.00251645 -0.00402143 0.00456335 -0.00431686 0.00830531 0.015716 0.00661827 -0.0110726 -0.00830133 0.00105817 0.00909486 1.27447e-05 0.0140683 0.0010262
internal_weight=2000 1566 1404 1079 676 434 259 403 145 325 299 167 132 373 121 77 289 145 237 341 143 53 44 162 109 417 48 369 49 340
