tree
version=v4
num_class=1
num_tree_per_iteration=1
label_index=0
max_feature_idx=39
objective=regression
feature_names=Component5_fraction Component3_Property1 Component4_fraction Component2_fraction Property1_mean Component1_Property1 Component1_fraction Component3_fraction Component4_Property1 Component2_Property1 Component5_Property1 Property1_std Property1_max Property1_min Property8_std Component4_Property3 Component3_Property4 Component4_Property10 Component2_Property6 Component2_Property8 Component5_Property4 Component1_Property8 Component4_Property6 Component1_Property2 Property7_mean Component2_Property3 Component2_Property4 Component5_Property9 Component3_Property6 Property2_max Component3_Property8 Component2_Property9 Property10_max Property2_mean Component2_Property10 Property5_mean Component4_Property8 Property10_min Component5_Property10 Component5_Property3
feature_infos=[-1.4432149549842339:2.194551767414576] [-3.0092845207792114:2.8694751749189109] [-2.3536976069500075:1.1236943830563355] [-1.1050008307166337:1.9605628739148144] [-3.626707288528404:3.0917074156731839] [-2.9443259388623559:2.9817423438570092] [-1.1148884748189714:1.9298573107739021] [-1.0863220989713205:1.9316416822309519] [-3.0300735988959007:2.9828549528750314] [-1.7192392865983002:3.0517006532723983] [-3.5731551022567758:1.0322353308206855] [-2.4633937048039565:3.6804110208670049] [-3.2955892623468133:3.0916286631471226] [-3.544744617698067:2.8445794852718391] [-2.3746755670365052:3.9563143668821481] [-2.4934569599317689:3.0246642120110661] [-3.0867858750721169:3.1358004965226809] [-3.1084910070408491:3.0433958416657361] [-2.5129542024528781:3.0384687186590318] [-1.7843218154068194:3.0420502416033965] [-3.180910575964031:1.6304460008198225] [-2.9831086286865651:2.9592846825428496] [-3.0311354121342284:3.0834813662147851] [-2.9632259579886839:2.9397538736952944] [-3.2442126344896494:4.1323325350706952] [-2.9333709382245061:2.9302061702065161] [-3.0362610107314225:3.0767043898214803] [-3.3912205262737705:1.6873575737243884] [-3.4280549749676439:3.1232189578542928] [-3.092662911765268:3.1708859940865057] [-3.0296356529809692:2.9990892293641047] [-1.4229776261693556:3.2585970667568298] [-3.0585846329444584:2.8966000703607899] [-3.885859402725675:3.3991574917756529] [-1.8060251750535961:3.0365319449786181] [-3.1356544211885362:3.1832533255214912] [-2.993034857712348:2.9779181958666019] [-3.0043514126942599:3.0429897450520489] [-3.1256103956978709:1.7264504459083223] [-3.2549934249291805:1.4381869036987729]
tree_sizes=2771 2768 2789 2787 2777 2780 2787 2796 2789 2775 2782 2798 2785 2801 2807 2803 2796 2802 2798 2797 2819 2801 2822 2826 2828 2842 2825 2838 2842 2850 2844 2844 2864 2851 2844 2856 2861 2856 2861 2857 2873 2879 2861 2873 2881 2870 2869 2871 2884 2871 2901 2896 2875 2879 2895 2897 2880 2902 2901 2909 2890 2911 2893 2918 2916 2881 2913 2918 2920 2908 2922 2922 2914 2913 2925 2918 2927 2942 2922 2933 2924 2938 2922 2939 2923 2946 2930 2941 2940 2933 2930 2941 2922 2940 2939 2932 2944 2940 2956 2944 2927 2952 2950 2933 2950 2922 2931 2947 2944 2957 2930 2950 2963 2917 2955 2943 2921 2951 2948 2935 2937 2934 2942 2959 2935 2929 2954 2948 2942 2960 2958 2948 2944 2958 2947 2952 2946 2954 2958 2957 2967 2958 2968 2966 2944 2965 2959 2959 2963 2977 2979 2966 2975 2978 2969 2973 2962 2964 2965 2969 2983 2976 2961 2974 2975 2988 2982 2969 2981 2975 2975 2974 2988 2968 2986 2977 2983 2975 2978 2980 2983 2981 2992 2983 2996 2975 2983 2983 2978 2995 2989 2987 3004 2984 2991 2987 2978 2983 2994 2986 2993 2986 2980 2992 2983 2974 3001 2996 2982 2989 3002 3016 2982 2976 2999 3003 2991 2993 3003 2979 3005 3008 2994 3002 3011 3010 3003 2987 3006 2989 3000 3003 2994 3012 3020 2994 3010 2999 3009 2999 2990 2992 3002 2994 3006 3010 3005 3014 3014 3007 2994 3027 3005 3011 3003 3015 3026 3017 3014 3006 3018 3033 3011 3030 3049 3025 3035 3030 3024 3011 3023 3017 3049 3024 3028 3029 3022 3025 3017 3029 3009 3030 3043 3018 3058 3032 3025 3037 3041 3037 3028 3024 3031 3038 3026 3042 3033 3027 3045 3028 3013 3024 3039 3012 3042 3027 3047 3019 3046 3024 3052 3031 3041 3028 3022 3040 3017 3020 3018 3028 3027 3024 3032 3025 3041 3017 3042 3030 3011 3012 3042 3018 3021 3032 3026 3031 3018 3042 3044 3030 3034 3024 3035 3024 3020 3024 3039 3039 3023 3021 3027 3019 3030 3050 3027 3026 3029 3029 3039 3030 3041 3021 3036 3029 3026 3029 3037 3031 3028 3027 3037 3031 3040 3029 3027 3038 3020 3025 3031 3029 3020 3029 3025 3031 3030 3036 3036 3028 3032 3041 3025 3039 3022 3038 3037 3036 3020 3035 3020 3025 3036 3016 3024 3026 3047 3044 3033 3027 3031 3029 3032 3021 3017 3030 3037 3033 3023 3016 3032 3039 3034 3018 3034 3031 3019 3024 3023 3037 3038 3019 3021 3025 3031 3050 3038 3034 3025 3035 3032 3013 3031 3024 3035 3042 3025 3014 3038 3030 3030 3022 3030 3053 3027 3030 3021 3028 3015 3061 3035 3033 3022 3025 3026 3027 3031 3045 3046 3032 3034 3012 3034 3026 3034 3019 3021 3016 3028 3007 3032 3040 3020 3031 3044 3025 3034 3026 3030 3016 3018 3038 3043 3028 3033 3025 3024 3045 3049 3028 3022 3025 3037 3040 3036 3031 3019 3033 3012 3031 3025 3035 3027 3026 3035 3033 3018 3027 3025 3036 3025 3034 3026 3053 3024 3030 3021 3020 3031 3034 3026 3022 3049 3021 3033 3031 3012 3044 3010 3032 3036 3035 3020 3041 3035 3035 3025 3015 3024 3047 3020 3045 3036 3037 3041 3018 3027 3027 3033 3024 3048 3046 3019 3050 3017 3026 3034 3028 3034 3043 3019 3038 3039 3030 3031 3031 3035 3033 3028 3024 3033 3025 3013 3043 3040 3031 3021 3027 3030 3030 3034 3019 3032 3025 3029 3024 3028 3033 3034 3039 3023 3037 3036 3039 3025 3017 3031 3028 3032 3031 3018 3024 3033 3043 3032 3034 3040 3034 3062 3033 3030 3039 3031 3022 3039 3043 3029 3021 3034 3035 3037 3033 3036 3034 3030 3029 3030 3034 3031 3030 3034 3042 3022 3039 3044 3038 3029 3033 3022 3026 3039 3028 3035 3033 3045 3033 3031 3021 3030 3020 3031 3037 3032 3032 3025 3035 3035 3040 3033 3031 3024 3036 3028 3019 3021 3035 3040 3021 3030 3038 3034 3036 3032 3027 3039 3038 3025 3038 3034 3031 3015 3053 3025 3038 3029 3024 3031 3018 3039 3032 3031 3025 3043 3038 3031 3028 3021 3020 3022 3031 3016 3031 3023 3036 3043 3051 3025 3045 3029 3032 3036 3028 3036 3044 3025 3035 3038 3038 3025 3037 3032 3037 3031 3043 3045 3031 3040 3028 3048 3023 3042 3033 3046 3053 3018 3050 3049 3044 3026 3040 3035 3033 3048 3018 3040 3018 3038 3033 3045 3035 3038 3033 3047 3027 3030 3020 3039 3045 3060 3039 3046 3034 3034 3028 3021 3028 3044 3036 3038 3033 3026 3051 3035 3015 3032 3032 3029 3026 3033 3028 3027 3034 3039 3032 3045 3039 3029 3022 3036 3032 3031 3019 3034 3035 3032 3041 3035 3028 3035 3032 3045 3030 3031 3025 3026 3029 3030 3037 3040 3039 3024 3037 3033 3044 3043 3030 3035 3050 3028 3026 3023 3021 3029 3032 3047 3045 3027 3048 3029 3040 3027 3021 3037 3038 3041 3028 3042 3032 3039 3034 3028 3023 3042 3039 3030 3032 3037 3044 3047 3030 3037 3045 3017 3050 3038 3041 3040 3050 3035 3041 3046 3032 3033 3043 3038 3041 3045 3037 3046 3047 3024 3039 3040 3047 3032 3045 3031 3031 3044 3038 3041 3030 3035 3026 3045 3020 3021 3034 3038 3032 3024 3021 3026 3027 3036 3044 3027 3042 3025 3029 3037 3027 3036 3030 3031 3044 3030 3037 3025 3040 3023 3042 3032 3032 3033 3041 3026 3026 3032 3044 3049 3039 3044 3026 3034 3029 3039 3026 3027 3045 3040 3034 3039 3035 3040 3044 3042 3029 3050 3037 3038 3040 3048 3048 3033 3036 3033 3035 3034 3038 3039 3025 3019 3025 3030 3009 3038 3045 3043 3043 3040 3017 3035 3033 3033 3027 3034 3031 3049 3022 3034 3037 3038 3046 3041 3047 3044 3043 3046 3029 3051 3044 3043 3020 3037 3037 3030 3036 3043 3032 3033 3033

Tree=0
num_leaves=31
num_cat=0
split_feature=0 3 3 4 0 4 3 0 4 2 0 4 2 2 4 6 6 8 9 0 3 3 7 2 4 1 4 1 4 7
split_gain=679.936 153.904 151.207 78.0683 74.2405 47.2411 30.9798 28.4123 24.9405 21.3315 20.1009 17.8625 13.8473 13.6953 13.3028 13.2044 12.829 11.8815 10.2892 10.0183 9.63889 9.3142 9.06806 8.96942 8.74715 8.53449 8.47585 7.83146 7.65085 7.53624
threshold=0.12478794260145983 0.27450283636751821 0.64237048092329208 -0.20557272862746367 -0.87873391185338412 -0.61817497152959466 1.4394170441274685 0.75198910163573751 0.61422564841072058 0.16563740621785333 -1.0041741436602396 0.91090077429770566 -0.61500161194683567 0.44950614009592227 -0.77220217099393673 0.43793187583339427 0.80330137010453917 -0.56747871051811749 0.57958700621475001 0.75198910163573751 -0.5838550009292871 -0.5838550009292871 0.21140232694565672 0.094670222748336072 -0.73071484137160581 0.071807574596368912 0.21159626698911257 -0.042071907812987641 -0.57877688088775836 0.93571363443420219
decision_type=2 2 2 2 2 2 2 2 2 2 2 2 2 2 2 2 2 2 2 2 2 2 2 2 2 2 2 2 2 2
left_child=1 4 3 15 8 23 10 12 22 25 24 16 26 28 -9 -2 20 -11 -8 -13 -5 -17 -1 -6 -3 -7 -4 -24 -12 -10
right_child=2 6 7 11 5 9 18 14 29 17 13 19 -14 -15 -16 21 -18 -19 -20 -21 -22 -23 27 -25 -26 -27 -28 -29 -30 -31
leaf_value=-0.11758506262409139 0.045316294114412771 -0.19577685715318943 -0.12975571377688655 0.12477949425381832 -0.099827196894652429 -0.051990152810860134 -0.17970522738813163 -0.050110578875355159 -0.055186891186187567 -0.020842071101621212 -0.14399859805326126 0.10027771155772336 -0.020173587515711751 -0.040628109668445433 0.02092908924449579 0.025440009971528829 0.055289317351934139 0.044299383075533466 -0.11849250586872968 0.1600182714725574 0.080101098809912993 -0.038693512563835006 -0.1034325529644905 -0.042452908715922943 -0.12116874409189141 0.00090781229411553144 -0.048596594191679866 -0.049538892404465372 -0.08026521933785867 0.0062128984525939082
leaf_weight=118 172 22 31 88 55 61 99 33 77 36 31 52 44 56 131 54 94 126 38 61 107 39 56 54 55 61 22 52 48 27
leaf_count=118 172 22 31 88 55 61 99 33 77 36 31 52 44 56 131 54 94 126 38 61 107 39 56 54 55 61 22 52 48 27
internal_value=-0.0168786 -0.071128 0.045789 0.0710394 -0.0448029 -0.0154391 -0.125664 -0.01874 -0.0797725 0.00604009 -0.101713 0.0988163 -0.0616411 -0.0784582 0.00663452 0.0289023 0.0856353 0.0298235 -0.162727 0.132527 0.100264 -0.00145469 -0.0984216 -0.0714032 -0.142485 -0.0255412 -0.096067 -0.0774838 -0.105275 -0.0392466
internal_weight=2000 1072 928 667 723 393 349 261 330 284 212 402 97 135 164 265 289 162 137 113 195 93 226 109 77 122 53 108 79 104
internal_count=2000 1072 928 667 723 393 349 261 330 284 212 402 97 135 164 265 289 162 137 113 195 93 226 109 77 122 53 108 79 104
is_linear=0
shrinkage=1


Tree=1
num_leaves=31
num_cat=0
split_feature=0 3 3 4 4 0 8 0 0 0 6 2 2 2 0 2 4 4 2 7 1 0 2 3 4 3 3 0 7 9
split_gain=553.559 137.997 108.513 66.219 48.8077 33.555 25.9067 25.8289 21.9332 20.8269 14.3089 13.5735 13.148 13.1468 12.7981 22.2988 12.5101 12.0688 11.6033 10.9291 9.87191 9.77285 9.50642 9.25488 8.46439 7.8208 7.51931 7.25715 6.78299 6.40121
threshold=1.0000000180025095e-35 0.51974793273803421 0.27450283636751821 -0.29485803406963079 0.43482774169631672 0.62654886982888203 0.095747308742221357 -0.62785344823967304 -1.0041741436602396 0.37566840621517095 1.4731454429349713 0.59144050703495676 -0.40210006153828415 -0.26016569459924982 0.877429333442593 0.59144050703495676 -0.5147348777071592 0.57595094738754848 0.30757177315688794 0.39248015381779311 -0.63675366303622816 -1.0041741436602396 0.52047332356543941 1.4394170441274685 -0.19277331551630209 1.1941719477569528 -0.15467608228088447 -1.0041741436602396 -0.27147187804670658 0.76275702176335514
decision_type=2 2 2 2 2 2 2 2 2 2 2 2 2 2 2 2 2 2 2 2 2 2 2 2 2 2 2 2 2 2
left_child=2 3 4 14 7 12 21 19 -6 11 17 -5 24 -10 15 -2 -7 -11 28 -1 -21 -4 -23 27 -3 -18 -19 -8 -9 -27
right_child=1 5 6 9 8 16 23 18 13 10 -12 -13 -14 -15 -16 -17 25 26 -20 20 -22 22 -24 -25 -26 29 -28 -29 -30 -31
leaf_value=-0.087135138219555486 -0.0066598231601528828 -0.11319467752210555 -0.15396000704704188 0.032517858445644379 -0.026265493334042579 -0.017418567999266089 -0.087856663228609633 -0.0815045669614788 -0.02874219672381878 0.10502755541043979 0.075739641232620475 0.10306009675594086 -0.0066523466392287194 0.052584804897916684 0.063277889115077979 0.072298987863479922 0.070102345972321928 0.1702218901253108 0.0092226807947282663 -0.10076058260523356 -0.030891314587954966 -0.12626676039019627 -0.055983298333982627 -0.10839745932155186 -0.04318893338458088 6.0394753368114527e-05 0.11527540057897567 -0.032968273022699925 -0.023897630941743655 0.063234063124527104
leaf_weight=151 110 31 78 65 106 56 39 31 25 144 82 47 49 97 109 53 50 66 77 26 91 67 27 45 39 53 40 63 60 23
leaf_count=151 110 31 78 65 106 56 39 31 25 144 82 47 49 97 109 53 50 66 77 26 91 67 27 45 39 53 40 63 60 23
internal_value=-1.02911e-10 0.0517229 -0.0535119 0.0756066 -0.0304829 -0.00509005 -0.101447 -0.0500886 0.0070089 0.0994094 0.111989 0.0621204 -0.0463812 0.0359194 0.036752 0.0190139 0.021908 0.123879 -0.0193473 -0.0693593 -0.0464178 -0.127792 -0.106079 -0.0706211 -0.0741915 0.0393865 0.149487 -0.053955 -0.043522 0.0191787
internal_weight=2000 1017 983 716 664 301 319 436 228 444 332 112 119 122 272 163 182 250 168 268 117 172 94 147 70 126 106 102 91 76
internal_count=2000 1017 983 716 664 301 319 436 228 444 332 112 119 122 272 163 182 250 168 268 117 172 94 147 70 126 106 102 91 76
is_linear=0
shrinkage=0.1


Tree=2
num_leaves=31
num_cat=0
split_feature=0 3 3 4 4 0 4 0 2 4 0 4 2 0 2 0 3 2 4 0 0 3 2 1 3 7 4 8 6 6
split_gain=448.382 113.084 88.5781 60.5475 49.6255 33.6781 21.9558 18.3866 18.7368 17.0345 14.9578 12.9566 12.9337 12.5994 20.4855 12.3741 10.0024 9.01105 8.44956 7.78904 6.56968 6.1972 6.06659 5.80198 5.67262 5.66552 5.61753 5.43363 5.41969 5.08384
threshold=1.0000000180025095e-35 0.88761557729380802 0.64237048092329208 -0.29485803406963079 -0.049008722110548693 -0.87873391185338412 0.031135546384659905 0.62654886982888203 0.16563740621785333 0.041009128424180301 -0.62785344823967304 0.57595094738754848 0.23660458968737058 0.877429333442593 0.59144050703495676 0.877429333442593 -0.39992117865140026 0.80434205744350851 0.96998703280239973 -0.75329368004652864 0.75198910163573751 -0.39992117865140026 -0.68596879541635303 -0.66933348863117903 -0.46123245274402919 0.75463580756206572 -1.4059199190019258 -0.16300904993565363 -0.23191219699703788 -0.71907152269189767
decision_type=2 2 2 2 2 2 2 2 2 2 2 2 2 2 2 2 2 2 2 2 2 2 2 2 2 2 2 2 2 2
left_child=2 3 4 13 10 18 15 8 21 -4 16 -9 24 14 -2 -3 23 26 -6 -11 -8 -5 -13 -1 -7 -20 -12 -14 -25 -22
right_child=1 6 9 7 5 12 20 11 -10 19 17 22 27 -15 -16 -17 -18 -19 25 -21 29 -23 -24 28 -26 -27 -28 -29 -30 -31
leaf_value=-0.088896326702088121 -0.0089458748957648229 -0.074374371773491696 -0.12722846900483942 0.059430834707224149 -0.050761444162344564 0.015459880730783455 -0.014119822912934153 0.085567568442098618 0.095661597727436806 -0.097088793688823311 -0.097202444663271312 0.11180901822935739 0.0053094906061887746 0.05427268330278176 0.065069090603095181 -0.0089271162860453702 -0.10128980596051661 0.0046026443512263626 -0.025336756406893701 -0.044518653361820711 0.063772101564840838 0.011296516815370222 0.15975562532742818 -0.014456253596826604 -0.037701138678719021 0.037291381191462282 -0.037638072436675434 0.05848941747996822 -0.064345319364585138 0.010121267383893658
leaf_weight=40 127 65 123 53 128 49 44 163 98 63 20 71 25 124 53 52 86 44 52 51 33 54 42 38 34 20 76 83 51 38
leaf_count=40 127 65 123 53 128 49 44 163 98 63 20 71 25 124 53 52 86 44 52 51 33 54 42 38 34 20 76 83 51 38
internal_value=-5.91175e-11 0.0465506 -0.0481607 0.0646786 -0.0312411 -0.0066652 -0.0147876 0.0867575 0.0640716 -0.101418 -0.0583092 0.103608 0.0233668 0.0297446 0.0128474 -0.0452867 -0.0748731 -0.0328716 -0.0353457 -0.0735706 0.0162419 0.0351387 0.12963 -0.057262 -0.00631692 -0.00794005 -0.0500473 0.0461792 -0.0430444 0.0350576
internal_weight=2000 1017 983 785 746 391 232 481 205 237 355 276 191 304 180 117 215 140 200 114 115 107 113 129 83 72 96 108 89 71
internal_count=2000 1017 983 785 746 391 232 481 205 237 355 276 191 304 180 117 215 140 200 114 115 107 113 129 83 72 96 108 89 71
is_linear=0
shrinkage=0.1


Tree=3
num_leaves=31
num_cat=0
split_feature=0 3 3 4 0 8 0 4 2 2 6 6 4 3 4 3 4 4 3 4 1 1 1 3 5 6 4 0 0 3
split_gain=367.272 108.948 58.6627 53.6331 33.4166 24.9169 23.9086 18.2815 16.823 13.4242 13.3006 12.3539 10.671 10.2618 9.36005 9.10973 8.45177 7.60489 7.27159 6.93954 6.90338 6.52914 6.34328 5.92672 5.76837 5.72109 5.64545 5.61674 5.23417 5.14754
threshold=-0.25153275281910659 0.39712538455277618 1.0000000180025095e-35 -0.20557272862746367 0.62654886982888203 0.12711475268729186 0.37566840621517095 0.031135546384659905 -0.40210006153828415 0.094670222748336072 0.43793187583339427 1.4122505272231136 1.3182426361081296 -0.52254372683665806 -1.2190008518716782 1.5620395923127266 -0.77220217099393673 -0.59370703068546915 1.4394170441274685 0.049426391594630206 0.37886743392304595 0.016891580226957501 -0.88250148861288691 1.5007283182200977 0.60174689968779194 1.0000000180025095e-35 -0.80529778229726101 0.25022817440831546 -0.75329368004652864 -0.64516627502191604
decision_type=2 2 2 2 2 2 2 2 2 2 2 2 2 2 2 2 2 2 2 2 2 2 2 2 2 2 2 2 2 2
left_child=2 3 5 10 8 14 9 18 19 -5 20 21 22 -12 -1 -9 -6 -10 28 -3 27 -8 -7 25 -13 -18 -15 -2 -4 -22
right_child=1 4 7 6 16 12 11 15 17 -11 13 24 -14 26 -16 -17 23 -19 -20 -21 29 -23 -24 -25 -26 -27 -28 -29 -30 -31
leaf_value=-0.092204375598918309 -0.0012409587596478157 -0.093403566863249854 -0.11024789905382529 0.018597080864544428 -0.022976672200878203 -0.052361217586116664 0.082089625947917688 -0.045538345082201254 -0.045398076815264567 0.074034509341140364 0.021841360744390942 0.042746451229118465 0.041724819306386413 -0.071821893930124739 -0.041561795395655368 -0.095712001564411023 0.06199114504341896 0.014666136406924365 -0.13926222604513169 -0.037183894529133232 0.11130503594875336 0.11771914698430244 -0.0052962198201566939 0.0078346361273101389 0.099584813645252818 0.003960113077545944 -0.0032322179186545933 0.041494125446533199 -0.066469470771368264 0.04701171586233558
leaf_weight=44 43 54 72 84 38 36 78 119 35 91 74 57 41 24 214 52 65 53 50 37 20 151 140 70 26 23 24 108 44 33
leaf_count=44 43 54 72 84 38 36 78 119 35 91 74 57 41 24 214 52 65 53 50 37 20 151 140 70 26 23 24 108 44 33
internal_value=-4.70434e-11 0.0354282 -0.0518333 0.0559952 -0.00916108 -0.0291936 0.0770095 -0.0837439 -0.0403979 0.0474245 0.0246026 0.0936036 -0.00422008 -0.0015167 -0.0501985 -0.0607958 0.0193664 -0.00922304 -0.107383 -0.070545 0.040223 0.105583 -0.0149232 0.0295502 0.0605512 0.0468239 -0.0375271 0.0293245 -0.0936423 0.0712733
internal_weight=2000 1188 812 813 375 475 487 337 179 175 326 312 217 122 258 171 196 88 166 91 204 229 176 158 83 88 48 151 116 53
internal_count=2000 1188 812 813 375 475 487 337 179 175 326 312 217 122 258 171 196 88 166 91 204 229 176 158 83 88 48 151 116 53
is_linear=0
shrinkage=0.1


Tree=4
num_leaves=31
num_cat=0
split_feature=0 3 3 0 4 2 4 3 9 0 6 4 3 8 4 3 6 1 3 4 9 6 8 1 0 1 2 0 2 4
split_gain=301.036 69.6474 68.4959 41.0622 34.1702 22.21 20.4389 16.0924 13.1404 13.1176 11.5389 10.4268 9.9642 8.7283 8.54998 7.52121 8.17187 6.58527 6.51534 6.30375 6.07971 5.57124 5.40888 5.35329 5.14019 4.67298 4.62595 4.52414 8.0034 4.67543
threshold=0.12478794260145983 0.64237048092329208 1.0715493995716947 -0.50241321643281756 0.48158253530924056 0.16563740621785333 0.48158253530924056 -0.5838550009292871 -0.18308182131600856 0.877429333442593 0.43793187583339427 -1.1787104701100666 -0.39992117865140026 -0.13254354527335019 -1.0478264488971927 -0.52254372683665806 1.8994098529179735 -1.1308477051879229 -0.5838550009292871 0.39973644139057601 0.50044052042654008 1.168670864375684 -0.16300904993565363 0.75528434528315469 -0.75329368004652864 0.097741515522419761 -0.54403442847731853 0.62654886982888203 0.94627642438254267 -0.71094390956481635
decision_type=2 2 2 2 2 2 2 2 2 2 2 2 2 2 2 2 2 2 2 2 2 2 2 2 2 2 2 2 2 2
left_child=1 3 4 6 7 11 12 14 24 19 27 -5 17 -7 26 16 -6 -1 -8 -4 -11 23 -10 -19 -3 -13 -2 28 -9 -29
right_child=2 8 9 5 15 13 18 10 22 20 -12 25 -14 -15 -16 -17 -18 21 -20 -21 -22 -23 -24 -25 -26 -27 -28 29 -30 -31
leaf_value=-0.081809426711932309 -0.0097996225624921787 -0.13041778173086779 -0.061761783294579278 -0.079977252566216836 0.12141056584992581 0.0060399858606240107 0.007811997303823856 -0.0035691679638278277 -0.084349614737125544 -0.0038990212591468463 -0.0086716164882639293 -0.026301125067191712 -0.074602831798019228 0.054797507988140842 0.072494575445204087 0.070265194383632934 0.054136270705772482 -0.030767061185015709 -0.031124052848844303 -0.0029367026079584052 0.051744010616783742 -0.060922732402352575 -0.046220302314165684 0.021928186955240868 -0.086375799479911919 0.011368294310800378 0.049894663286121459 0.022053876341405241 0.057388705589941573 0.061829358119414084
leaf_weight=31 21 53 56 24 84 63 88 56 65 72 73 69 135 88 169 117 23 98 84 27 27 47 87 24 53 63 34 44 35 90
leaf_count=31 21 53 56 24 84 63 88 56 65 72 73 69 135 88 169 117 23 98 84 27 27 47 87 24 53 63 34 44 35 90
internal_value=-1.52411e-10 -0.036097 0.0416983 -0.021747 0.0551174 0.00711619 -0.0392243 0.0410976 -0.0813719 -0.0133055 0.0258749 -0.0193463 -0.0536112 0.034455 0.0613492 0.0877886 0.10695 -0.0394418 -0.0112033 -0.0426259 0.0112764 -0.0316702 -0.0625256 -0.0204008 -0.108397 -0.00832254 0.0271023 0.0370833 0.0198762 0.0487688
internal_weight=2000 1072 928 814 746 307 507 522 258 182 298 156 335 151 224 224 107 200 172 83 99 169 152 122 106 132 55 225 91 134
internal_count=2000 1072 928 814 746 307 507 522 258 182 298 156 335 151 224 224 107 200 172 83 99 169 152 122 106 132 55 225 91 134
is_linear=0
shrinkage=0.1


Tree=5
num_leaves=31
num_cat=0
split_feature=0 3 3 4 8 0 0 2 4 2 4 0 2 4 4 4 0 3 1 7 1 7 4 7 0 3 3 1 3 6
split_gain=245.446 69.2896 42.8353 33.4322 23.7316 18.5938 13.6251 17.0235 13.1875 12.3341 10.1441 9.2417 16.3817 8.12115 7.29432 6.83034 6.55439 6.09638 5.50689 5.2731 6.03103 5.25934 4.97161 4.61278 4.41519 4.23785 4.05943 3.98292 3.90137 3.61693
threshold=-0.12609252101225107 0.39712538455277618 0.27450283636751821 -0.29485803406963079 0.30890562590249626 0.62654886982888203 0.75198910163573751 1.0000000180025095e-35 0.031135546384659905 -0.40210006153828415 -0.83164379922960519 0.877429333442593 -0.26016569459924982 1.0014342828752592 0.56573181681352747 0.41922101842599568 -0.75329368004652864 1.6846621404979849 -0.11882438038023908 0.57355798068992969 0.27248331016283961 0.45283942944183858 -0.57877688088775836 -0.090394051174570333 -1.0041741436602396 -0.5838550009292871 1.1328606736643239 0.36567560270054855 1.4394170441274685 1.2904606957993991
decision_type=2 2 2 2 2 2 2 2 2 2 2 2 2 2 2 2 2 2 2 2 2 2 2 2 2 2 2 2 2 2
left_child=2 3 4 11 10 9 7 19 28 22 -1 12 18 25 -8 26 21 -10 -2 -5 -21 -12 -3 -9 -15 29 -7 -25 -4 -6
right_child=1 5 8 6 13 15 14 23 17 -11 16 -13 -14 24 -16 -17 -18 -19 -20 20 -22 -23 -24 27 -26 -27 -28 -29 -30 -31
leaf_value=-0.064682377014536607 -0.040352598359798215 -0.088126785308122638 -0.078379056167401637 0.0074376918035685205 0.017231047002323828 0.021965171913948978 0.068242695552256455 0.060574060192779659 -0.034210832651175832 -0.000456065502227612 -0.053949746570584406 0.045035637977222605 0.03840620302348987 0.0039060266124028146 0.10661869282009957 0.040990622067714443 -0.0085607502252333656 -0.077272613724693656 0.01226871571619995 0.0081079668210198488 0.072473627208445746 -0.017948270221599019 -0.037843039339663938 0.075614760551721824 0.054217362554894913 -0.030251962180773265 -0.013933399347459069 0.13124959550120616 -0.11188734811648988 -0.02566602262186593
leaf_weight=108 59 32 89 74 61 56 115 79 96 71 108 105 87 33 87 68 103 50 30 24 37 65 51 31 37 64 72 22 57 29
leaf_count=108 59 32 89 74 61 56 115 79 96 71 108 105 87 33 87 68 103 50 30 24 37 65 51 31 37 64 72 22 57 29
internal_value=-1.07434e-10 0.0316875 -0.0387292 0.0488326 -0.0236103 -0.00505207 0.0651751 0.0503498 -0.0702095 -0.0310548 -0.0386996 0.0215564 0.00754885 0.00225712 0.084771 0.0153786 -0.0285325 -0.048958 -0.0226151 0.0253815 0.0471494 -0.0404232 -0.0572295 0.0758856 0.0304992 -0.0105802 0.00177223 0.0987085 -0.0914611 0.00340866
internal_weight=2000 1100 900 750 608 350 469 267 292 154 384 281 176 224 202 196 276 146 89 135 61 173 83 132 70 154 128 53 146 90
internal_count=2000 1100 900 750 608 350 469 267 292 154 384 281 176 224 202 196 276 146 89 135 61 173 83 132 70 154 128 53 146 90
is_linear=0
shrinkage=0.1


Tree=6
num_leaves=31
num_cat=0
split_feature=0 3 3 4 4 0 0 2 3 4 2 4 6 4 7 1 2 0 8 0 6 4 0 9 1 13 6 6 5 2
split_gain=200.286 47.1115 46.1103 23.3753 21.8418 20.0758 15.3707 16.777 12.3144 10.4844 9.39922 8.76053 8.01195 7.22211 6.80623 6.92625 5.82647 7.97691 5.81897 5.67438 5.27675 5.07421 4.63758 4.60132 4.58351 4.33603 4.22723 4.16088 4.03422 3.99664
threshold=0.12478794260145983 1.0000000180025095e-35 1.0715493995716947 0.48158253530924056 -0.7849905926792935 -0.87873391185338412 -0.75329368004652864 0.52047332356543941 -0.27729863046614223 -0.99989592911888603 -0.18919851112973252 0.47313210247966975 -0.049227449861465496 -1.0478264488971927 0.15104305132161133 0.91318656749182703 -0.68596879541635303 1.1283097970563041 -0.13254354527335019 1.2537500288631598 0.80330137010453917 -0.57877688088775836 0.75198910163573751 1.0698010850364754 0.29182133547763317 -0.094624765827740834 1.1077759486638266 0.19435221298596428 -0.19450679592468492 -0.26016569459924982
decision_type=2 2 2 2 2 2 2 2 2 2 2 2 2 2 2 2 2 2 2 2 2 2 2 2 2 2 2 2 2 2
left_child=1 4 3 8 -1 14 11 21 13 -4 26 -3 -10 29 28 -16 17 -5 -12 23 24 -8 27 -11 25 -15 -7 -18 -6 -2
right_child=2 6 9 16 5 10 7 -9 12 19 18 -13 -14 20 15 -17 22 -19 -20 -21 -22 -23 -24 -25 -26 -27 -28 -29 -30 -31
leaf_value=-0.047205395771217719 -0.0029859361310417836 -0.087723118760105634 -0.06408874623237118 0.033243619676392812 -0.066459348194655918 0.0068488896737678683 -0.078618976382309941 0.0033266604082237885 0.029163874868714225 -0.026848379089622888 0.0051828475281273803 -0.045575281443695229 -0.01114301109313965 0.02764065044000745 -0.022491237058217619 0.031399789153400699 0.089249602895157015 0.086371756821870815 0.042443553935657491 0.025739010749169178 0.033935243398823506 -0.040726692704684153 0.1173841020545444 0.024360724625623095 0.089540587984166059 0.070006104729703214 -0.039084162196200908 0.036360734922900088 -0.026695343800462207 0.045118337208705561
leaf_weight=137 39 144 31 65 42 51 57 73 144 74 65 75 75 40 86 33 51 50 118 54 79 93 37 23 53 61 33 21 65 31
leaf_count=137 39 144 31 65 42 51 57 73 144 74 65 75 75 40 86 33 51 50 118 54 79 93 37 23 53 61 33 21 65 31
internal_value=-5.40371e-11 -0.0294433 0.0340121 0.0450222 -0.011884 -0.00206857 -0.0544713 -0.0359911 0.0334265 -0.0111172 0.0164972 -0.0732889 0.0153601 0.0464843 -0.0240024 -0.00754667 0.0720444 0.0563428 0.0292089 -0.000242231 0.0549465 -0.0551258 0.0886102 -0.014706 0.065725 0.0532277 -0.0111962 0.0738237 -0.0423036 0.0183174
internal_weight=2000 1072 928 746 630 493 442 223 522 182 267 219 219 303 226 119 224 115 183 151 233 150 109 97 154 101 84 72 107 70
internal_count=2000 1072 928 746 630 493 442 223 522 182 267 219 219 303 226 119 224 115 183 151 233 150 109 97 154 101 84 72 107 70
is_linear=0
shrinkage=0.1


Tree=7
num_leaves=31
num_cat=0
split_feature=0 3 3 4 0 8 0 2 4 2 6 1 5 2 10 7 1 1 7 3 1 1 4 0 0 10 4 4 3 9
split_gain=165.983 50.0147 26.8434 25.7706 14.8961 13.8227 11.4478 12.8918 9.6082 9.2426 8.67339 6.96631 6.43851 5.91765 5.27769 5.26909 5.65773 5.2634 5.14778 5.11114 4.61708 4.24644 4.14027 4.09429 3.97172 3.5432 3.52654 3.5214 3.50379 3.48493
threshold=-0.25153275281910659 0.39712538455277618 1.0000000180025095e-35 -0.20557272862746367 0.62654886982888203 0.12711475268729186 0.75198910163573751 0.6624076905044739 0.53924323349218062 -0.26016569459924982 0.55972170725710935 1.2536257573360399 0.063585823763334812 -0.8279031623553873 0.37140367085982556 0.57355798068992969 0.58369060127537564 -0.93376974177304273 -0.57326825616693389 1.4394170441274685 0.37886743392304595 -0.88250148861288691 -0.59370703068546915 0.75198910163573751 1.2537500288631598 -0.25425955306662329 -0.47145986192642519 -1.1266326306339831 1.8072846886832421 0.90315896856526645
decision_type=2 2 2 2 2 2 2 2 2 2 2 2 2 2 2 2 2 2 2 2 2 2 2 2 2 2 2 2 2 2
left_child=2 3 5 10 9 17 7 15 19 29 20 21 23 24 -6 -5 -17 -1 -19 26 27 -7 -11 -12 -8 -26 -4 -2 -16 -3
right_child=1 4 8 6 14 11 13 -9 -10 22 12 -13 -14 -15 28 16 -18 18 -20 -21 -22 -23 -24 -25 25 -27 -28 -29 -30 -31
leaf_value=-0.067566694691777229 -0.0010372639125721022 -0.056301127286788856 -0.073100451139112316 0.0091823745545280989 -0.0012647417884548767 -0.038094251104889232 0.037411414960829108 0.067096410336297582 -0.030981126041332425 -0.030083043917467623 -0.041541767964501763 0.051106402472309444 0.030418579203679283 0.095765307121551957 0.048116524466404728 0.019750911920246753 0.074063784037442779 -0.055950525540085339 -0.020074418211710052 -0.088943587684709779 0.053256191283947346 -3.733229784728205e-05 0.018163606728953514 0.0037035906118237311 0.038153187362920671 0.086319091600099845 -0.043182389676032301 0.030355229954162212 0.005487026514545564 -0.012194168729626614
leaf_weight=42 55 81 75 106 114 36 52 109 103 29 45 23 34 65 51 44 34 53 163 76 54 158 46 36 21 56 83 102 31 23
leaf_count=42 55 81 75 106 114 36 52 109 103 29 45 23 34 65 51 44 34 53 163 76 54 158 46 36 21 56 83 102 31 23
internal_value=-1.88463e-10 0.023817 -0.0348456 0.0377521 -0.00639435 -0.0195308 0.0523188 0.0398432 -0.0564316 -0.0272499 0.0159914 -0.000930158 -0.00610277 0.071161 0.0126523 0.0236986 0.0434258 -0.0351756 -0.0288774 -0.0676341 0.0280333 -0.00709944 -0.000491765 -0.0214327 0.0587634 0.0731829 -0.057384 0.0193579 0.0320005 -0.0465467
internal_weight=2000 1188 812 813 375 475 487 293 337 179 326 217 115 194 196 184 78 258 216 234 211 194 75 81 129 77 158 157 82 104
internal_count=2000 1188 812 813 375 475 487 293 337 179 326 217 115 194 196 184 78 258 216 234 211 194 75 81 129 77 158 157 82 104
is_linear=0
shrinkage=0.1


Tree=8
num_leaves=31
num_cat=0
split_feature=0 3 3 0 2 4 4 4 4 9 6 1 4 3 5 6 3 8 8 2 0 3 5 12 0 2 0 2 3 0
split_gain=134.517 32.6064 32.4413 22.0583 16.0392 13.8375 12.4791 9.93203 8.97655 8.93618 8.39502 8.75339 7.75868 8.8143 7.66093 5.73632 5.27139 5.23628 5.0734 5.06231 4.7321 3.79908 4.05168 3.2487 3.11714 4.04021 3.08209 3.64379 2.98827 2.90494
threshold=0.12478794260145983 0.70368175501592101 -0.093364808188255474 -0.87873391185338412 0.87530924091302564 -0.71818180022528011 1.0233643718029624 -0.54821836072187546 0.9419376579395925 -0.18308182131600856 0.80330137010453917 0.043225273614292355 1.6804965611020144 1.2554832218495819 0.17099581138762385 1.0000000180025095e-35 -0.5838550009292871 0.18133132512909847 -0.86982880119633765 -0.54403442847731853 1.2537500288631598 -0.46123245274402919 0.14698288886702079 1.020119699992668 1.0028695652494488 -0.54403442847731853 1.2537500288631598 -0.18919851112973252 -1.0130339195776898 0.877429333442593
decision_type=2 2 2 2 2 2 2 2 2 2 2 2 2 2 2 2 2 2 2 2 2 2 2 2 2 2 2 2 2 2
left_child=1 3 6 8 7 24 10 -5 18 -3 11 19 13 15 -12 26 -9 -6 -1 20 -2 22 -20 -11 25 -4 27 -7 -16 -15
right_child=2 9 5 4 17 12 -8 16 -10 23 14 -13 -14 29 28 -17 -18 -19 21 -21 -22 -23 -24 -25 -26 -27 -28 -29 -30 -31
leaf_value=-0.06390975399819368 -0.0070740287413909326 -0.078137986067212326 -0.06030189557414916 -0.037098586381900882 0.011196944328000794 0.0050167692630270194 0.086875149060691159 0.016777223038861491 -0.00079055549716417471 -0.047391170211291564 0.0024424425262447088 0.069298183784168216 0.075080970403823 -0.028648653091943782 0.070448445143798985 -0.0013443508468169189 -0.015871007085418873 0.050070983821910525 -0.033646782715287475 0.05193675739788696 0.042712698738489839 -0.047374110732697788 0.0039680015295743944 -0.011077358820024998 -0.0033400399349175578 -0.0073330561164766557 0.060368037746789366 0.042656327880104074 0.026840779446347648 0.0047529152035713194
leaf_weight=68 42 103 36 105 77 43 63 102 73 120 93 125 22 46 30 56 96 63 90 76 35 102 42 31 41 24 39 64 33 60
leaf_count=68 42 103 36 105 77 43 63 102 73 120 93 125 22 46 30 56 96 63 90 76 35 102 42 31 41 24 39 64 33 60
internal_value=-6.5424e-11 -0.0241296 0.0278738 -0.0144112 0.000697393 0.00779608 0.0452853 -0.0122366 -0.0322594 -0.0554274 0.039248 0.0496666 0.0177088 0.0136108 0.0206817 0.0258653 0.000947778 0.0286903 -0.0398661 0.0336276 0.0155563 -0.0328791 -0.0216784 -0.039936 -0.0245921 -0.0391144 0.0363019 0.0275302 0.0476063 -0.00974211
internal_weight=2000 1072 928 818 443 431 497 303 375 254 434 278 330 308 156 202 198 140 302 153 77 234 132 151 101 60 146 107 63 106
internal_count=2000 1072 928 818 443 431 497 303 375 254 434 278 330 308 156 202 198 140 302 153 77 234 132 151 101 60 146 107 63 106
is_linear=0
shrinkage=0.1


Tree=9
num_leaves=31
num_cat=0
split_feature=0 3 4 3 1 4 2 0 6 9 8 4 3 6 1 0 2 7 3 4 4 0 12 5 0 0 1 2 0 4
split_gain=111.567 35.773 21.3147 18.2761 10.5932 10.4749 10.4517 16.0078 9.674 7.32819 6.87025 6.1413 5.23689 5.39867 5.0268 4.84303 4.75664 4.61868 4.61847 4.3032 3.9418 3.93732 3.91844 3.90158 3.3488 3.29214 3.24521 3.19039 3.18187 3.15947
threshold=-0.25153275281910659 -0.52254372683665806 -0.59370703068546915 1.0000000180025095e-35 0.043225273614292355 -1.0478264488971927 1.0000000180025095e-35 1.0028695652494488 0.7424064543926816 -0.11509592717285098 -0.08103279067985629 -1.7275160529957496 0.58105920683066326 0.80330137010453917 1.2536257573360399 0.37566840621517095 -0.8279031623553873 0.33212087819374769 1.868595962775871 0.65327689106033948 -0.3436897646785903 1.0028695652494488 0.7891618234668839 0.53736263699115649 0.37566840621517095 1.2537500288631598 0.51703187835563502 -0.61500161194683567 -0.75329368004652864 1.0233643718029624
decision_type=2 2 2 2 2 2 2 2 2 2 2 2 2 2 2 2 2 2 2 2 2 2 2 2 2 2 2 2 2 2
left_child=3 4 11 5 15 -1 7 19 29 18 -7 -3 13 -13 28 27 25 -9 20 -4 -5 -14 -11 -10 -8 -17 -19 -2 -12 -6
right_child=1 2 6 9 8 10 24 17 23 22 14 12 21 -15 -16 16 -18 26 -20 -21 -22 -23 -24 -25 -26 -27 -28 -29 -30 -31
leaf_value=-0.04995730966329575 -0.027592105099133086 -0.057015579913018477 -0.021548578569679771 -0.071759473609309343 0.064775229493776953 -0.025488109162979528 0.025392730131251623 0.020616140722164087 0.013789031442461741 -0.042687445988381055 -0.012465225773663227 0.015865337380054821 -0.044042952415212749 -0.041179984878926053 0.04109746720641852 0.00073726527029421276 0.056135545342938221 0.035025278865187255 -0.10213379607750819 0.0096084007927313905 -0.033721438769377228 -0.0011641722254739073 -0.011159315575949021 0.060345949184287477 0.05475611684410131 0.0457069187425077 0.088171620965003972 0.018464296637981568 0.013810799192801558 0.10068098027859965
leaf_weight=76 21 36 131 63 117 160 83 119 54 146 143 79 61 21 28 41 67 27 26 67 48 33 54 27 73 27 20 53 68 31
leaf_count=76 21 36 131 63 117 160 83 119 54 146 143 79 61 21 28 41 67 27 26 67 48 33 54 27 73 27 20 53 68 31
internal_value=-5.61635e-11 0.0195265 0.00626548 -0.0285683 0.0422336 -0.0159316 0.0174772 0.00819597 0.0570907 -0.0463796 -0.00945053 -0.0190827 -0.0120436 0.00388582 0.00128593 0.0259549 0.0372252 0.031099 -0.0641967 -0.0110056 -0.0553106 -0.0289898 -0.0341749 0.029308 0.0391333 0.0185929 0.0576407 0.00539424 -0.00399712 0.072296
internal_weight=2000 1188 750 812 438 475 520 364 229 337 399 230 194 100 239 209 135 166 137 198 111 94 200 81 156 68 47 74 211 148
internal_count=2000 1188 750 812 438 475 520 364 229 337 399 230 194 100 239 209 135 166 137 198 111 94 200 81 156 68 47 74 211 148
is_linear=0
shrinkage=0.1


Tree=10
num_leaves=31
num_cat=0
split_feature=0 3 4 3 3 1 4 6 9 7 4 6 2 0 8 0 2 0 4 9 12 5 0 0 13 8 2 0 3 0
split_gain=90.6377 30.6908 17.5601 14.3669 10.3652 8.55799 8.24382 8.18551 7.02179 6.79003 6.35725 5.90692 5.80965 6.16933 5.36099 4.96932 6.26278 4.72791 4.02186 4.15688 3.56553 3.5607 3.32554 3.13836 2.9638 2.80437 2.62984 2.4913 2.36732 2.35399
threshold=-0.37697298462596213 -0.5838550009292871 0.23143305765650049 1.0000000180025095e-35 1.1328606736643239 0.70411603023831848 -0.60671560940470726 0.80330137010453917 -0.42571819540085754 -0.69398680741502472 1.5499574253537693 1.4122505272231136 -0.33113287806876707 1.0028695652494488 0.16990676088073048 0.75198910163573751 0.94627642438254267 1.0028695652494488 1.0233643718029624 1.3418298569651734 0.7891618234668839 0.19729273939218678 0.75198910163573751 0.877429333442593 -1.007153443866101 0.55082578463541221 0.44950614009592227 0.62654886982888203 0.64237048092329208 0.25022817440831546
decision_type=2 2 2 2 2 2 2 2 2 2 2 2 2 2 2 2 2 2 2 2 2 2 2 2 2 2 2 2 2 2
left_child=3 6 4 5 7 14 23 15 28 -7 12 18 13 -4 24 16 -3 -6 19 29 -10 -16 -13 26 -1 -11 -2 -9 -5 -8
right_child=1 2 10 8 17 9 11 27 20 25 -12 22 -14 -15 21 -17 -18 -19 -20 -21 -22 -23 -24 -25 -26 -27 -28 -29 -30 -31
leaf_value=-0.064902689449232207 -0.0094011822142280078 -0.012809157488116807 -0.011439765292323299 -0.048533677948372711 -0.042702923564786985 -0.040474462995062709 0.038646508967503906 -0.047872119544840913 -0.042265310091336807 0.0089880700200615869 0.058924306725913839 0.007964394274441634 0.03624324823887843 0.027254347361036036 -0.024613753897584467 0.026906828283306178 0.024693965755731746 -0.0047431649165410629 0.083414829104411892 0.0079917025837031291 -0.013084948691539467 0.0075664674687700778 0.046755733295606505 0.037737297591520474 -0.030035649301496405 0.048115074605895924 0.031208507522292761 -0.0098650980794004039 -0.082305825370199537 0.063654529156294742
leaf_weight=29 52 129 90 35 92 23 60 34 166 62 44 51 106 76 73 107 68 51 41 22 56 65 39 40 153 26 23 35 51 101
leaf_count=29 52 129 90 35 92 23 60 34 166 62 44 51 106 76 73 107 68 51 41 22 56 65 39 40 153 26 23 35 51 101
internal_value=-4.9462e-11 0.0162969 0.0050944 -0.0278083 -0.00627454 -0.0160215 0.0380229 0.0025011 -0.0443022 0.00790396 0.0236589 0.046412 0.0179542 0.00627561 -0.0243207 0.00955868 0.000136083 -0.0291648 0.0551059 0.0487635 -0.0349045 -0.0094564 0.024774 0.0151167 -0.0355914 0.0205483 0.00305246 -0.0285932 -0.0685613 0.0543348
internal_weight=2000 1261 832 739 516 431 429 373 308 111 316 314 272 166 320 304 197 143 224 183 222 138 90 115 182 88 75 69 86 161
internal_count=2000 1261 832 739 516 431 429 373 308 111 316 314 272 166 320 304 197 143 224 183 222 138 90 115 182 88 75 69 86 161
is_linear=0
shrinkage=0.1


Tree=11
num_leaves=31
num_cat=0
split_feature=0 3 3 4 0 2 4 10 7 1 6 3 3 9 6 5 1 2 4 5 4 9 7 10 4 0 0 37 1 7
split_gain=75.0759 21.8389 17.5264 16.6481 13.4017 12.656 8.89839 7.04538 5.51596 6.81083 5.51075 4.66814 4.47722 4.14119 4.01579 6.40681 4.07102 3.87008 3.11936 3.03092 3.01248 2.74093 2.3588 2.32209 2.2151 2.30662 2.09547 2.07053 1.96559 1.95526
threshold=0.25022817440831546 1.4394170441274685 -0.093364808188255474 -1.0478264488971927 -0.75329368004652864 0.23660458968737058 -0.99989592911888603 -0.31747900355705455 0.21140232694565672 0.29182133547763317 -0.29280711270889531 1.5007283182200977 -0.70647754911454508 0.57958700621475001 0.80330137010453917 0.17099581138762385 0.19268272507826698 -0.89887034582490455 0.65327689106033948 -0.18888937703168299 1.1538029937640373 0.48024922103816153 0.93571363443420219 0.75164145188900267 -1.9451685578833355 -0.37697298462596213 -0.75329368004652864 -0.25723806369016017 -1.2199925040550978 0.27176160256970222
decision_type=2 2 2 2 2 2 2 2 2 2 2 2 2 2 2 2 2 2 2 2 2 2 2 2 2 2 2 2 2 2
left_child=1 3 7 24 8 12 27 17 19 -10 11 23 -6 26 16 -16 28 -2 29 -5 -14 -13 -11 -8 -1 -26 -3 -4 -9 -7
right_child=2 13 6 4 5 18 10 14 9 22 -12 21 20 -15 15 -17 -18 -19 -20 -21 -22 -23 -24 -25 25 -27 -28 -29 -30 -31
leaf_value=-0.065034080942471817 0.00012529075752492204 -0.077147021889686584 -0.0037935357028618458 -0.044195610436686683 0.0087975000986805201 0.0094112251399865923 0.026088928109467297 0.014083611592650414 -0.02570016060774101 -0.001494361828857412 -0.0023804912007406856 -0.0084523891186657953 -0.026573677596752533 -0.026612154534539315 0.0078540088059227981 0.055628210101993036 0.070109548011705991 0.033125039422279831 0.041374478209763768 -0.020244262639405958 0.015158663867041469 0.030226567550562324 0.03243671842385084 0.0548868379067807 -0.044528178356359742 -0.016841240332502387 -0.049021826625836123 -0.043923494680267239 0.047580020476219266 0.035266567345120403
leaf_weight=30 66 52 20 86 77 127 84 22 82 42 134 53 128 45 61 52 84 77 64 137 20 28 40 42 87 46 54 36 86 38
leaf_count=30 66 52 20 86 77 127 84 22 82 42 134 53 128 45 61 52 84 77 64 137 20 28 40 42 87 46 54 36 86 38
internal_value=-7.37273e-12 -0.0165719 0.0226516 -0.0112392 -0.00557018 0.00608474 0.0073526 0.0362089 -0.0192429 -0.00532139 0.0134196 0.0236478 -0.0107593 -0.0520289 0.0447957 0.0298386 0.0535986 0.0178944 0.0226346 -0.0294811 -0.0209342 0.00491811 0.0150574 0.0356882 -0.0404888 -0.0349522 -0.0628191 -0.0295914 0.0407567 0.0153658
internal_weight=2000 1155 845 1004 841 454 397 448 387 164 341 207 225 151 305 113 192 143 229 223 148 81 82 126 163 133 106 56 108 165
internal_count=2000 1155 845 1004 841 454 397 448 387 164 341 207 225 151 305 113 192 143 229 223 148 81 82 126 163 133 106 56 108 165
is_linear=0
shrinkage=0.1


Tree=12
num_leaves=31
num_cat=0
split_feature=0 3 8 4 4 2 0 3 3 4 6 5 0 9 4 6 1 4 3 6 1 12 2 2 0 0 0 6 3 5
split_gain=61.6762 20.2181 14.1953 10.5636 8.1573 7.58451 9.61207 7.10437 5.83112 4.33368 3.89162 4.86469 3.60122 3.44656 3.3982 3.20709 3.17566 2.98944 3.03191 2.96793 3.81909 2.91174 2.90031 2.89215 2.75924 2.55781 2.42888 2.2279 2.20848 2.13594
threshold=-0.12609252101225107 -0.21598735637351338 0.12711475268729186 0.63791669360303838 -0.91219157582350741 -0.26016569459924982 1.2537500288631598 0.21319156227488922 -0.5838550009292871 1.0233643718029624 1.0468810329519689 -0.82458366010923201 -1.0041741436602396 0.26530133767577063 0.96998703280239973 0.80330137010453917 -0.85771683601304549 1.5499574253537693 1.8072846886832421 1.4731454429349713 -0.023633325536087348 -1.3372727282019778 0.30757177315688794 0.73337487397399126 -1.1296143754670951 0.62654886982888203 -0.87873391185338412 -0.71907152269189767 1.1328606736643239 0.063585823763334812
decision_type=2 2 2 2 2 2 2 2 2 2 2 2 2 2 2 2 2 2 2 2 2 2 2 2 2 2 2 2 2 2
left_child=2 4 7 5 21 6 28 10 19 13 16 -12 -9 15 22 -6 -1 18 27 20 -4 -2 -10 -14 -24 -7 -18 -5 -3 -21
right_child=1 3 8 17 9 25 -8 12 14 -11 11 -13 23 -15 -16 -17 26 -19 -20 29 -22 -23 24 -25 -26 -27 -28 -29 -30 -31
leaf_value=-0.044411432156057071 -0.023265297750809363 -0.016687592320902424 -0.0062827342513786721 0.052715611586777067 0.046981454414024855 0.0050913928097320931 0.012910751507835182 -0.061848514666232993 -0.043270000582560898 0.05935050651860925 -0.079912369212378639 -0.025428087898252308 -0.043772368393838412 0.018520338541077479 0.0020619464811642428 0.0228655398527489 -0.020374812669578499 0.053795579020780596 -0.011016140341758728 -0.032070677165085305 0.030047198453618109 0.014525426674944658 -0.028038695112515527 -0.0025122188274627148 0.0037664797127326117 0.034511162504680795 0.0015761867398396134 0.015468676277391969 -0.037619150223230924 0.011397564411163331
leaf_weight=33 28 113 46 26 157 90 92 85 52 65 23 57 65 134 74 85 118 33 25 26 78 75 65 23 47 44 88 42 91 20
leaf_count=33 28 113 46 26 157 90 92 85 52 65 23 57 65 134 74 85 118 33 25 26 78 75 65 23 47 44 88 42 91 20
internal_value=-3.27898e-11 0.0158843 -0.0194142 0.00247411 0.0295903 -0.00498729 -0.0139231 -0.0308508 -0.00562293 0.0355083 -0.0220015 -0.0410923 -0.0471683 0.0313867 -0.0157267 0.038511 -0.0156113 0.0279376 0.0187622 0.00852229 0.01657 0.00425222 -0.0237532 -0.0329885 -0.0146919 0.0147516 -0.0109977 0.0297102 -0.0260247 -0.0131714
internal_weight=2000 1100 900 556 544 430 296 492 408 441 319 80 173 376 238 242 239 126 93 170 124 103 164 88 112 134 206 68 204 46
internal_count=2000 1100 900 556 544 430 296 492 408 441 319 80 173 376 238 242 239 126 93 170 124 103 164 88 112 134 206 68 204 46
is_linear=0
shrinkage=0.1


Tree=13
num_leaves=31
num_cat=0
split_feature=0 3 2 0 6 1 5 0 2 6 8 7 10 4 0 1 8 7 4 1 10 2 5 1 3 8 2 9 10 1
split_gain=52.2938 16.0356 11.6827 13.6073 9.56139 10.358 8.91346 7.74861 10.5988 5.7684 5.06927 5.02149 4.47012 4.18151 4.1701 4.00884 3.24702 3.21868 3.18773 2.99201 2.712 2.66177 2.51625 2.42741 2.20305 2.0005 1.82167 1.82116 1.79248 1.75824
threshold=0.37566840621517095 -0.27729863046614223 -0.47306724500780123 1.2537500288631598 1.1077759486638266 0.11892839597066551 -0.12160381007164518 -0.75329368004652864 -0.26016569459924982 -0.23191219699703788 -0.12382479887328349 -0.21111260242266122 -0.71735249470544105 -0.5278611725708876 -0.62785344823967304 0.043225273614292355 0.41763941721369086 -0.45254970491884294 -0.56812777976181483 -1.1528340905587482 -0.40661424202998192 0.23660458968737058 0.72514492569983524 -0.61451743237708711 0.82630430320117898 -0.057281722900353098 1.0172436078520601 -0.33472955511903923 -0.49566574613139586 0.26568751832094317
decision_type=2 2 2 2 2 2 2 2 2 2 2 2 2 2 2 2 2 2 2 2 2 2 2 2 2 2 2 2 2 2
left_child=1 4 3 13 5 14 25 10 17 -7 -3 20 -4 -2 19 -13 -14 -9 -10 -1 -5 -16 -8 -19 29 -6 -20 -12 -17 -15
right_child=2 7 12 11 6 9 22 8 18 -11 27 15 16 24 21 28 -18 23 26 -21 -22 -23 -24 -25 -26 -27 -28 -29 -30 -31
leaf_value=-0.058062752634286889 -0.021599476910087952 -0.050516730054452279 0.015564216842705553 -0.012485975765933594 -0.063855030157548551 0.039280043467879298 -0.0087418534719982937 -0.051021550098577374 -0.017508175823947088 0.0065837488744642826 -0.038664132904480487 0.022418145776579256 0.036821035906099357 0.0012086215039798574 -0.012472356355511676 0.035064838411441694 0.06478654930337531 -0.048044907584786418 9.9250426577342731e-05 -0.014819203858496622 0.023528533870273313 0.01825903728345616 0.030928966154654819 -0.011217402374105795 -0.011101903310366746 -0.031715709380805493 0.023283921609874126 -0.01523786634157755 0.068205936012022642 0.024674749777453847
leaf_weight=20 86 131 66 30 34 105 67 65 68 111 51 57 130 67 51 24 61 25 91 80 69 63 21 63 58 45 54 95 51 61
leaf_count=20 86 131 66 30 34 105 67 65 68 111 51 57 130 67 51 24 61 25 91 80 69 63 21 63 58 45 54 95 51 61
internal_value=-3.11178e-11 -0.0126592 0.0206545 0.0117922 -0.000857346 0.00702939 -0.0211645 -0.0236168 -0.0140667 0.0224778 -0.0362352 0.0296398 0.0379998 -0.00336518 -0.00856337 0.0424083 0.0457524 -0.0341452 0.000355904 -0.0234679 0.012615 0.00451078 0.000725047 -0.0216798 0.00506574 -0.0455478 0.00873354 -0.023421 0.0576008 0.0123917
internal_weight=2000 1240 760 503 597 430 167 643 366 216 277 231 257 272 214 132 191 153 213 100 99 114 88 88 186 79 145 146 75 128
internal_count=2000 1240 760 503 597 430 167 643 366 216 277 231 257 272 214 132 191 153 213 100 99 114 88 88 186 79 145 146 75 128
is_linear=0
shrinkage=0.1


Tree=14
num_leaves=31
num_cat=0
split_feature=0 3 4 3 0 2 4 9 9 4 7 4 1 3 7 4 6 2 0 6 1 0 2 10 2 8 10 5 5 9
split_gain=42.358 13.7211 10.6395 9.73624 9.06828 8.19232 6.09656 3.63852 3.3419 3.25633 3.11921 3.10055 3.02088 2.98118 2.84608 2.83408 2.75462 2.73006 4.44824 2.34764 2.72607 2.32521 1.99496 1.91205 2.05515 1.83614 1.76234 1.75918 1.72165 1.6742
threshold=0.37566840621517095 1.0715493995716947 -0.61817497152959466 0.82630430320117898 -1.0041741436602396 0.80434205744350851 0.19842769980719396 0.56203676286451953 -0.59304187472060332 -1.7275160529957496 -0.21111260242266122 -1.4547563070348846 -0.085245173632069779 -1.0130339195776898 0.03032450007352035 1.1538029937640373 0.80330137010453917 -0.68596879541635303 1.6300707242837265 1.2295657800875415 0.99983291347595571 -0.62785344823967304 0.37853895662640519 0.19681750626043618 -0.96983752929442169 -0.3768688754269745 0.097843479135019909 -0.12160381007164518 -0.21438381662296593 -0.55700423910337526
decision_type=2 2 2 2 2 2 2 2 2 2 2 2 2 2 2 2 2 2 2 2 2 2 2 2 2 2 2 2 2 2
left_child=1 2 11 6 10 15 9 23 -3 -2 28 -1 -12 29 -7 19 -15 18 -8 20 -6 26 -23 -5 -25 -10 -13 -21 -4 -11
right_child=3 8 4 7 5 14 17 -9 25 13 12 21 -14 16 -16 -17 -18 -19 -20 27 -22 22 -24 24 -26 -27 -28 -29 -30 -31
leaf_value=-0.039749106029048568 -0.016346710371518774 -0.054501357328024559 -0.043157981979576029 -0.020642484670194486 -0.0063588935646459862 0.017146395570784807 0.017823461083193812 0.022140887175220999 -0.041992694512009626 0.05717427519938121 -0.024721348535253162 -0.018551136049838952 0.0037336973796805576 0.02022737185833251 0.045375833012163642 0.021004425407283839 -0.0047536241006794931 0.049320341505226684 0.060458993655629456 -0.046165976619390266 0.025224852633916519 -0.016707321402616798 0.010946543437312358 -0.0096885409943449005 0.027057152095696202 -0.018513083789730444 -0.047832582290134124 -0.010273284289158052 -0.017620951850161267 0.02566688288934529
leaf_weight=80 28 61 44 72 159 125 104 50 51 26 57 61 108 167 50 45 60 105 32 22 33 75 40 45 23 96 31 36 66 48
leaf_count=80 28 61 44 72 159 125 104 50 51 26 57 61 108 167 50 45 60 105 32 22 33 75 40 45 23 96 31 36 66 48
internal_value=3.10443e-11 -0.0113933 -0.00667074 0.018589 -0.000368664 0.00807055 0.0251238 -0.00101518 -0.0348244 0.0162723 -0.014792 -0.0230298 -0.00609623 0.0193066 0.0252119 -0.00209808 0.0136245 0.0372073 0.0278554 -0.00625653 -0.000930437 -0.0165682 -0.00708859 -0.00928521 0.00274015 -0.0266591 -0.0284177 -0.0238878 -0.0278358 0.036737
internal_weight=2000 1240 1032 760 745 470 570 190 208 329 275 287 165 301 175 295 227 241 136 250 192 207 115 140 68 147 92 58 110 74
internal_count=2000 1240 1032 760 745 470 570 190 208 329 275 287 165 301 175 295 227 241 136 250 192 207 115 140 68 147 92 58 110 74
is_linear=0
shrinkage=0.1


Tree=15
num_leaves=31
num_cat=0
split_feature=0 3 4 3 2 0 4 6 5 6 1 4 0 8 5 6 7 1 10 8 5 2 0 2 0 1 0 8 7 38
split_gain=35.3754 14.2566 8.90712 7.52555 5.86189 10.7241 4.87321 4.84605 3.891 3.62631 3.54481 2.91517 2.87115 2.86602 2.75488 3.51565 2.74282 2.66441 2.52997 2.41377 2.41222 2.35151 3.22956 1.92904 1.85718 1.7698 1.7342 1.67787 1.52825 1.52727
threshold=-0.37697298462596213 -0.5838550009292871 -1.1787104701100666 -0.64516627502191604 -0.26016569459924982 1.0028695652494488 0.96998703280239973 -0.90175626982746993 0.60174689968779194 0.49882679154525184 -1.0882240990031098 0.74186957828324607 0.37566840621517095 -0.7908590062164117 -0.30802804146552409 -0.23191219699703788 -0.45254970491884294 0.058615743373871605 -0.36771962646335138 0.96842367255590645 -1.061688121295945 0.37853895662640519 -1.1296143754670951 1.0000000180025095e-35 0.877429333442593 0.88275541137629843 -1.2550546072739506 0.28465348074369062 0.33212087819374769 0.20221019009517596
decision_type=2 2 2 2 2 2 2 2 2 2 2 2 2 2 2 2 2 2 2 2 2 2 2 2 2 2 2 2 2 2
left_child=3 7 23 14 5 16 13 -2 9 10 -9 28 27 26 15 -1 -4 -18 -10 -16 -11 -15 -23 24 -3 -12 -5 -6 -7 -13
right_child=1 2 4 6 12 11 -8 8 18 20 25 29 -14 21 19 -17 17 -19 -20 -21 -22 22 -24 -25 -26 -27 -28 -29 -30 -31
leaf_value=0.012414088879401486 0.055656826069942961 -0.047923149489039599 -0.027103763208903661 -0.057912894654631002 -0.00028051207976437416 0.0031478816137997345 -0.0032542511886533574 -0.012489043164532632 0.015225982412906184 -0.027168561305318563 0.026904547781261501 0.055486028641462327 0.030054719852431952 -0.039109174673503735 -0.0021510616870583608 -0.028090695952375729 -0.018385895193690282 0.0088035349344918103 0.049944073959038812 0.027534251612211975 0.0095470328162970755 -0.026934643810589427 0.00062369099245794741 -0.0042301179972972546 -0.013199552943115124 0.056651779264211659 -0.03178937189901869 0.020112489733697947 0.023834855245569581 0.019425030004071156
leaf_weight=30 46 43 104 48 86 114 85 20 31 21 100 24 113 80 126 75 78 67 65 35 121 146 60 28 24 25 54 76 52 23
leaf_count=30 46 43 104 48 86 114 85 20 31 21 100 24 113 80 126 75 78 67 65 35 121 146 60 28 24 25 54 76 52 23
internal_value=-1.25344e-11 0.0101812 0.00254608 -0.0173729 0.00626088 -0.00061979 -0.0249404 0.0249888 0.0213055 0.015476 0.0265998 0.0158531 0.0178204 -0.0296913 -0.00391622 -0.0165179 -0.0147111 -0.0058225 0.038733 0.00430227 0.00411726 -0.0245586 -0.0189079 -0.0262729 -0.0354848 0.032854 -0.0440828 0.00928658 0.00962814 0.0378392
internal_weight=2000 1261 832 739 737 462 473 429 383 287 145 213 275 388 266 105 249 145 96 161 142 286 206 95 67 125 102 162 166 47
internal_count=2000 1261 832 739 737 462 473 429 383 287 145 213 275 388 266 105 249 145 96 161 142 286 206 95 67 125 102 162 166 47
is_linear=0
shrinkage=0.1


Tree=16
num_leaves=31
num_cat=0
split_feature=0 8 3 3 4 0 2 2 0 6 1 2 0 4 3 3 7 5 6 5 13 4 1 8 5 6 7 0 9 4
split_gain=28.8241 10.2783 7.26372 5.60811 5.31547 5.20156 4.51687 3.65699 5.50187 3.4364 3.65421 3.38612 4.83603 3.35531 2.64121 2.5128 2.28173 1.89482 1.88435 2.18597 1.64588 1.62605 1.54034 1.5285 1.4971 1.47192 1.46029 1.30623 1.26626 1.23739
threshold=0.37566840621517095 -0.13254354527335019 -0.27729863046614223 -0.5838550009292871 -0.71094390956481635 -0.75329368004652864 -0.26016569459924982 -0.33113287806876707 -0.50241321643281756 1.168670864375684 0.12717329048472989 -0.33113287806876707 1.2537500288631598 1.3752925427816547 0.21319156227488922 1.4394170441274685 0.15104305132161133 0.22198469057018974 -0.47549185984446779 0.016115547623634503 0.11932663459828431 0.55251984196294068 -0.66933348863117903 0.62929450223602446 0.098771854191977107 0.19435221298596428 -0.39219042929479753 0.75198910163573751 0.43168786807875908 -1.7275160529957496
decision_type=2 2 2 2 2 2 2 2 2 2 2 2 2 2 2 2 2 2 2 2 2 2 2 2 2 2 2 2 2 2
left_child=1 5 11 9 29 14 16 26 -9 10 -3 12 21 15 22 18 -7 -11 19 -6 -8 -2 -1 27 -14 -12 -5 -13 -16 -4
right_child=2 3 4 7 13 6 20 8 -10 17 25 23 24 -15 28 -17 -18 -19 -20 -21 -22 -23 -24 -25 -26 -27 -28 -29 -30 -31
leaf_value=-0.043289399469892187 -0.0023504370441386367 0.0027694920348383476 -0.034303740411996846 -0.038637788627635353 0.04062557654811981 -0.039984325446631212 -0.0082087971814442436 -0.013571778619059581 0.013081209397586509 -0.018184554983896237 0.037657695021983739 0.022108122242578104 0.025405832399106161 0.042066371377025333 -0.052301773464968129 -0.0063970253790418307 -0.010487180600529942 0.01350577404915259 0.0058508452491436921 0.0097893535159528262 0.011613447151132047 0.022099759951233866 -0.01807635449628819 0.057407887148506503 0.050118288999566663 0.0091584494172517843 -0.014736377322649369 0.046987160999075669 -0.025249138241633773 -0.0075950990521871462
leaf_weight=30 85 90 22 44 47 61 125 201 126 54 74 51 66 35 62 75 46 29 103 45 63 40 126 34 39 24 61 36 24 82
leaf_count=30 85 90 22 44 47 61 125 201 126 54 74 51 66 35 62 75 46 29 103 45 63 40 126 34 39 24 61 36 24 82
internal_value=-6.88542e-12 -0.00939851 0.0153344 -0.00144132 0.00627781 -0.0198155 -0.0109014 -0.00851546 -0.00330182 0.00983553 0.0173177 0.0258875 0.0187635 0.0129348 -0.0306818 0.00915846 -0.0273033 -0.00711203 0.0151413 0.0255426 -0.00156624 0.00547363 -0.022925 0.0394291 0.0345847 0.0306783 -0.0247522 0.0324029 -0.0447522 -0.013245
internal_weight=2000 1240 760 703 409 537 295 432 327 271 188 351 230 305 242 270 107 83 195 92 188 125 156 121 105 98 105 87 86 104
internal_count=2000 1240 760 703 409 537 295 432 327 271 188 351 230 305 242 270 107 83 195 92 188 125 156 121 105 98 105 87 86 104
is_linear=0
shrinkage=0.1


Tree=17
num_leaves=31
num_cat=0
split_feature=0 3 4 3 4 8 2 0 6 10 4 5 6 1 9 2 0 1 6 4 0 13 3 5 7 0 2 7 3 15
split_gain=23.9651 9.86161 6.61052 5.24964 4.8579 4.69644 3.6883 5.74774 3.65831 2.93714 2.91518 2.38337 2.12035 2.31179 2.11812 2.04422 3.17563 1.93132 1.74467 1.63161 1.55001 1.5236 1.45097 1.44582 1.39483 1.35056 1.84514 1.30448 1.2347 1.21725
threshold=-0.37697298462596213 -0.5838550009292871 -1.6756805338292082 1.3167944959422109 0.65327689106033948 -0.86982880119633765 1.0000000180025095e-35 1.1283097970563041 -0.90175626982746993 0.28871597899320656 1.4755096878816192 0.60174689968779194 -0.6581766069800401 0.61926857032998772 0.71624035734962144 0.30757177315688794 -1.2550546072739506 -0.41464120173320163 1.0000000180025095e-35 1.5499574253537693 0.62654886982888203 -0.27636976248126383 1.8072846886832421 -0.2627800409318472 -0.39219042929479753 1.2537500288631598 0.16563740621785333 0.33212087819374769 -0.64516627502191604 0.26434950759148096
decision_type=2 2 2 2 2 2 2 2 2 2 2 2 2 2 2 2 2 2 2 2 2 2 2 2 2 2 2 2 2 2
left_child=3 8 -3 5 6 21 7 12 -2 17 15 25 13 -4 -5 -7 23 24 -19 22 -8 29 -6 -17 -10 26 -11 -9 -25 -1
right_child=1 2 4 14 19 10 20 27 9 11 -12 -13 -14 -15 -16 16 -18 18 -20 -21 -22 -23 -24 28 -26 -27 -28 -29 -30 -31
leaf_value=-0.044854117026728285 0.047341326431563607 -0.035692073997448795 -0.010078255899031373 -0.044914379394547621 0.017667117823799285 -0.022121760485160555 0.0066817758244620308 0.0038677820921734427 0.016722758615982127 0.0073831574556728202 0.017518480740102899 0.047365528810769324 -0.021016464255224569 0.02770888580475003 -0.012436685982226794 -0.02113485610965514 0.0073966038100421435 0.03138611495292571 0.0083083377864309835 0.035051511273592371 0.028789814993193965 -0.013911001169878357 -0.0088536775112152116 0.0049152594850203329 -0.013786009976521452 0.044120350098237393 0.036727093638231359 0.023817400716017095 -0.014399187475390419 -0.020389152098108421
leaf_weight=53 46 44 85 71 118 93 140 99 22 75 46 44 167 20 28 104 125 50 95 44 41 53 25 62 47 20 30 49 71 33
leaf_count=53 46 44 85 71 118 93 140 99 22 75 46 44 167 20 28 104 125 50 95 44 41 53 25 62 47 20 30 49 71 33
internal_value=-6.36323e-11 0.00837991 0.00202976 -0.0142991 0.00413606 -0.0109842 -0.000243643 -0.00538633 0.0206953 0.017495 -0.00647209 0.0273493 -0.0140155 -0.00288071 -0.0357288 -0.00889752 -0.00550013 0.00971288 0.0162662 0.018212 0.0116897 -0.0272474 0.0130306 -0.0123022 -0.00405858 0.0203037 0.0157671 0.0104727 -0.00539546 -0.0354664
internal_weight=2000 1261 832 739 788 640 601 420 429 383 501 169 272 105 99 455 362 214 145 187 181 139 143 237 69 125 105 148 133 86
internal_count=2000 1261 832 739 788 640 601 420 429 383 501 169 272 105 99 455 362 214 145 187 181 139 143 237 69 125 105 148 133 86
is_linear=0
shrinkage=0.1


Tree=18
num_leaves=31
num_cat=0
split_feature=0 3 2 0 4 6 1 5 10 3 10 9 8 7 1 1 7 5 7 0 7 0 1 0 1 1 4 35 0 10
split_gain=19.9312 7.44484 6.07922 7.21823 5.96909 4.43177 4.87369 4.43941 4.20004 3.06728 2.71179 2.49943 2.34846 2.0527 2.89482 1.60697 2.44401 1.59597 1.54013 1.45703 1.32057 1.29897 1.27854 1.25153 1.24745 1.12876 1.07455 1.12049 1.06208 1.05359
threshold=0.37566840621517095 0.88761557729380802 -0.96983752929442169 1.2537500288631598 -1.0478264488971927 0.13345729727410682 0.12717329048472989 -0.32358397070766648 -0.74017011094205032 -0.39992117865140026 0.40870733336775611 -0.11509592717285098 0.40691636129635755 0.9960729100582475 -0.9811903774933094 -0.30740760399275041 0.21140232694565672 1.0387944355383409 1.177150736930384 -1.2550546072739506 -0.57326825616693389 1.1283097970563041 0.99983291347595571 -0.62785344823967304 0.27248331016283961 0.12717329048472989 -1.6400545511220603 0.65581437997824521 -0.50241321643281756 -0.75729378991594709
decision_type=2 2 2 2 2 2 2 2 2 2 2 2 2 2 2 2 2 2 2 2 2 2 2 2 2 2 2 2 2 2
left_child=1 4 3 15 26 6 13 -7 -4 22 18 23 21 19 -15 -2 -17 28 29 -6 -12 -10 -8 -3 -22 -20 27 -1 -9 -5
right_child=2 11 8 10 5 7 9 17 12 -11 20 -13 -14 14 -16 16 -18 -19 25 -21 24 -23 -24 -25 -26 -27 -28 -29 -30 -31
leaf_value=-0.042989937930896477 -0.021001566589499514 -0.046267846804112195 0.003741343575162127 -0.017059389338343559 -0.017290015713884856 -0.024565201715795102 0.019554988917661831 -0.011815140660348398 0.017461673794408657 0.0052849437492113798 0.01050769444089383 -0.014433014712350476 0.041602038743704647 -0.050000519901514051 -0.0067923304894804103 -0.014524586386555297 0.015698224090867571 0.012790110037331621 0.0076870987890288239 0.0095198160203163636 0.027496445587565824 0.037576063863206201 0.041463501703773824 -0.024763636601994099 0.058233612905377929 0.041284048706293111 -0.015539255301586771 -0.013611742714419962 0.0027536367367826066 0.0076734700935048757
leaf_weight=37 78 50 95 24 26 118 70 116 148 128 20 140 88 20 69 66 45 62 20 92 31 41 43 59 23 20 102 20 88 61
leaf_count=37 78 50 95 24 26 118 70 116 148 128 20 140 88 20 69 66 45 62 20 92 31 41 43 59 23 20 102 20 88 61
internal_value=-5.14827e-11 -0.00781534 0.0127513 0.003994 -0.00393134 -0.000538569 0.00621842 -0.00842173 0.0218854 0.0158849 0.0172864 -0.0232734 0.028108 -0.00503574 -0.016502 -0.0100017 -0.0022721 -0.00126034 0.00830463 0.00361256 0.0324583 0.0218251 0.0278919 -0.034628 0.0405882 0.0244856 -0.0216847 -0.0326818 -0.00553057 0.000690074
internal_weight=2000 1240 760 388 991 832 448 384 372 241 199 249 277 207 89 189 111 266 125 118 74 189 113 109 54 40 159 57 204 85
internal_count=2000 1240 760 388 991 832 448 384 372 241 199 249 277 207 89 189 111 266 125 118 74 189 113 109 54 40 159 57 204 85
is_linear=0
shrinkage=0.1


Tree=19
num_leaves=31
num_cat=0
split_feature=0 4 3 2 0 3 4 8 4 2 0 3 6 1 9 4 6 0 5 7 1 1 2 10 8 33 0 1 5 3
split_gain=16.6114 7.98432 4.52329 4.21788 5.39898 4.07937 3.3219 2.57747 2.13781 1.99695 2.29457 1.842 2.45001 1.83792 1.82684 1.66356 1.62883 1.5913 1.56352 1.54704 3.79723 1.42736 1.30404 1.30143 1.16622 1.1489 1.11497 1.09514 1.04011 1.28248
threshold=-0.50241321643281756 0.063728914164229808 -0.5838550009292871 -0.33113287806876707 1.3791902606700153 -0.64516627502191604 -1.6756805338292082 -0.3768688754269745 1.403914895410366 0.37853895662640519 -1.1296143754670951 1.010238125479066 0.80330137010453917 0.70411603023831848 -0.33472955511903923 -1.4774217460546266 0.86419628581639663 0.75198910163573751 -0.15654292098850645 0.39248015381779311 0.93662205553483158 -0.06825569402733743 0.16563740621785333 -0.25425955306662329 1.0036995200596268 0.66534661668458284 0.62654886982888203 -1.1528340905587482 0.12482186268476587 1.0000000180025095e-35
decision_type=2 2 2 2 2 2 2 2 2 2 2 2 2 2 2 2 2 2 2 2 2 2 2 2 2 2 2 2 2 2
left_child=5 2 14 4 19 13 -4 -7 26 -9 -11 12 18 -1 15 -2 -15 22 -8 28 21 -21 -16 -6 -10 -17 -5 -13 -3 -30
right_child=1 3 6 8 23 7 11 9 24 10 -12 27 -14 16 17 25 -18 -19 -20 20 -22 -23 -24 -25 -26 -27 -28 -29 29 -31
leaf_value=-0.0075567996928027729 -0.0031284945878993584 -0.015854651642749545 -0.031568800943824367 0.015994274045737084 0.010259637179282997 -0.02879857528287004 0.012690415251667479 -0.027961986678150988 0.025990298669785264 -0.01449287401672838 0.0091884163388034745 0.0059116933553013951 -0.019188892697988482 0.02392419791984849 -0.028864434190715355 0.031303588354526318 -0.010323591891764886 0.01346390650662138 -0.0031918621205984329 -0.02155275558680296 0.040082946630815665 0.0079143777911667712 0.0044571133330464363 0.036914044289639396 0.058387745141983027 0.00682359651979753 0.032075458341117566 -0.017704158845029912 0.012607273554507024 -0.0095778826705850001
leaf_weight=186 27 61 47 168 26 159 126 65 20 145 57 24 51 41 24 73 21 47 122 25 30 48 23 62 25 26 58 108 48 57
leaf_count=186 27 61 47 168 26 159 126 65 20 145 57 24 51 41 24 73 21 47 122 25 30 48 23 62 25 26 58 108 48 57
internal_value=-2.9938e-11 0.00649751 -0.000862856 0.0146783 0.00753797 -0.0127829 -0.00632416 -0.0187188 0.0240846 -0.0127163 -0.00781053 -0.00357127 0.000772413 -0.00258656 0.0110031 0.0188739 0.0123241 0.000452881 0.00487736 0.000504222 0.0101316 -0.00217711 -0.0125581 0.0290389 0.0439889 0.0248745 0.0201213 -0.0134104 -0.00546942 0.000563903
internal_weight=2000 1326 698 628 357 674 478 426 271 267 202 431 299 248 220 126 62 94 248 269 103 73 47 88 45 99 226 132 166 105
internal_count=2000 1326 698 628 357 674 478 426 271 267 202 431 299 248 220 126 62 94 248 269 103 73 47 88 45 99 226 132 166 105
is_linear=0
shrinkage=0.1


Tree=20
num_leaves=31
num_cat=0
split_feature=0 8 10 2 0 7 2 0 1 2 3 7 1 1 0 1 7 1 2 2 0 2 3 6 5 7 3 1 4 8
split_gain=13.8497 5.73156 4.71768 3.60385 5.13657 3.13236 2.9736 3.39264 2.71382 2.53744 2.25124 1.83235 1.74861 1.66158 1.51413 1.48591 1.41947 1.84618 1.32659 1.28878 1.46692 1.12759 1.12666 1.12277 1.10881 1.10642 1.08127 1.07871 1.06502 1.01085
threshold=0.37566840621517095 -0.13254354527335019 0.090265518513327606 -0.26016569459924982 -1.0041741436602396 -0.99578318553525191 -0.68596879541635303 1.5046304924768708 -0.81059601463874886 0.87530924091302564 -0.27729863046614223 -0.45254970491884294 0.56675109072830876 -0.84437509761756302 -0.75329368004652864 0.97594770391401331 -0.090394051174570333 -0.023633325536087348 0.94627642438254267 -0.47306724500780123 1.1283097970563041 -1.0408047127639388 0.27450283636751821 1.0000000180025095e-35 -0.84594219787819291 -0.090394051174570333 1.010238125479066 0.57689480943347937 1.403914895410366 -0.44972552637927454
decision_type=2 2 2 2 2 2 2 2 2 2 2 2 2 2 2 2 2 2 2 2 2 2 2 2 2 2 2 2 2 2
left_child=1 5 10 11 16 24 7 15 29 -6 13 -3 -13 -2 -10 21 -5 -18 -16 20 -12 -4 -9 27 -1 -8 -26 -15 -11 -7
right_child=2 3 6 4 9 8 25 22 14 28 19 12 -14 23 18 -17 17 -19 -20 -21 -22 -23 -24 -25 26 -27 -28 -29 -30 -31
leaf_value=-0.046380706461003202 -0.011210402176116727 -0.029095374402375175 -0.0044573848904616645 -0.014535473363271864 0.0038963658236438568 -0.032163854126702064 0.022366124973632398 0.044705881466788638 -0.013745208922436164 0.018778486726763993 -0.021810621153715938 -0.014511640115457481 0.012948567628380703 0.016453347372589633 -0.0052703348782167517 0.026773545518517496 -0.013369273215581557 0.011910395026206971 0.01345929103147871 0.0068848034105030822 -0.00080048087218852898 0.015411829303852037 0.018156871070316289 0.0071187177304071498 -0.015478860460078486 0.039801513089530047 -0.036893479646863167 0.044462530151940884 0.043830473944544791 -0.0073158631185916345
leaf_weight=26 28 52 115 129 162 64 95 31 138 112 61 78 33 44 132 25 52 65 53 64 73 38 33 74 65 59 37 20 20 22
leaf_count=26 28 52 115 129 162 64 95 31 138 112 61 78 33 44 132 25 52 65 53 64 73 38 33 74 65 59 37 20 20 22
internal_value=-2.27432e-11 -0.0065148 0.0106294 -0.000572768 0.00336094 -0.0142937 0.0181831 0.0112704 -0.0100211 0.0122824 0.00241164 -0.0136047 -0.00634779 0.0110006 -0.0058179 0.00417072 -0.00730123 0.000674987 9.54498e-05 -0.00478917 -0.0103648 0.000477453 0.0310165 0.0155071 -0.027946 0.0290459 -0.0232469 0.0252062 0.0225742 -0.0258074
internal_weight=2000 1240 760 703 540 537 396 242 409 294 364 163 111 166 323 178 246 117 185 198 134 153 64 138 128 154 102 64 132 86
internal_count=2000 1240 760 703 540 537 396 242 409 294 364 163 111 166 323 178 246 117 185 198 134 153 64 138 128 154 102 64 132 86
is_linear=0
shrinkage=0.1


Tree=21
num_leaves=31
num_cat=0
split_feature=0 2 0 8 7 1 10 8 7 1 5 3 10 3 1 2 3 1 2 0 5 0 6 9 7 6 9 4 3 19
split_gain=11.5932 5.23799 7.54588 3.75707 2.66001 2.75854 2.35904 2.35631 2.16175 3.14443 2.19868 1.87849 1.93901 1.74135 1.63489 1.60328 1.57576 1.53319 1.5259 1.50653 1.36185 1.34551 1.28858 1.24686 1.24469 1.19024 1.08555 1.08551 0.953299 0.951
threshold=-0.12609252101225107 -0.26016569459924982 1.0028695652494488 0.92272541556244558 -0.87506463428716108 -0.33359139020710021 -0.38295928207826363 0.85788600267917758 0.81499508318611136 -0.43852641129514419 -0.27345930981632421 -1.0130339195776898 -0.19924607098422678 0.82630430320117898 0.99983291347595571 0.30757177315688794 -0.33860990455877132 -0.74023958145209845 0.6624076905044739 -1.2550546072739506 -0.45025368025079421 -1.1296143754670951 -0.71907152269189767 0.50044052042654008 1.0564321856822929 -0.29280711270889531 -0.35449487772707239 1.4531013255111318 1.5007283182200977 0.79097860308464962
decision_type=2 2 2 2 2 2 2 2 2 2 2 2 2 2 2 2 2 2 2 2 2 2 2 2 2 2 2 2 2 2
left_child=3 2 8 4 20 15 29 11 10 -10 25 26 -13 17 -11 -6 22 -8 -5 -17 -1 -20 -7 -15 -19 -2 -3 -9 -22 -4
right_child=1 7 6 18 5 16 13 27 9 14 -12 12 -14 23 -16 19 -18 24 21 -21 28 -23 -24 -25 -26 -27 -28 -29 -30 -31
leaf_value=-0.032032387807137436 -0.008989309229784543 0.039153442674261685 -0.0053487655554357687 -0.0071010211543149418 -0.029886562660844492 0.018959680667354002 0.0059997447227176873 0.02467066802191319 -0.023962771000280495 0.0053527670848988705 -0.0066951569717219068 -0.0028900114306709686 0.01539550937587462 -0.0037288785688579084 0.038299092501401899 -0.021795305773829585 -0.0091032358323667895 0.02163539567576131 0.0047874889582500708 0.00025245796312533674 -0.0092852948165889227 0.029541414444718292 -0.00067380030272313606 0.02530752703370083 0.042484285242178225 -0.034271769206970934 0.015117100742645563 0.051516668610274798 -0.027015200349398784 0.016029967712737354
leaf_weight=72 27 34 81 57 66 45 38 61 31 61 161 99 140 50 20 61 172 82 62 63 93 34 130 21 44 60 42 20 45 28
leaf_count=72 27 34 81 57 66 45 38 61 31 61 161 99 140 50 20 61 172 82 62 63 93 34 130 21 44 60 42 20 45 28
internal_value=4.4296e-12 0.00688669 0.00171125 -0.00841707 -0.0113411 -0.00760947 0.0123023 0.0160875 -0.00840912 0.00312192 -0.0136167 0.0121759 0.00782117 0.0179422 0.0134877 -0.0172954 -0.00230595 0.0236061 0.00585931 -0.0105936 -0.0208836 0.0135545 0.00437481 0.00485935 0.028916 -0.0264255 0.0258702 0.0312993 -0.0150668 0.000143019
internal_weight=2000 1100 704 900 747 537 344 396 360 112 248 315 239 235 81 190 347 164 153 124 210 96 175 71 126 87 76 81 138 109
internal_count=2000 1100 704 900 747 537 344 396 360 112 248 315 239 235 81 190 347 164 153 124 210 96 175 71 126 87 76 81 138 109
is_linear=0
shrinkage=0.1


Tree=22
num_leaves=31
num_cat=0
split_feature=0 3 4 8 2 0 6 5 2 4 12 1 6 6 7 1 4 5 2 1 1 5 3 6 5 7 1 0 1 10
split_gain=9.8465 5.43792 3.79939 2.48318 2.37182 3.05658 2.24858 2.01017 1.9831 1.95052 1.80139 1.6177 1.86157 1.54896 1.46552 2.03998 1.39636 1.37152 1.28654 1.11431 1.10393 1.09882 1.09396 1.01621 0.973597 0.824371 0.894914 0.779051 0.752563 0.741427
threshold=-0.62785344823967304 -0.5838550009292871 0.24516731747615192 0.24757375467443601 0.94627642438254267 0.75198910163573751 -0.90175626982746993 0.68662548186215078 0.6624076905044739 -1.6756805338292082 0.69759480247409567 -1.4707872044555208 -0.049227449861465496 -0.71907152269189767 -0.21111260242266122 -1.1190050385222687 1.3182426361081296 -0.42025295956952108 -0.8279031623553873 0.75528434528315469 0.85452289379784607 -0.6074796793766869 1.6846621404979849 1.4122505272231136 -0.86754765515894905 0.03032450007352035 0.088547208912796618 -1.1296143754670951 -0.42633396122587114 -0.36771962646335138
decision_type=2 2 2 2 2 2 2 2 2 2 2 2 2 2 2 2 2 2 2 2 2 2 2 2 2 2 2 2 2 2
left_child=3 6 4 14 5 9 -2 11 -5 -3 -10 -8 20 17 24 -16 22 -4 -11 -17 -13 23 -15 -14 -1 28 -27 -26 -7 -9
right_child=1 2 13 8 -6 25 7 29 10 18 -12 12 21 16 15 19 -18 -19 -20 -21 -22 -23 -24 -25 27 26 -28 -29 -30 -31
leaf_value=-0.036078298922914726 0.033942822476577324 -0.038539408211564201 0.038799550446371241 -0.018666716185161622 0.0099932254643847612 0.0054875036051112505 -0.017116738505661488 0.011655279141004114 -0.0032494844859499703 -0.022753334394984052 0.019790560843216051 0.014421982441718379 0.0033026354875451388 0.0025796667193246419 -0.039562299223616725 -0.011222269484954597 0.020213565163430758 0.012278912296012724 -0.0070314144427016476 0.006707421239610995 0.038686386117944498 0.0089575200679946586 -0.020821267321867787 -0.022220181387204392 -0.023325896485355296 0.0026951984093501803 0.027339975867906343 -0.007691081169437855 -0.0097925218471297728 0.030158293468966368
leaf_weight=39 48 29 24 59 92 63 25 33 138 71 45 75 39 152 20 113 40 104 195 50 25 133 23 26 99 41 23 47 66 63
leaf_count=39 48 29 24 59 92 63 25 33 138 71 45 75 39 152 20 113 40 104 195 50 25 133 23 26 99 41 23 47 66 63
internal_value=-4.28481e-11 0.00464819 0.000199143 -0.0105918 -0.00473474 -0.00751132 0.0134415 0.0110929 -0.00272393 -0.0139127 0.0024161 0.00731677 0.00936657 0.00854215 -0.0157657 -0.00942072 0.00335704 0.0172515 -0.0112279 -0.00572236 0.0204881 0.00374964 -0.000495885 -0.00690649 -0.0220422 0.00227321 0.0115519 -0.0182928 -0.00233018 0.0237979
internal_weight=2000 1390 923 610 580 488 467 419 242 295 183 323 298 343 368 183 215 128 266 163 100 198 175 65 185 193 64 146 129 96
internal_count=2000 1390 923 610 580 488 467 419 242 295 183 323 298 343 368 183 215 128 266 163 100 198 175 65 185 193 64 146 129 96
is_linear=0
shrinkage=0.1


Tree=23
num_leaves=31
num_cat=0
split_feature=0 3 2 0 4 6 1 5 10 6 10 4 0 2 13 0 2 10 8 6 5 3 21 5 37 4 9 1 8 3
split_gain=8.42251 3.87957 3.61134 3.54699 2.99903 2.35187 2.29489 2.10302 1.75559 1.49118 1.48973 1.4797 1.41669 1.67921 1.28711 1.11373 1.47301 1.06784 1.03078 0.986863 1.15652 0.927158 0.917543 0.915052 0.851589 0.794289 0.793563 0.780747 0.754164 0.705111
threshold=0.50110863802202654 -0.5838550009292871 -0.96983752929442169 1.3791902606700153 0.53924323349218062 1.4122505272231136 0.12717329048472989 -0.79989170893122907 0.43604660566593029 -0.35370202842075277 -0.25425955306662329 -1.6756805338292082 -0.62785344823967304 0.94627642438254267 0.61657360638408565 -0.87873391185338412 0.44950614009592227 0.9999975977891441 -0.9359710152658034 -0.6581766069800401 -0.45025368025079421 -0.093364808188255474 0.85047785622031047 0.56773373694009777 -0.29690100777152323 0.44519466002850622 0.092951132347939516 0.99983291347595571 0.27413085577808965 0.76499302910854994
decision_type=2 2 2 2 2 2 2 2 2 2 2 2 2 2 2 2 2 2 2 2 2 2 2 2 2 2 2 2 2 2
left_child=1 5 3 21 11 6 18 -7 14 27 28 -3 17 19 29 -6 -17 -13 -1 20 -14 25 24 -9 -12 -2 -23 -8 -5 -4
right_child=2 4 8 10 15 7 9 23 -10 -11 22 12 13 -15 -16 16 -18 -19 -20 -21 -22 26 -24 -25 -26 -27 -28 -29 -30 -31
leaf_value=-0.017494114959845319 -0.0058351875243421933 -0.029493599053734838 0.0097710878699008314 0.011071381136528492 -0.008112063648301986 -0.036719480140701581 0.017850262154307631 -0.0084067238928520523 0.02621637699945319 0.007120020510902738 0.027308925035793116 -0.013892075111317435 0.011038019202856554 0.0058220976825396065 0.025609172201818894 -0.0026280593254010788 0.017134789309012844 -0.031844473488163209 0.0023108864577980489 -0.016276527286103834 -0.011127984044415985 -0.021426717194474559 0.037601692198465271 0.014858744682913478 0.0064380036307620297 0.01361785239893042 -0.0039271169703225701 0.039359911503615203 -0.01088013799604157 -0.0077086392195959549
leaf_weight=32 65 47 113 34 91 23 45 73 124 102 34 193 36 80 45 88 66 40 147 142 68 55 24 22 46 31 49 27 29 29
leaf_count=32 65 47 113 34 91 23 45 73 124 102 34 193 36 80 45 88 66 40 147 142 68 55 24 22 46 31 49 27 29 29
internal_value=-1.64648e-11 -0.00464734 0.00906164 0.00234322 -0.0086775 0.00263432 0.00671986 -0.00958768 0.0169898 0.0148978 0.0131018 -0.0124521 -0.0110193 -0.00676329 0.0108716 0.000658894 0.00584173 -0.016974 -0.00122967 -0.0108561 -0.00345514 -0.00664016 0.0204528 -0.00301893 0.0153081 0.000446523 -0.0131817 0.0259164 0.000966714 0.00620128
internal_weight=2000 1322 678 367 851 471 353 118 311 174 167 606 559 326 187 245 154 233 179 246 104 200 104 95 80 96 104 72 63 142
internal_count=2000 1322 678 367 851 471 353 118 311 174 167 606 559 326 187 245 154 233 179 246 104 200 104 95 80 96 104 72 63 142
is_linear=0
shrinkage=0.1


Tree=24
num_leaves=31
num_cat=0
split_feature=0 8 2 0 2 0 2 0 2 10 4 10 7 1 10 5 10 7 7 8 2 3 5 0 18 7 3 0 17 39
split_gain=6.92029 3.65493 2.89595 3.74548 2.85695 2.41708 1.98264 1.86609 2.60368 1.35888 1.32393 1.1621 1.07121 1.49317 1.01023 0.911676 0.901575 0.898528 0.885683 0.849472 0.848782 0.827318 0.792835 0.778531 0.87863 0.68882 0.657957 0.653467 0.582372 0.580337
threshold=0.62654886982888203 -0.23135600447411822 -0.26016569459924982 -1.0041741436602396 -0.89887034582490455 1.3791902606700153 0.87530924091302564 -1.2550546072739506 0.94627642438254267 -1.018126357171153 -1.4059199190019258 0.45568231578514456 -0.45254970491884294 0.61926857032998772 0.69972614155249269 -0.61859105740678977 0.99292204339650769 0.09068377569756586 -0.21111260242266122 0.85788600267917758 0.30757177315688794 -0.95172264548506103 0.26068932404169776 1.8809511878974374 0.53343118174153481 -0.99578318553525191 -0.95172264548506103 1.2537500288631598 0.71413768357420404 -0.27965513129460601
decision_type=2 2 2 2 2 2 2 2 2 2 2 2 2 2 2 2 2 2 2 2 2 2 2 2 2 2 2 2 2 2
left_child=1 7 12 16 5 14 -5 18 10 -7 -9 20 15 -14 25 -3 21 -10 -1 -8 27 22 -4 24 29 -2 -12 -6 -18 -11
right_child=4 2 3 6 11 9 19 8 17 23 26 -13 13 -15 -16 -17 28 -19 -20 -21 -22 -23 -24 -25 -26 -27 -28 -29 -30 -31
leaf_value=-0.027088684039811295 -0.026421392638058889 -0.034897882387042049 -0.0010734414651749596 0.0037641698148292609 0.0034170035261338878 -0.012251392949838192 0.013905622276469274 -0.026674535234823177 0.0014527089434126631 -0.0053575028073429435 0.0019056592017352835 0.027214870421725903 -0.010888628630742136 0.01214834682416553 0.0050482201053657465 -0.011347878846815245 -0.0089342067319055293 0.022069035329181572 -0.011916248663033866 0.029560301726683974 0.024829353839159015 -0.0056270155335823805 0.023748578419062225 0.028802916944465219 0.023321543724798575 -0.0064084678345457894 -0.010679425874124198 0.02220404004910961 -0.028325626857223965 0.012591518425967459
leaf_weight=75 21 25 31 195 81 20 113 46 78 31 51 84 101 39 72 48 59 29 79 50 40 128 22 34 41 95 224 24 21 43
leaf_count=75 21 25 31 195 81 20 113 46 78 31 51 84 101 39 72 48 59 29 79 50 40 128 22 34 41 95 224 24 21 43
internal_value=-1.792e-11 -0.00378679 0.000465421 0.00392624 0.00913741 0.00354517 0.0105681 -0.00986556 -0.00646897 0.0122237 -0.0109721 0.0178554 -0.00959207 -0.00447119 -0.00425629 -0.0194129 -0.00518399 0.00704031 -0.0193054 0.0187077 0.0124334 -0.00127661 0.00923004 0.015509 0.0115786 -0.0100315 -0.00834546 0.00771118 -0.0140245 0.00507233
internal_weight=2000 1414 832 619 586 357 358 582 428 169 321 229 213 140 188 73 261 107 154 163 145 181 53 149 115 116 275 105 80 74
internal_count=2000 1414 832 619 586 357 358 582 428 169 321 229 213 140 188 73 261 107 154 163 145 181 53 149 115 116 275 105 80 74
is_linear=0
shrinkage=0.1


Tree=25
num_leaves=31
num_cat=0
split_feature=0 4 3 2 0 8 1 6 8 4 3 2 5 2 10 12 9 3 3 9 0 38 0 2 7 6 5 5 10 1
split_gain=5.69516 3.67753 3.51748 2.77747 3.46188 1.59182 1.4521 1.91167 1.2554 1.20335 1.19438 1.10361 1.08568 1.08312 0.931227 0.837877 0.826571 0.838891 0.801143 0.865017 0.671877 0.669504 0.652683 0.65349 0.631065 0.629878 1.14092 0.683676 0.629569 0.611151
threshold=-0.62785344823967304 1.2408192569724419 -0.95172264548506103 0.37853895662640519 1.0028695652494488 0.66777724496735991 -1.2199925040550978 -0.23191219699703788 -0.2916857209435621 -1.0970639083260976 -0.64516627502191604 -0.8279031623553873 0.46989188039728097 0.6624076905044739 -1.5628184438469503 0.7891618234668839 0.93391449210621769 0.82630430320117898 0.82630430320117898 -0.12497858847686763 0.25022817440831546 -0.76854855400046129 1.2537500288631598 -0.8279031623553873 0.75463580756206572 -0.84086135411561247 0.73749090128882966 -0.77544667726501426 -0.028051148431013397 -0.75777872069109986
decision_type=2 2 2 2 2 2 2 2 2 2 2 2 2 2 2 2 2 2 2 2 2 2 2 2 2 2 2 2 2 2
left_child=5 2 6 4 9 10 24 -8 28 21 25 20 22 -7 -6 -15 17 -12 29 -20 -11 -4 23 -9 -2 -1 27 -27 -5 -16
right_child=1 -3 3 8 14 13 7 12 -10 11 16 -13 -14 15 18 -17 -18 -19 19 -21 -22 -23 -24 -25 -26 26 -28 -29 -30 -31
leaf_value=0.0076706870166318762 0.0073386061564087862 0.01968591023555746 -0.0049972660416229206 -0.0085671300506767103 -0.015139324459735128 -0.013290569568543057 0.029902669557994824 -0.011703598407828916 0.013485758463357343 -0.024498349916012515 -0.013101497882722333 -0.0027267118273439301 0.022767014359382706 0.00023016032605418856 -1.5588930959033001e-05 0.019320614303133504 -0.0036052682751755195 -0.025656248112209141 -0.010066538745106416 0.009560304454549454 -0.0093577999296986982 -0.025260298073823961 0.020668257657615915 0.006232367245782469 -0.017481537003602301 -0.025931381270289423 0.013554435913366351 -0.0072824420397291367 0.0071455989909522677 0.014729273928036819
leaf_weight=35 20 128 22 51 21 38 63 28 160 42 159 239 45 71 37 34 54 80 47 43 97 63 21 74 21 25 22 92 51 117
leaf_count=35 20 128 22 51 21 38 63 28 160 42 159 239 45 71 37 34 54 80 47 43 97 63 21 74 21 25 22 92 51 117
internal_value=8.58854e-12 0.00353505 0.00189693 -0.000870352 -0.0040479 -0.00805528 0.011969 0.0150472 0.00795887 -0.00926492 -0.0108821 -0.00684741 0.00947645 0.00117623 0.00506713 0.00641183 -0.0147793 -0.0173039 0.00680621 -0.000689269 -0.0139326 -0.0200157 0.00461405 0.00130877 -0.00537415 -0.00431953 -0.00733864 -0.0112673 -0.000710766 0.0111867
internal_weight=2000 1390 1262 990 728 610 272 231 262 463 467 378 168 143 265 105 293 239 244 90 139 85 123 102 41 174 139 117 102 154
internal_count=2000 1390 1262 990 728 610 272 231 262 463 467 378 168 143 265 105 293 239 244 90 139 85 123 102 41 174 139 117 102 154
is_linear=0
shrinkage=0.1


Tree=26
num_leaves=31
num_cat=0
split_feature=0 3 2 4 0 2 0 9 10 10 6 1 3 8 9 7 8 2 7 10 5 6 39 1 1 8 6 0 0 35
split_gain=4.84037 2.45006 2.37906 2.31933 2.09812 1.66333 2.81118 1.41886 1.24811 1.15914 1.12421 1.40523 1.05603 1.01781 0.962857 0.899986 0.882846 0.891221 0.854409 0.836276 0.789501 0.770375 0.750793 0.740059 0.724956 0.699117 0.603439 0.897271 0.587815 0.577755
threshold=0.50110863802202654 1.0715493995716947 -0.96983752929442169 1.2703421578551015 1.5046304924768708 -0.26016569459924982 -1.0041741436602396 0.71624035734962144 0.039145684706167562 0.43604660566593029 1.5949352743586866 0.99983291347595571 -0.5838550009292871 -1.0523211827425885 0.16749706890842894 0.81499508318611136 -0.2916857209435621 0.37853895662640519 1.0564321856822929 -1.4936957201650352 -0.0132678742781821 0.25524712869782185 0.13886612624656944 -0.66933348863117903 0.93662205553483158 0.27413085577808965 -0.35370202842075277 -1.3804948390808061 0.877429333442593 0.054908392393750206
decision_type=2 2 2 2 2 2 2 2 2 2 2 2 2 2 2 2 2 2 2 2 2 2 2 2 2 2 2 2 2 2
left_child=1 3 4 5 22 10 13 26 25 16 11 23 14 -7 18 20 -4 28 -8 -15 -10 -5 24 -1 -2 -6 27 -3 -18 -16
right_child=2 7 9 21 8 6 12 -9 15 -11 -12 -13 -14 19 29 -17 17 -19 -20 -21 -22 -23 -24 -25 -26 -27 -28 -29 -30 -31
leaf_value=-0.020950775458774669 -0.0025283361345198223 -0.02777466321315028 -0.0011924238555366174 0.018517830141645392 0.0097119778466765727 -0.019642679716149969 0.010851837345121783 0.0012401734926522925 -0.001580120569560677 0.020801565356387369 -0.024552876092344921 0.016501998458724385 0.00034026261093007414 0.0099266886143595922 -0.008398527412689016 0.038299986537978323 -0.0024751710118393281 0.025550975712831131 0.031022639250815182 -0.0072625541385519798 0.02507604228332639 0.00097970973076418229 -0.010402045871294965 -0.0057608947147630239 0.017452468782324683 -0.011409179912880063 -0.030022626277059317 -0.0096466124081772946 0.014566214683388048 0.010999126622586378
leaf_weight=47 104 38 64 70 42 60 84 52 20 124 47 22 266 32 34 21 35 40 28 245 25 39 108 101 22 25 32 97 48 28
leaf_count=47 104 38 64 70 42 60 84 52 20 124 47 22 266 32 34 21 35 40 28 245 25 39 108 101 22 25 32 97 48 28
internal_value=-2.33631e-12 -0.00352309 0.0068695 -0.00160483 0.00141651 -0.00312333 -0.00096153 -0.0131844 0.0114457 0.0133044 -0.010864 -0.00707937 0.00430255 -0.00783452 0.0103598 0.021206 0.008333 0.0132893 0.0158945 -0.00527679 0.0132289 0.0122427 -0.00428382 -0.0105847 0.000960376 0.00183095 -0.0176759 -0.0147493 0.00738009 0.000361703
internal_weight=2000 1322 678 1103 367 994 777 219 133 311 217 170 440 337 174 66 187 123 112 277 45 109 234 148 126 67 167 135 83 62
internal_count=2000 1322 678 1103 367 994 777 219 133 311 217 170 440 337 174 66 187 123 112 277 45 109 234 148 126 67 167 135 83 62
is_linear=0
shrinkage=0.1


Tree=27
num_leaves=31
num_cat=0
split_feature=0 10 2 0 2 0 2 4 3 8 7 8 2 6 5 5 3 1 7 1 3 4 1 10 1 6 6 4 15 9
split_gain=3.9856 2.56779 1.80352 2.03906 1.66149 1.31781 1.25416 1.22368 1.22717 1.17406 1.03265 0.994986 0.978385 0.918073 1.39067 0.855267 0.845196 0.816484 0.802425 1.33507 0.798129 0.727023 0.69511 0.621396 0.599684 0.591153 0.588015 0.568642 0.566045 0.545055
threshold=-0.12609252101225107 0.090265518513327606 -0.40210006153828415 -1.0041741436602396 0.30757177315688794 1.0028695652494488 0.59144050703495676 1.1538029937640373 -0.89041137139243187 -0.86982880119633765 0.45283942944183858 -0.61087201156673021 -0.96983752929442169 -0.84086135411561247 -0.13611033138871251 -0.52210725817875869 -0.82910009729980294 -1.1308477051879229 -0.6336275317909793 -0.18193530020604942 -0.032053534095626543 -0.61817497152959466 0.071807574596368912 -1.6452130654132846 0.51703187835563502 -0.77996643840375512 -0.049227449861465496 1.0653010000954948 0.27337916041829508 -0.43875308487943454
decision_type=2 2 2 2 2 2 2 2 2 2 2 2 2 2 2 2 2 2 2 2 2 2 2 2 2 2 2 2 2 2
left_child=2 4 21 9 5 12 -5 8 17 28 27 -6 -2 14 24 26 -13 -3 22 -20 -17 -1 -11 -7 -10 -21 -15 -8 -4 -22
right_child=1 7 3 6 11 23 10 -9 13 18 -12 16 -14 15 -16 20 -18 -19 19 25 29 -23 -24 -25 -26 -27 -28 -29 -30 -31
leaf_value=-0.030491306776961977 -0.019068653849662161 -0.0014999492701304996 -0.024903250958483954 -0.0036204355337125776 -0.0071390099173656608 -0.01311873467234166 0.0018842869003838282 0.01909076302937281 0.014121452412203056 -0.0038981750184162098 0.025125774812574189 0.029813226746977308 -0.0047678910479869684 0.0029344141538090568 -0.0024551954213529827 0.012187315777621487 0.0084715611068531867 0.019477264310989995 -0.012072747245950338 0.01338916114194596 -0.0099839419436951477 -0.011880196372333628 -0.018106018004861349 0.0044530611919811848 0.035278962996034398 -0.00034640597110178247 -0.013794524216632867 0.018184702420750491 -0.0087217873629383946 0.0058558220333523219
leaf_weight=31 69 23 52 181 29 23 121 95 37 66 30 25 156 34 40 77 72 96 78 47 42 65 72 161 21 94 55 26 37 45
leaf_count=31 69 23 52 181 29 23 121 95 37 66 30 25 156 34 40 77 72 96 78 47 42 65 72 161 21 94 55 26 37 45
internal_value=-1.17871e-12 0.00403791 -0.00493522 -0.00338838 -0.000927223 -0.00402033 0.00223261 0.00873941 0.00664711 -0.0079003 0.00821793 0.00911311 -0.00915346 0.00367187 0.0118892 0.000488858 0.013972 0.0154228 -0.00533854 -0.0015751 0.00477201 -0.01789 -0.011311 0.00225659 0.0217819 0.00423212 -0.00740369 0.00476735 -0.0181761 -0.00179096
internal_weight=2000 1100 900 804 535 409 358 565 470 446 177 126 225 351 98 253 97 119 357 219 164 96 138 184 58 141 89 147 89 87
internal_count=2000 1100 900 804 535 409 358 565 470 446 177 126 225 351 98 253 97 119 357 219 164 96 138 184 58 141 89 147 89 87
is_linear=0
shrinkage=0.1


Tree=28
num_leaves=31
num_cat=0
split_feature=0 8 2 0 2 0 1 7 3 7 1 0 10 0 8 11 13 4 9 5 7 3 9 12 3 6 9 6 5 1
split_gain=3.48669 2.08824 1.75484 2.54102 1.72782 1.4245 1.33029 1.71109 0.985966 0.898216 1.20373 0.758671 0.757885 0.71442 0.71185 0.690681 0.689713 0.675649 0.658561 0.628163 0.763554 0.621687 0.718586 0.604686 0.593041 0.745274 0.652571 0.538232 0.776656 0.565229
threshold=0.62654886982888203 -0.3768688754269745 0.37853895662640519 -1.0041741436602396 -0.96983752929442169 1.3791902606700153 -0.52432328329903377 0.45283942944183858 -0.95172264548506103 -0.21111260242266122 0.74284204992557135 -1.2550546072739506 0.99292204339650769 -0.62785344823967304 0.80617481713395134 0.7638515047143779 -0.22603461947776224 1.4531013255111318 -0.076502430873541985 -1.156999052843021 0.9960729100582475 -0.093364808188255474 0.092951132347939516 -0.10867103454936108 0.45843665864540512 -0.90175626982746993 0.26530133767577063 -0.71907152269189767 -0.3015464042812987 0.41224676444058167
decision_type=2 2 2 2 2 2 2 2 2 2 2 2 2 2 2 2 2 2 2 2 2 2 2 2 2 2 2 2 2 2
left_child=1 6 8 12 5 21 19 11 18 16 -11 -8 15 -10 -5 -4 -7 24 23 -1 -21 -2 -23 -3 25 -6 -27 29 -29 -15
right_child=4 2 3 14 17 9 7 -9 13 10 -12 -13 -14 27 -16 -17 -18 -19 -20 20 -22 22 -24 -25 -26 26 -28 28 -30 -31
leaf_value=-0.031070105644428858 0.0014135259900751069 0.002199953774522458 -0.0022960477223693348 0.0074079750189180839 0.026848453484676984 -0.012935343381160728 -0.017422755914119386 0.0063008162297548062 -0.016940315558560314 0.0078585983337417474 0.033208839545169698 -0.0054419359784084248 -0.010867470978532433 -0.0035098259961159786 0.018673519948946248 0.013108346154735452 0.0072875326761277399 0.029150389045800851 -0.0082043471047654748 -0.0095931107937855635 -0.030945130242034793 -0.019732853854724834 -0.0013425034692599661 0.024354340152984318 0.0030134304573266493 0.015225896636008422 -0.00089153289994491004 -0.017695447164667963 -0.0032279112645271189 0.014767715537353702
leaf_weight=23 86 28 152 173 37 26 75 103 63 67 26 179 82 64 83 36 48 23 24 103 20 43 42 22 64 89 35 58 103 23
leaf_count=23 86 28 152 173 37 26 75 103 63 67 26 179 82 64 83 36 48 23 24 103 20 43 42 22 64 89 35 58 103 23
internal_value=-2.73005e-11 -0.00268792 0.000167638 0.00392253 0.00648586 0.00183463 -0.00785971 -0.00457095 -0.00496242 0.00840382 0.0149458 -0.00897958 -0.0028453 -0.00743094 0.0110605 0.00065373 0.000182198 0.0128251 0.00541203 -0.0159014 -0.013065 -0.0045809 -0.0106459 0.0119479 0.0111562 0.0143931 0.0106766 -0.00501525 -0.00843982 0.00132217
internal_weight=2000 1414 911 526 586 338 503 357 385 167 93 254 270 311 256 188 74 248 74 146 123 171 85 50 225 161 124 248 161 87
internal_count=2000 1414 911 526 586 338 503 357 385 167 93 254 270 311 256 188 74 248 74 146 123 171 85 50 225 161 124 248 161 87
is_linear=0
shrinkage=0.1


Tree=29
num_leaves=31
num_cat=0
split_feature=0 2 0 2 4 10 7 2 8 8 8 0 2 3 10 3 5 6 10 3 38 0 7 1 19 3 28 3 9 17
split_gain=2.88393 1.91606 3.02312 1.67712 1.39751 1.27809 1.09444 0.9391 0.875 0.797886 0.793641 0.788473 0.821942 0.758134 0.641282 0.615392 0.728974 0.735926 0.561025 0.703876 0.577569 0.552957 0.56224 0.906016 0.55279 0.537889 0.528367 0.518969 0.621483 0.514794
threshold=0.75198910163573751 -0.33113287806876707 -1.0041741436602396 0.87530924091302564 -1.5817721375545342 0.43604660566593029 0.81499508318611136 -0.11823132766021528 -0.16300904993565363 -0.83485360012019882 0.95439350593510908 -0.37697298462596213 -0.89887034582490455 -0.21598735637351338 -1.6452130654132846 1.8072846886832421 -0.52210725817875869 0.25524712869782185 0.34691136719300297 -0.95172264548506103 0.68204434975258954 1.1283097970563041 1.177150736930384 -0.18993034943180345 -0.52912033972294881 1.0000000180025095e-35 0.19054118182655186 -0.76778882320717401 -0.53246797655546796 0.33067007000482812
decision_type=2 2 2 2 2 2 2 2 2 2 2 2 2 2 2 2 2 2 2 2 2 2 2 2 2 2 2 2 2 2
left_child=1 4 8 9 -1 7 10 14 27 -4 -5 -6 26 -9 -2 16 17 -7 19 -10 -20 -16 -23 -24 -18 -11 -13 -3 -29 -26
right_child=5 2 3 6 11 15 -8 13 18 25 -12 12 -14 -15 21 -17 24 -19 20 -21 -22 22 23 -25 29 -27 -28 28 -30 -31
leaf_value=-0.034090548157691962 -0.014365816033548778 -0.0041756772207066657 -0.0085789127917639142 0.0057570067242152245 -0.017836171652535478 0.016046475189467592 0.0319836270701628 0.029746812941794772 0.012119569820193151 0.0059629206811351813 0.020491846535084984 -0.0048904096729855346 -0.0004891882822200635 0.0034667940405399902 -0.004929877831309569 -0.0010791024193167688 0.0099356200429610922 -0.0067667651258838868 -0.012344060266935608 -0.0032315707261679118 0.0028503817376784157 0.0012013242867888532 -0.0028945962362922732 0.024237270513549448 0.017994273686286141 -0.0027602762598659815 -0.017754240247772123 -0.024890340602459302 -0.010219546065699045 0.034936707248461658
leaf_weight=20 27 63 87 216 56 31 21 21 44 170 44 67 176 23 80 28 40 26 82 93 36 111 20 32 47 121 61 44 84 29
leaf_count=20 27 63 87 216 56 31 21 21 44 170 44 67 176 23 80 28 40 26 82 93 36 111 20 32 47 121 61 44 84 29
internal_value=-2.52432e-11 -0.00223624 -0.000129783 0.00417321 -0.00836158 0.00644817 0.0100242 0.00246242 -0.0064878 -0.000176355 0.00825059 -0.00693219 -0.00492356 0.0160095 0.000254742 0.0126747 0.0149007 0.00564044 -0.00265441 0.00169872 -0.00770847 0.00187925 0.00522115 0.0138019 0.019451 0.00233575 -0.0110208 -0.0116057 -0.0152626 0.0244591
internal_weight=2000 1485 1105 659 380 515 281 314 446 378 260 360 304 44 270 201 173 57 255 137 118 243 163 52 116 291 128 191 128 76
internal_count=2000 1485 1105 659 380 515 281 314 446 378 260 360 304 44 270 201 173 57 255 137 118 243 163 52 116 291 128 191 128 76
is_linear=0
shrinkage=0.1


Tree=30
num_leaves=31
num_cat=0
split_feature=3 1 6 5 1 9 7 3 6 1 5 6 5 4 5 0 7 5 5 0 6 5 12 12 0 7 8 4 12 6
split_gain=2.46129 2.46882 2.35917 3.69253 2.40877 1.78612 1.70155 1.45019 1.13311 1.37485 0.952861 0.891704 1.60332 0.843072 0.77612 0.75389 0.661987 0.655163 0.653873 0.582189 0.553695 0.547064 0.639809 0.465403 0.45216 0.434448 0.432481 0.407112 0.397797 0.394837
threshold=-0.21598735637351338 -1.2199925040550978 -0.23191219699703788 0.19729273939218678 0.96585395426649667 -0.55700423910337526 0.9960729100582475 1.7459734145906134 -0.11012236557332293 0.25334516107868504 0.89280327419843075 1.2904606957993991 -0.91156105813372024 1.9679480506251734 -0.0132678742781821 1.0000000180025095e-35 -0.93542390991120661 0.54489368210045008 -0.088084486347513438 -0.87873391185338412 -0.84086135411561247 0.28019596547232456 -0.8207038069810958 0.89915507881432977 0.75198910163573751 0.6942765319380203 0.6588580676155722 0.72614871603343234 0.5512881057466017 -0.84086135411561247
decision_type=2 2 2 2 2 2 2 2 2 2 2 2 2 2 2 2 2 2 2 2 2 2 2 2 2 2 2 2 2 2
left_child=1 6 4 11 17 7 14 15 13 18 24 19 -13 21 -1 -2 -11 20 -10 -4 -3 22 -7 -6 26 -17 -5 -23 -12 -24
right_child=5 2 3 10 23 8 -8 -9 9 16 28 12 -14 -15 -16 25 -18 -19 -20 -21 -22 27 29 -25 -26 -27 -28 -29 -30 -31
leaf_value=-0.011105399051448332 -0.012080365775859562 0.016788225482848317 -0.010531878692563624 -0.0011459012032719329 0.023943239240636401 -0.0053622591232911493 -0.028064198655271402 -0.022949494640730941 -0.0085584864895340181 -0.028743781335651877 0.013100404669926064 -0.030287911745664833 -0.0052733239737930357 0.020167186685527364 0.009612179344350642 -0.0041732348223822375 -0.0090019223626170829 -0.0020852291860277406 0.0055437727309098211 0.0021315540679286691 0.0059319082786202099 -0.0072372487138232426 0.0098257119367190175 0.042407665727660061 0.015159886585136589 0.0095798472998042915 0.013294239984160024 0.0021746826975140724 0.02621831214509723 0.0013418791574319282
leaf_weight=40 116 82 48 80 43 61 37 66 62 33 53 34 104 24 33 98 35 52 70 149 110 108 128 20 39 30 28 80 41 96
leaf_count=40 116 82 48 80 43 61 37 66 62 33 53 34 104 24 33 98 35 52 70 149 110 108 128 20 39 30 28 80 41 96
internal_value=-1.49192e-11 0.0035327 0.00529259 0.00151898 0.0123727 -0.00348358 -0.0105944 -0.00979862 -0.000674887 -0.00703087 0.0109588 -0.00527207 -0.0114363 0.00188285 -0.00173992 -0.00624141 -0.0185825 0.00787177 -0.00108002 -0.000953952 0.0105685 0.000955107 0.00371724 0.029805 0.00593063 -0.000949856 0.00259784 -0.00323217 0.018822 0.00618978
internal_weight=2000 993 883 576 307 1007 110 310 697 200 241 335 138 497 73 244 68 244 132 197 192 473 285 63 147 128 108 188 94 224
internal_count=2000 993 883 576 307 1007 110 310 697 200 241 335 138 497 73 244 68 244 132 197 192 473 285 63 147 128 108 188 94 224
is_linear=0
shrinkage=0.1


Tree=31
num_leaves=31
num_cat=0
split_feature=0 13 3 4 2 0 5 6 2 0 5 7 8 1 8 16 1 6 9 25 7 2 32 6 10 8 3 20 10 22
split_gain=2.2599 1.35361 1.28913 1.30233 1.22332 1.58353 0.896867 1.06829 0.841014 1.26613 0.791937 0.731406 0.643531 0.630769 0.625795 0.581085 0.564803 0.829114 0.558192 0.5455 0.545012 0.537714 0.584595 0.504531 0.454117 0.448124 0.444544 0.440133 0.636288 0.456308
threshold=0.50110863802202654 -1.7171562071213982 -0.95172264548506103 0.93227686436766344 -0.96983752929442169 1.6300707242837265 0.73749090128882966 1.2904606957993991 -0.40210006153828415 -0.75329368004652864 -0.89779529535198932 -0.93542390991120661 0.68321042825023814 1.0000000180025095e-35 -0.75177497062990206 -0.48885606493128714 -0.4772024619247372 -0.71907152269189767 0.4195901275169493 0.028061255816961856 0.9960729100582475 0.80434205744350851 0.091717772182112953 -0.17101728128518043 -0.4857013559216441 -1.5388673180567098 1.0715493995716947 0.97663610155241642 0.69972614155249269 0.51142474136546479
decision_type=2 2 2 2 2 2 2 2 2 2 2 2 2 2 2 2 2 2 2 2 2 2 2 2 2 2 2 2 2 2
left_child=2 -2 6 8 5 27 7 13 11 14 -9 -4 -6 -1 -10 -7 19 -18 23 -13 -17 -16 -23 -15 -14 -11 -5 28 29 -3
right_child=1 4 3 26 12 15 -8 10 9 25 -12 16 24 18 21 20 17 -19 -20 -21 -22 22 -24 -25 -26 -27 -28 -29 -30 -31
leaf_value=-0.0012700562162372548 -0.016072404823110752 -0.00075018509523943071 -0.024699590242401301 0.006080551775004198 0.0077170931427325649 0.002283520670607686 0.015111186529316431 -0.025831313300877814 -0.016978732630701012 -0.012814257062971594 -0.0029911517424301968 -0.027585568547248841 0.0075936565112788238 0.025393236819804918 -0.014081445242470457 0.011442647091540937 0.010193443545622044 -0.010046362442159054 -0.0002437252023567756 -0.0083572638363370467 0.031318090991540391 -0.0080460137296372008 0.0043257424667668635 0.0073515184455308982 0.024214569261918464 0.0010936770416852205 -0.0054043833780187097 -0.01090073933045627 0.0070818579740225193 -0.013577267729366819
leaf_weight=78 30 96 35 144 225 33 53 20 72 25 63 25 25 31 63 37 29 67 30 36 22 97 63 31 48 316 44 49 74 39
leaf_count=78 30 96 35 144 225 33 53 20 72 25 63 25 25 31 63 37 29 67 30 36 22 97 63 31 48 316 44 49 74 39
internal_value=9.69562e-12 0.00469386 -0.00240729 -0.00412104 0.00565526 0.00164606 0.0032828 0.000804911 -0.00582703 -0.00407594 -0.00849481 -0.0116275 0.010364 0.00534536 -0.00887302 0.0129101 -0.00871336 -0.00393225 0.0109541 -0.0162377 0.0188538 -0.00625593 -0.00317463 0.0163724 0.0185225 7.40338e-05 0.00339259 -0.00237058 -0.000370688 -0.00445579
internal_weight=2000 678 1322 1016 648 350 306 253 828 636 83 192 298 170 295 92 157 96 92 61 59 223 160 62 73 341 188 258 209 135
internal_count=2000 678 1322 1016 648 350 306 253 828 636 83 192 298 170 295 92 157 96 92 61 59 223 160 62 73 341 188 258 209 135
is_linear=0
shrinkage=0.1


Tree=32
num_leaves=31
num_cat=0
split_feature=0 4 3 9 8 2 10 0 3 1 9 12 6 1 11 1 6 2 3 7 9 5 5 13 7 37 5 1 6 10
split_gain=1.90501 1.3436 1.18675 1.11691 0.985198 0.960185 0.925289 0.798438 0.725807 0.947965 0.717355 0.781865 0.693428 0.774951 0.647005 0.617338 0.622692 0.612915 0.583058 0.530183 0.475528 0.470106 0.455606 0.44777 0.524177 0.442405 0.438314 0.399581 0.38646 0.371885
threshold=0.75198910163573751 -1.9451685578833355 1.0000000180025095e-35 -0.5787290549009908 0.7979571481131984 -0.8279031623553873 -1.6452130654132846 1.8809511878974374 -0.15467608228088447 -0.76772256316563126 0.29639764264100005 -0.18900381302035446 -0.11012236557332293 0.034830471927248606 0.52493012957868179 -1.2602175954721788 1.1077759486638266 -0.68596879541635303 1.9299072368685002 -0.57326825616693389 0.16749706890842894 -0.024934821209783697 -0.24352031901300855 -1.0715139139942285 -0.21111260242266122 -0.47518916608756534 0.19729273939218678 0.058615743373871605 -0.17101728128518043 0.81892201939768761
decision_type=2 2 2 2 2 2 2 2 2 2 2 2 2 2 2 2 2 2 2 2 2 2 2 2 2 2 2 2 2 2
left_child=1 -1 4 18 10 6 -2 8 9 -8 11 14 -5 -14 28 -12 -17 -6 -4 -13 25 -18 -19 -7 -25 -10 -21 -26 -3 -22
right_child=5 2 3 12 17 23 7 -9 20 -11 15 19 13 -15 -16 16 21 22 -20 26 29 -23 -24 24 27 -27 -28 -29 -30 -31
leaf_value=-0.01944864297880226 -0.018609554022550583 0.0053688848066964856 -0.0088779677919165745 0.00036676419246648015 -0.008116931861943821 -0.00079811691935174173 -0.0079387766167973023 0.017598615333230962 0.0025322054202357933 0.011385837587400933 -0.019827970355749132 -0.002045220571784051 -0.00097273110857650901 -0.017871349898404353 -0.018036392552866824 -0.00039792253295275462 -0.022018536442407855 0.0029172315983281983 -0.024249991535519561 0.021832669987493464 -0.0020480278259986696 -0.0029881377578713001 0.013807331156207477 0.0085847331680891266 0.011127246797938521 -0.013932341403400928 0.0074173080417412251 0.027980025292045491 -0.0027007753241710683 0.013178793478595175
leaf_weight=42 20 93 139 317 22 25 33 36 24 110 25 37 58 51 21 174 27 62 30 31 53 25 101 82 24 51 66 34 164 23
leaf_count=42 20 93 139 317 22 25 33 36 24 110 25 37 58 51 21 174 27 62 30 31 53 25 101 82 24 51 66 34 164 23
internal_value=1.96087e-12 -0.0018175 -0.00130432 -0.00472795 0.00109787 0.00524074 0.00227603 0.00354183 0.00182059 0.00692631 -0.000702632 0.0018648 -0.00199904 -0.00887942 -0.00115966 -0.0049169 -0.00326744 0.00755047 -0.0116067 0.00813942 -0.00301463 -0.0128693 0.00966508 0.0115295 0.0137309 -0.00866369 0.0120243 0.0210065 0.000219374 0.00256009
